#include "hls_math.h"
#include <hls_stream.h>
#include <ap_axi_sdata.h>

#define INPUT_NODES 48
#define HIDDEN_LAYER_NODES 128
#define OUTPUT_NODES 2

// reference: https://github.com/EricBryann/CG4002/blob/main/Hardware_Ai/HLS/hls.cpp

// typedef ap_fixed<32, 16> custom_float;
typedef float custom_float;
custom_float input_weight[INPUT_NODES * HIDDEN_LAYER_NODES] = {9.198496991302818e-05,0.00032058547367341816,-0.0001472766016377136,0.00047258782433345914,0.000542530557140708,0.0011771244462579489,0.00033452766365371644,0.00042160466546192765,0.00012574288120958954,-2.2041460397304036e-05,0.00017840969667304307,0.0005242908955551684,0.00019113183952867985,0.00030220652115531266,-2.767415026028175e-05,0.00010847029625438154,7.164258568082005e-05,4.692150105256587e-05,6.1753649788443e-05,3.433228630456142e-05,7.992143946466967e-05,-0.00010660372208803892,-0.00012041121226502582,-0.00020802448852919042,3.773702701437287e-05,-0.00018568499945104122,7.964234100654721e-05,-9.957473230315372e-05,-0.00010346363706048578,-0.0002248161326861009,0.00013421924086287618,3.714491322170943e-05,0.0001214292278746143,-1.6916943650358007e-06,4.3175576138310134e-05,0.0004798263544216752,-3.483666660031304e-05,-0.0025182641111314297,0.0004137203504797071,-0.000506007403600961,-0.0009486993658356369,-0.0015676605980843306,0.01635364070534706,0.028507841750979424,0.015435735695064068,-0.0067207044921815395,0.017636524513363838,0.009771566838026047,3.449312391268222e-09,1.159885520962689e-08,-6.8375576312007524e-09,1.742768240831083e-08,2.1099184621675704e-08,4.7148692061682596e-08,1.3515616181791756e-08,1.6310819361819995e-08,4.967325661908717e-09,-1.3979970514554907e-09,8.805928430888343e-09,2.3853916175653467e-08,7.421702363785698e-09,1.13521059219579e-08,-1.3805767640207023e-09,4.350773519234963e-09,2.9152107394736504e-09,1.9802348649733403e-09,2.7153996828843674e-09,1.6748464837235133e-09,3.4101763635163707e-09,-3.3277165467637815e-09,-4.256903274324486e-09,-7.073464924900463e-09,2.008977872947071e-09,-6.588362744253118e-09,3.757397948334074e-09,-3.06947911532518e-09,-3.427410355527627e-09,-7.720773353980803e-09,5.529328994668958e-09,1.8059094220035377e-09,5.058577556837918e-09,5.825233628797832e-10,2.4827389033532654e-09,2.0349753881987453e-08,2.2747417283142113e-09,-8.670424023193846e-08,1.948138184104664e-08,-1.4665410219549813e-08,-3.390192304664197e-08,-5.414055692654074e-08,3.522973770486715e-07,-4.651056713100843e-07,3.63981968121152e-07,2.4385309416175005e-07,1.5942326569984289e-07,2.190965204817985e-07,-2.9342945140342636e-07,3.099958689745108e-07,-3.89237499121009e-07,6.128538529992511e-07,3.4917221114483254e-07,1.0754179129435215e-06,5.657620363308524e-07,8.685824468557257e-07,3.284839920070226e-07,2.6390114271634957e-07,7.209749810499488e-07,4.393796757540258e-07,6.566705224031466e-08,5.427276050795626e-07,-7.07469425265117e-08,2.3443620023044787e-07,1.5231933048198698e-07,7.128716106308275e-08,1.9811869833574747e-07,1.8152276481941954e-07,2.3312344410442165e-07,-1.3109170993175212e-07,1.403050902126779e-07,-1.0854711973706799e-07,-1.5212421544674726e-08,-1.7649533390340366e-07,2.2042436853553227e-07,-9.546381818381633e-08,2.4098588369270146e-07,-1.7931543538907135e-07,4.247010281233088e-07,1.4728284725151752e-07,2.2798147369940125e-07,1.1656536713644527e-07,1.214884036926378e-06,-2.0834832525906677e-08,1.2388024117626628e-07,-3.5402620142122032e-06,1.0885713663810748e-06,-4.334795562499494e-07,5.819517756577852e-09,-1.4441826579059125e-06,1.4354153790918645e-05,-2.4937837224570103e-05,2.0911742467433214e-05,-5.295826667861547e-06,4.964151594322175e-05,-1.2381507985992357e-05,-4.781616098625818e-07,-9.975210559787229e-07,5.950165586909861e-07,-9.401323382007831e-07,-2.3284080725716194e-06,-4.735616130346898e-06,-6.776818395337614e-07,-9.88938040791254e-07,-4.312612986723252e-07,-6.172551820782246e-07,-8.094633585642441e-07,-1.788309532457788e-06,-5.31832654360187e-07,-7.789504365973698e-07,2.2230406671042147e-07,-3.7581077094728244e-07,-4.0116998434314155e-07,-2.1592684618099156e-07,-7.127654555461049e-08,-4.286154364763206e-08,-2.528426819026208e-07,-4.795752772679407e-08,4.262953439138073e-07,9.536527727505018e-07,3.2788983617138e-07,6.009837534293183e-07,-3.385871423233766e-07,-3.745758476725314e-07,4.1687817997626553e-07,8.185217552636459e-07,-2.2744454497569677e-07,-1.2011454941784905e-08,-4.6922912133595673e-07,3.462773463525082e-07,2.1325894294932368e-07,-2.1641271814587526e-06,4.370516307972139e-06,7.74935233494034e-06,-2.365098907830543e-06,-1.1366743137841695e-06,3.2619943794998107e-06,5.756730388384312e-06,1.3789519471174572e-05,3.7982033973094076e-05,-3.392235521459952e-05,-7.484724483219907e-05,-1.3495002349372953e-05,2.5162091333186254e-05,9.429876754562988e-21,3.388391898545758e-20,-1.543885276627203e-20,4.060413138346871e-20,5.594271596544997e-20,1.0114599094175912e-19,3.094853933484245e-20,3.851628551211939e-20,1.4816394508564476e-20,1.1625058196120303e-21,2.3620880714771894e-20,5.589652309811771e-20,1.5114066437984193e-20,2.991887718679866e-20,-3.622493705421068e-21,1.2915938973288225e-20,7.101762380248287e-21,4.912435826464199e-21,6.95962383200198e-21,4.021297754351413e-21,9.757569524104699e-21,-9.192308705491911e-21,-8.635816486048327e-21,-2.257581071223217e-20,3.976540740084402e-21,-1.51102342653026e-20,8.579297593549794e-21,-7.63024920451941e-21,-9.684869718666664e-21,-2.2460806757693156e-20,1.3738292211485182e-20,3.984754788969896e-21,1.5587837364998208e-20,1.1967174927593407e-21,6.42409708679492e-21,4.917443985020553e-20,4.01141843902766e-21,-2.755913252445918e-19,5.324548355189341e-20,-4.3163612375641044e-20,-8.628594326883686e-20,-1.6138261439166892e-19,8.641226021072225e-19,-1.115821151400344e-18,8.268556339698709e-19,6.025783287780355e-19,4.1158806390504095e-19,5.463918271764296e-19,3.383891089470126e-05,0.00011269030801486224,-6.389449117705226e-05,0.0001725913753034547,0.00020415328617673367,0.0004509098653215915,0.0001358924782834947,0.00016175812925212085,4.963297033100389e-05,8.151283509505447e-06,8.494089706800878e-05,0.0002333307929802686,7.532544987043366e-05,0.00010980758088408038,-1.3932080037193373e-05,4.368976806290448e-05,2.9326854928513058e-05,1.9866647562594153e-05,2.6125311705982313e-05,1.6602034520474263e-05,3.358845424372703e-05,-3.1807288905838504e-05,-3.9897338865557685e-05,-6.953092088224366e-05,1.9067947505391203e-05,-6.245932308956981e-05,3.538774763001129e-05,-3.19699574902188e-05,-3.3348260330967605e-05,-7.57845991756767e-05,5.53422978555318e-05,1.7532172932988033e-05,5.0125931011280045e-05,6.211359504959546e-06,2.4776092686806805e-05,0.00020244710322003812,2.4306851628352888e-05,-0.0008625826449133456,0.00019335448450874537,-0.00013680514530278742,-0.0003351614286657423,-0.000534358317963779,0.003396193962544203,-0.004548880271613598,0.003353486768901348,0.00231911800801754,0.0015545801725238562,0.002120804274454713,-2.635682783136417e-10,1.717475606177743e-10,-3.2462368904084826e-10,5.032964600637513e-10,3.270926307585853e-10,9.875056328212395e-10,3.994717057143049e-10,7.437414573097101e-10,2.8042052013788066e-10,3.265390735585072e-10,5.90524074084442e-10,3.5815733712141196e-10,2.72740996454246e-11,4.411478959909232e-10,-5.577963438363476e-11,2.1130233673893883e-10,1.3827440581426487e-10,6.347561365416254e-11,1.6558518445286552e-10,1.5276692411081427e-10,1.9768305048462054e-10,-6.000835245378866e-11,1.270423349852834e-10,-9.861589322923692e-11,1.1170143976446667e-10,-1.565970964012564e-10,2.179747354835726e-10,-8.424321656930189e-11,2.0749395257535497e-10,-1.761386869691961e-10,3.998475162081405e-10,1.2335497900917147e-10,1.9646467785960908e-10,1.4623209587671937e-10,1.0550279538890095e-09,-1.8258356632161465e-11,8.252550726117747e-11,-3.197509590435743e-09,9.631353492522976e-10,-4.2936998401188475e-10,-9.868310162086669e-12,-1.2246957892259047e-09,1.2838418328442458e-08,-2.139312549331862e-08,1.8822145619878938e-08,-4.748875515048212e-09,4.416354570935255e-08,-1.1435074220855768e-08,0.00012427337060216814,0.00042282106005586684,-0.00023178871197160333,0.0006501645548269153,0.0007503118831664324,0.0016639557434245944,0.0004944197135046124,0.0005967295728623867,0.00018172987620346248,1.779336525942199e-05,0.000302227825159207,0.0008317237952724099,0.00027727396809495986,0.00040946563240140676,-4.928317866870202e-05,0.00015935070405248553,0.00010669234325177968,7.164655107771978e-05,9.402487194165587e-05,5.832644455949776e-05,0.00012154743308201432,-0.00012855268141720444,-0.00015117687871679664,-0.00026764636277221143,6.699596997350454e-05,-0.0002368185669183731,0.00012708587746601552,-0.0001138377920142375,-0.00012551018153317273,-0.0002894443168770522,0.00020042166579514742,6.194839806994423e-05,0.00018183632346335799,2.1454132365761325e-05,8.513034845236689e-05,0.0007346515194512904,5.5262393289012834e-05,-0.003218080848455429,0.0006853477680124342,-0.0005463598645292222,-0.0012422858271747828,-0.0020303388591855764,0.01211771834641695,-0.017662949860095978,0.012282859534025192,0.007901192642748356,0.005134582053869963,0.010526294820010662,0.00016904111544135958,0.0005656430148519576,-0.00031808592029847205,0.0008602102752774954,0.0010125103872269392,0.002239726483821869,0.0006699701771140099,0.0008039269596338272,0.00024665429373271763,3.246824417146854e-05,0.000416928727645427,0.0011472697369754314,0.0003777642559725791,0.000537186861038208,-6.819667760282755e-05,0.00021529174409806728,0.0001444023073418066,9.851408685790375e-05,0.0001279305579373613,7.939414354041219e-05,0.00016519719792995602,-0.00016275225789286196,-0.00020261097233742476,-0.00034979707561433315,9.367952588945627e-05,-0.00031358751584775746,0.00017380052304361016,-0.00014697606093250215,-0.00016792205860838294,-0.00038074798067100346,0.0002738262410275638,8.56819242471829e-05,0.00024732539895921946,2.8072936402168125e-05,0.00011953969078604132,0.0010032259160652757,0.00010592278704280034,-0.004301555920392275,0.0009494275436736643,-0.0007050244021229446,-0.0016763905296102166,-0.002693441929295659,0.017245570197701454,-0.02324504591524601,0.017037350684404373,0.011788026429712772,0.010156024247407913,0.010560770519077778,-0.00043331459164619446,-0.0009079428273253143,0.0003124482755083591,-0.001433938043192029,-0.0016501955687999725,-0.0032673438545316458,-0.0008373040473088622,-0.0010420976905152202,-0.0003090909158345312,0.0002502395655028522,-0.00022430905664805323,-0.0012043011374771595,-0.0005649468512274325,-0.0007995712803676724,4.975063347956166e-05,-0.0002912022755481303,-0.00018047371122520417,-0.0001211315393447876,-9.56204894464463e-05,-4.995818017050624e-05,-0.00018067147175315768,0.00040615411126054823,0.0004560752131510526,0.0006548656965605915,5.909281298954738e-06,0.0005448348238132894,-0.00016372292884625494,0.00039242402999661863,0.00042331061558797956,0.000703887315467,-0.0002799851354211569,-5.897452138015069e-05,-0.00027887962642125785,0.00011188536882400513,2.7561874958337285e-05,-0.0011689368402585387,0.0008504411089234054,0.006764765363186598,-0.000800164183601737,0.00195047736633569,0.003262673504650593,0.004652969539165497,-0.01375875435769558,0.0443289652466774,-0.020848743617534637,-0.007982033304870129,0.0032305740751326084,0.006765997968614101,-0.00036123828613199294,-0.0007826212677173316,0.0003169234551023692,-0.001244330545887351,-0.0014112897915765643,-0.002854094374924898,-0.0007784072658978403,-0.0009192336001433432,-0.0002619114238768816,0.00018134716083295643,-0.00030980026349425316,-0.00107477733399719,-0.0005044199642725289,-0.0006951684481464326,6.856934487586841e-05,-0.0002659386082086712,-0.0001842039346229285,-0.00010979617945849895,-9.738338849274442e-05,-4.824662391911261e-05,-0.00016804685583338141,0.0003417343250475824,0.00035670591751113534,0.0005658437730744481,-2.0074226995348e-05,0.000465726712718606,-0.00017974530055653304,0.0003273268521297723,0.0003207734553143382,0.0006064703920856118,-0.0002612251555547118,-5.8939054724760354e-05,-0.00025987011031247675,9.11433671717532e-05,-2.189645601902157e-05,-0.001049763523042202,0.0005755224847234786,0.005693349521607161,-0.0009568277164362371,0.001597965369001031,0.002563863294199109,0.003987334668636322,-0.013696309179067612,0.05318736657500267,-0.010912253521382809,-0.02411259524524212,0.010341090150177479,0.008647977374494076,-3.640705836005509e-05,6.795203080400825e-05,-5.5494758271379396e-05,0.00011870759772136807,9.507216600468382e-05,0.00025482242926955223,8.242989133577794e-05,0.00014248925435822457,5.399566362029873e-05,3.254606781410985e-05,0.00010481585195520893,0.00010013163409894332,1.7584052329766564e-05,9.860026329988614e-05,-7.3099927249131724e-06,3.569210093701258e-05,2.8196782295708545e-05,1.5425030142068863e-05,2.988559026562143e-05,2.5691471819300205e-05,3.640117938630283e-05,-2.4366792786167935e-05,8.884949238563422e-06,-3.283558908151463e-05,1.5158006135607138e-05,-3.921064853784628e-05,3.358137109898962e-05,-1.906950637931004e-05,2.4767823560978286e-05,-4.5881548430770636e-05,6.384361040545627e-05,1.7869337170850486e-05,3.366025339346379e-05,2.6420473659527488e-05,0.000174580083694309,-3.322106749692466e-06,-2.0358538677101023e-05,-0.000664858496747911,0.00014446266868617386,-7.31848631403409e-05,-4.9866695917444304e-05,-0.0002748146653175354,0.0022368638310581446,-0.0044387336820364,0.00327669526450336,0.0004518493078649044,0.00845285039395094,-0.0019259557593613863,-4.625863948604092e-05,-0.00010333296086173505,7.072756488923915e-06,-0.00015975095448084176,-0.00017002932145260274,-0.00037400476867333055,-7.950211147544906e-05,-0.00010246877354802564,-3.0241377316997387e-05,1.5518673535552807e-05,2.500994742149487e-05,-0.00013230151671450585,-5.302778663462959e-05,-8.844659168971702e-05,-4.4634166442847345e-06,-3.2201922294916585e-05,-9.627931831346359e-06,-1.9402106772758998e-05,-4.965212610841263e-06,1.9884685116267065e-06,-9.476329978497233e-06,4.7016354074003175e-05,5.649704689858481e-05,8.088468894129619e-05,8.318146683450323e-06,6.549775571329519e-05,-6.126418611529516e-06,4.541410453384742e-05,5.28820492036175e-05,8.890008757589385e-05,-2.9484530386980623e-05,-5.312941993906861e-06,-1.8328744772588834e-05,3.2908643333939835e-05,1.0549792932579294e-05,-0.00013644785212818533,0.00015065516345202923,0.000756304245442152,1.3603274965134915e-05,0.00018900797294918448,0.00040012531098909676,0.00048364061512984335,-0.0008626332273706794,0.004455029033124447,-0.0013591473689302802,-0.0003828643821179867,0.0013402983313426375,-0.0012613969156518579,-0.00019579291983973235,-0.000538757536560297,0.00022738330881111324,-0.0008364706300199032,-0.0009499673033133149,-0.001988405594602227,-0.000543250294867903,-0.0006711810710839927,-0.00020594634406734258,8.845404954627156e-05,-0.0002279586042277515,-0.0008234992274083197,-0.00032775814179331064,-0.0004941514343954623,3.866580664180219e-05,-0.0001828720123739913,-0.00011756143067032099,-7.609473686898127e-05,-8.458895899821073e-05,-4.51896084996406e-05,-0.00012696879275608808,0.00021226171520538628,0.00023554987274110317,0.0003689218719955534,-3.739965904969722e-05,0.0003213025629520416,-0.00012068914656993002,0.00020293261331971735,0.0002121764118783176,0.0003972504928242415,-0.00020371646678540856,-5.0878272304544225e-05,-0.00019223180424887687,4.043615990667604e-05,-3.0300025173346512e-05,-0.0007749563083052635,0.00024277693592011929,0.004180160816758871,-0.0005887418519705534,0.0010202816920354962,0.0017639590660110116,0.002721291035413742,0.003647768869996071,0.023606453090906143,-0.0022137979976832867,-0.02451403997838497,0.0005794069147668779,0.028324024751782417,-0.00025786113110370934,-0.0009704874246381223,0.00018308230210095644,-0.0006894582184031606,-0.0013369097141548991,-0.003130500903353095,-0.0005431463359855115,-0.0006980254547670484,-0.00015604766667820513,-0.0001232166978297755,-0.0004274439997971058,-0.0008282235357910395,-0.00030644223443232477,-0.0006907368078827858,7.791159441694617e-05,-0.00034408841747790575,-0.00014083101996220648,-0.00014448011643253267,-3.954589192289859e-05,4.954655742039904e-05,-6.566466618096456e-05,0.00010528063285164535,0.000330154609400779,0.0007787552895024419,0.00021958256547804922,0.0005758312763646245,-0.00011391332373023033,0.00011599289427977055,0.00030896300449967384,0.0007988579454831779,-0.00016592633619438857,-2.024280547630042e-05,-0.00027884452720172703,0.0001538810320198536,0.00037520937621593475,-0.001425097230821848,0.0031774670351296663,0.006715485360473394,-0.0008855129708535969,0.0004821729089599103,0.0021801022812724113,0.005420067347586155,0.01730538159608841,0.05931025370955467,-0.011316174641251564,-0.05041751638054848,-0.014198449440300465,0.004193012602627277,-1.9669499661757618e-17,-3.5210689778773335e-17,1.1518216233018155e-17,-6.325180152441065e-17,-6.390345441097993e-17,-1.3011365747001913e-16,-3.876905533785395e-17,-4.6158852011108734e-17,-1.5824074305980276e-17,9.666126581468037e-18,-1.081840406400543e-17,-6.584094301615063e-17,-3.120091521581028e-17,-3.1486441419651336e-17,1.3013293284624315e-18,-1.2894145155216411e-17,-8.634006181890709e-18,-7.802187567643096e-18,-4.221764410348143e-18,-2.6095445219340607e-18,-7.467142196431555e-18,1.4887214507286393e-17,1.694181699794358e-17,3.137843479270906e-17,-3.321783838879476e-18,2.0468779472249232e-17,-6.952932813263478e-18,1.6130250246633104e-17,1.6758077022838402e-17,3.0247394345218355e-17,-1.1258311121470319e-17,-1.8103749332590693e-18,-1.0598807463707303e-17,5.796039662908039e-18,1.4171873469839056e-18,-5.2673319542715003e-17,7.553462629254526e-17,2.5827868917510015e-16,-2.748478149849743e-17,8.99440794759945e-17,1.3068535176985658e-16,1.7636377397247207e-16,-8.149767206676653e-16,1.6185769418207581e-15,-9.16890507271441e-16,-9.486898049423722e-17,1.8299003330950366e-16,6.561234999951038e-17,-0.0004188688180875033,-0.0006160136545076966,0.00028831983217969537,-0.0010770332301035523,-0.001218379708006978,-0.0025211700703948736,-0.0009079627925530076,-0.0008128221379593015,-0.0002529746270738542,9.994586434913799e-05,-0.00036742741940543056,-0.0012410955969244242,-0.0005992432706989348,-0.0005981235881336033,5.395262996898964e-05,-0.00024209963157773018,-0.00016712149954400957,-0.00013804166519548744,-0.00011409303260734305,-5.753825098508969e-05,-0.0001602644770173356,0.00025193364126607776,0.0002643756743054837,0.00045815855264663696,-0.00016259706171695143,0.0003728314477484673,-0.00016604633128736168,0.00023580298875458539,0.0002297203172929585,0.00048779789358377457,-0.00026154634542763233,-5.226122084422968e-05,-0.00024078130081761628,4.556964267976582e-05,-5.1126990001648664e-05,-0.0010563060641288757,-0.0010021106572821736,0.0047231013886630535,-0.0008505801670253277,0.0011486813891679049,0.002028699731454253,0.0035441608633846045,-0.024388033896684647,0.035298340022563934,-0.01726141944527626,0.004694605246186256,0.016838323324918747,-0.003676394931972027,-0.0003357632667757571,-0.0008346647373400629,9.569450048729777e-05,-0.001284270896576345,-0.0015403366414830089,-0.0029736715368926525,-0.000650072586722672,-0.0008350647403858602,-0.00026569855981506407,0.0003801204729825258,0.00025156696210615337,-0.0009823230793699622,-0.0004366359207779169,-0.0007489966810680926,-4.0913608245318756e-05,-0.00019755463290493935,-0.00010439055768074468,-9.034915274241939e-05,-6.662836676696315e-05,6.933559689059621e-06,-0.00010570383165031672,0.00044093639007769525,0.0005143487360328436,0.0006199921481311321,2.2979022105573677e-05,0.0005293102585710585,-6.0138267144793645e-05,0.00042450660839676857,0.00047870189882814884,0.000667896936647594,-0.00026481185341253877,-3.2928470318438485e-05,-0.00014351974823512137,0.00023907124705146998,6.235540786292404e-05,-0.0009397752000950277,0.0008864296250976622,0.006057335063815117,9.148039680439979e-05,0.0018743250984698534,0.0034947292879223824,0.0034851201344281435,9.19817466638051e-07,0.06726562231779099,-0.013463049195706844,-0.0012799807591363788,0.0273289754986763,-0.025695862248539925,-4.990626985090785e-05,-8.924931898945943e-05,2.1228679543128237e-05,-9.305302955908701e-05,-0.0002453199995215982,-0.00033007044112309813,-8.482870907755569e-05,-9.037025301950052e-05,-3.4251337638124824e-05,-5.284412964101648e-06,-6.260725785978138e-05,-0.0001518185599707067,-5.715148654417135e-05,-8.170202636392787e-05,2.4568223579990445e-06,-2.3968977984623052e-05,-3.814046431216411e-05,-3.6811328754993156e-05,-8.46778948471183e-06,-2.4086295979941497e-06,-1.7153710359707475e-05,8.410267582803499e-06,4.58259746665135e-05,5.915157817071304e-05,1.2083716683264356e-05,5.5652737501077354e-05,-5.923367280047387e-05,1.4116868442215491e-05,4.446358798304573e-05,8.613296813564375e-05,-2.8108557671657763e-05,9.042848887474975e-07,-2.518696965125855e-05,3.89936612918973e-05,-2.271703488077037e-05,-9.110103565035388e-05,0.00021789214224554598,0.0006819143309257925,-5.91707976127509e-05,1.1551997886272147e-05,0.00036110254586674273,0.0003705213312059641,-0.00035904720425605774,0.0037559696938842535,-0.0018756187055259943,-0.003962348680943251,0.0010544172255322337,0.0007145754061639309,0.00025171355810016394,0.0008391400333493948,-0.0004446552484296262,0.0012627113610506058,0.0014832406304776669,0.0032506026327610016,0.0009597426396794617,0.0011642121244221926,0.0003536485892254859,1.4789643500989769e-05,0.0005651965620927513,0.0015913575189188123,0.0005424029077403247,0.0008073938079178333,-9.237665653927252e-05,0.0003089419624302536,0.000205625023227185,0.00013860058970749378,0.00018110073870047927,0.00011057727533625439,0.00023448007414117455,-0.00025193928740918636,-0.0003084010095335543,-0.0005293892463669181,0.00012466174666769803,-0.00047343087499029934,0.00024294480681419373,-0.00023063074331730604,-0.00025970785645768046,-0.0005746075185015798,0.00038793147541582584,0.00011716580047504976,0.0003515491262078285,2.4339056835742667e-05,0.00015352944319602102,0.0014094016514718533,5.296850576996803e-05,-0.006385467015206814,0.001301814685575664,-0.0011148042976856232,-0.0024909903295338154,-0.0040244790725409985,0.03179516643285751,-0.03502529114484787,0.020356662571430206,0.01378626562654972,0.026865212246775627,0.01724502444267273,2.3982807323316392e-18,4.176203302208722e-18,-4.5558949198022e-18,1.0781611070359072e-17,1.2891923348091094e-17,3.2699567962409356e-17,8.687968136331218e-18,9.886901914139052e-18,3.0606253419084686e-18,5.690625730198236e-19,5.554231195211331e-18,1.518808656585153e-17,4.819917736439326e-18,7.139236221086959e-18,-1.0147666673138485e-18,2.6497812752656308e-18,1.8990747511140493e-18,1.3361911655712086e-18,1.8650364757026454e-18,1.2570333930699106e-18,2.1451560202648997e-18,-2.0224084144214715e-18,-2.650299090329089e-18,-5.013748074246733e-18,1.442353489940219e-18,-2.44300432010085e-18,2.4407483917752648e-18,-1.6014125669159235e-18,-2.152685638585817e-18,-4.649353507721198e-18,3.280070568154499e-18,1.1424406506929129e-18,3.1684537114287373e-18,4.384185976513875e-19,1.7640747392423325e-18,1.3455405398807117e-17,5.563601083600026e-18,-5.935665434201275e-17,8.322824971351322e-18,-1.0134996540900857e-17,-2.1893019050943035e-17,-3.5001327057013713e-17,2.2553191897821607e-16,-2.816406784235414e-16,2.2272395181850886e-16,1.539686860682114e-16,1.0026383259697337e-16,1.3951563054031326e-16,-0.0002389785659033805,0.00024514200049452484,-0.0002839763183146715,0.0003967733064200729,0.00026647542836144567,0.0008654709672555327,0.0003643773088697344,0.0006517717847600579,0.00023122006678022444,0.00017065778956748545,0.00043557770550251007,0.0002502023125998676,3.1767485779710114e-05,0.0003929035156033933,-4.193696076981723e-05,0.00016081042122095823,9.345376020064577e-05,3.3999629522440955e-05,0.0001627931633265689,0.00014456978533416986,0.00016459132893942297,-9.661346120992675e-05,6.491648673545569e-05,-0.0001200317419716157,8.174854156095535e-05,-0.00013364347978495061,0.00015957669529598206,-7.440623448928818e-05,0.00013083855446893722,-0.00015845827874727547,0.00033731103758327663,0.00010126186680281535,0.00016272993525490165,0.0001252780930371955,0.0008032415644265711,3.432938319747336e-05,-0.00018547206127550453,-0.002656020922586322,0.0007025538943707943,-0.0004326363268774003,-0.0002046825538855046,-0.0010290249483659863,0.017884034663438797,-0.01718970760703087,0.01416383683681488,-0.004620804917067289,0.03396731987595558,-0.00797303207218647,-0.0002588680072221905,-0.0006489332299679518,0.0002578783023636788,-0.0009879976278170943,-0.0011789421550929546,-0.0023573602084070444,-0.0006399357807822526,-0.0008023800328373909,-0.00023430462169926614,0.00012096407590433955,-0.0002432651090202853,-0.00098502601031214,-0.0003986267256550491,-0.0005906919250264764,4.972978058503941e-05,-0.00021297689818311483,-0.00016320185386575758,-8.691456605447456e-05,-9.061580203706399e-05,-5.3324707550928e-05,-0.00014277338050305843,0.0002522870199754834,0.00030339890508912504,0.00043700417154468596,-3.846632898785174e-05,0.0003863016900140792,-0.000148177205119282,0.00023794689332135022,0.00028815781115554273,0.0004713523085229099,-0.00022924131189938635,-6.249921716516837e-05,-0.00021929785725660622,3.234026735299267e-05,-8.88409158505965e-06,-0.0008976584649644792,0.00027041282737627625,0.004882721230387688,-0.0007650513434782624,0.0011792968725785613,0.0023309262469410896,0.003152232151478529,-0.008464846760034561,0.043956659734249115,-0.019930360838770866,-0.0006772922351956367,-0.007131477352231741,0.04461883753538132,-0.00012923101894557476,-0.00025489466497674584,5.3312513045966625e-05,-0.00037921976763755083,-0.000547627976629883,-0.0008955724770203233,-0.0002355718897888437,-0.00027145358035340905,-9.262754610972479e-05,0.00014815836038906127,-2.4191617740143556e-06,-0.00033420274849049747,-0.0001558949297759682,-0.0002124127495335415,-7.3878118200809695e-06,-4.8974499804899096e-05,-6.782985292375088e-05,-4.201307820039801e-05,-1.8854436348192394e-05,-8.931337106332649e-06,-4.11240071116481e-05,0.0001250002533197403,0.00016601741663180292,0.00017645426851231605,-6.979147428864962e-07,0.00016090774443000555,-2.576090264483355e-05,0.0001303025201195851,0.00016684977163095027,0.00018706635455600917,-7.005457155173644e-05,-4.295705366530456e-06,-6.895873229950666e-05,8.081789565039799e-05,9.604980004951358e-05,-0.0002910247421823442,0.00014963533612899482,0.0019245947478339076,-1.7269681848119944e-05,0.0006941805477254093,0.0011840068036690354,0.001262043952010572,-0.027931706979870796,0.011626518331468105,0.006915275473147631,-0.0014182954328134656,-0.014856531284749508,0.05485808849334717,3.0813112478211835e-12,9.953609117485662e-12,-6.125344589186232e-12,1.3402843071497195e-11,2.0633980635231808e-11,4.3117877324139187e-11,1.338050590465878e-11,1.6329106469759047e-11,5.8654262002910684e-12,8.361424616923352e-13,8.528519904182907e-12,2.3633709572701278e-11,7.478732043375569e-12,1.0919245542473366e-11,-1.370668118935714e-12,5.125379287651555e-12,2.831794044047542e-12,1.7994754991645934e-12,2.790627104398702e-12,2.1260682016993604e-12,3.1002628849557956e-12,-4.811095532381016e-12,-4.026060301115519e-12,-6.391128945515412e-12,1.8297271250217184e-12,-5.710060462654765e-12,3.505547198009995e-12,1.1547874202016972e-12,-5.079494116988492e-12,-6.95469593373077e-12,5.566261861156274e-12,1.7481991331988467e-12,4.827140857172063e-12,5.747128033889437e-13,8.105842386196827e-13,1.8414219801754506e-11,5.586186895001344e-12,-8.141319562948723e-11,1.7588612857832864e-11,-1.2630131315805038e-11,-3.2332192478889965e-11,-5.1081208707337566e-11,3.338789245077578e-10,-4.3917677827742807e-10,3.1490920981980253e-10,2.1629073532203336e-10,5.0562606185300396e-11,1.7823867382027458e-10,0.00010859952453756705,0.0003621984797064215,-0.00020465721900109202,0.0005567820044234395,0.0006489612278528512,0.001446426147595048,0.0004328020731918514,0.0005201483727432787,0.0001592214684933424,2.329619019292295e-05,0.0002727587998379022,0.000743180513381958,0.0002427261060802266,0.00035353671410121024,-4.4473559682955965e-05,0.0001399629400111735,9.397869143867865e-05,6.183915684232488e-05,8.323862130055204e-05,5.242910629021935e-05,0.0001074177271220833,-0.00010334669059375301,-0.00012908567441627383,-0.00022485443332698196,6.0693753766827285e-05,-0.00020187022164463997,0.00011325893137836829,-9.403163130627945e-05,-0.0001066682962118648,-0.0002447189763188362,0.00017660354205872864,5.481163680087775e-05,0.0001594059431226924,1.8706443370319903e-05,7.847008964745328e-05,0.0006473136018030345,7.200922846095636e-05,-0.002762298798188567,0.0006143695791251957,-0.0004477889451663941,-0.0010710116475820541,-0.00172702525742352,0.011545101180672646,-0.014951853081583977,0.011884769424796104,0.0075729307718575,0.004985785111784935,0.007076400797814131,0.00014278118032962084,0.0004992921021766961,-0.0002301667263964191,0.0007343704346567392,0.0008451181347481906,0.0018309539882466197,0.0005218799924477935,0.0006580832996405661,0.00019574447651393712,-3.4433778637321666e-05,0.00027613507700152695,0.0008162404992617667,0.00029715808341279626,0.0004719733551610261,-4.341154999565333e-05,0.00017016743368003517,0.00011194133548997343,7.353918044827878e-05,9.663445962360129e-05,5.424613846116699e-05,0.00012478169810492545,-0.0001662759023020044,-0.00018827537132892758,-0.0003236937045585364,5.848546061315574e-05,-0.00029014263418503106,0.00012520962627604604,-0.00015533773694187403,-0.00016189248708542436,-0.00034899089951068163,0.00020846161351073533,5.7458924857201055e-05,0.00018946555792354047,-2.714095444389386e-06,6.71109592076391e-05,0.0007480785716325045,-5.3585084970109165e-05,-0.0037765034940093756,0.0006403870647773147,-0.0007744337781332433,-0.001457642880268395,-0.0023815713357180357,0.019696826115250587,-0.0007650803308933973,0.01586892455816269,0.0025409182999283075,0.01552837248891592,0.03601639345288277,0.0001664175360929221,0.0005612297682091594,-0.0003035323170479387,0.0008478646632283926,0.0009893845999613404,0.002193896099925041,0.0006473254179582,0.0007858737371861935,0.0002393596660112962,2.0621841031243093e-05,0.0003958284214604646,0.0010884352959692478,0.0003612713480833918,0.000549950054846704,-6.427635526051745e-05,0.00021034599922131747,0.0001394546707160771,9.392219362780452e-05,0.00012354677892290056,7.621937402291223e-05,0.0001593861961737275,-0.00016707890608813614,-0.0002010800817515701,-0.00035424588713794947,8.663200424052775e-05,-0.0003195783356204629,0.00016636852524243295,-0.00015168914978858083,-0.0001678208209341392,-0.0003850322391372174,0.0002639021258801222,8.11664285720326e-05,0.0002392035094089806,2.2132135200081393e-05,0.00011232497490709648,0.0009620887576602399,6.0350983403623104e-05,-0.004272174555808306,0.0008993134251795709,-0.0007295105024240911,-0.0016480883350595832,-0.0026945408899337053,0.01920974813401699,-0.02330475114285946,0.016117604449391365,0.010237271897494793,0.006685937754809856,0.014049963094294071,3.3780342936997255e-23,2.2607732757622842e-23,-1.899371640392477e-23,4.890937612370273e-23,3.2529405178821225e-23,1.5632133331086884e-22,2.7161086811934646e-23,1.0625209184277604e-22,1.9231054673591373e-23,1.6959444500029705e-23,8.249096792221227e-25,5.663530943548179e-23,1.882660884292818e-23,-1.0682831686871654e-23,-7.364642708581664e-25,1.64911293350362e-23,5.0953018906290916e-24,9.864887057796953e-24,9.19589435598518e-24,5.475433253256335e-25,5.567752658918219e-25,-7.165350608728191e-24,-8.265966188248926e-24,1.3753952387874816e-23,3.749028319904839e-24,-8.146895523214866e-24,2.0741420384502006e-23,-1.2731083783729044e-23,-9.265113744974703e-24,-2.5142445398015632e-23,1.5538131718987662e-23,3.1243636845096972e-24,1.3886040835566833e-23,-6.741459514523482e-23,1.2473228819639451e-23,4.190691030354548e-23,9.794130178903155e-24,-2.3602097292908083e-22,3.9463154903246484e-23,3.2671159539184915e-24,-6.797397325768342e-23,2.6732458923538447e-22,1.0131503426644292e-21,-1.0073175682400975e-21,2.2067680285848093e-21,5.396518945179654e-22,1.046316730936111e-21,-9.188865889309586e-22,-0.0002718903706409037,-0.0004475761961657554,0.00022286683088168502,-0.0007410891121253371,-0.0008558486006222665,-0.0018360343528911471,-0.000624769483692944,-0.0006172896246425807,-0.00019422774494159967,5.4125786846270785e-05,-0.0002105402381857857,-0.0009240415529347956,-0.00039427628507837653,-0.00043046867358498275,3.974205537815578e-05,-0.0001652256614761427,-0.00011249992530792952,-9.96438684524037e-05,-8.404681284446269e-05,-5.6714987294981256e-05,-0.0001210527989314869,0.00017022437532432377,0.0002122292498825118,0.0003012055531144142,-8.751813584240153e-05,0.0002656524593476206,-0.00012371635239105672,0.0001615578366909176,0.00019288902694825083,0.00032122968696057796,-0.0001872999273473397,-5.365401375456713e-05,-0.0001755527191562578,3.463211396592669e-05,1.4536809089804592e-07,-0.0007834701100364327,-0.0003436467086430639,0.003539429744705558,-0.0006200671195983887,0.0008053865167312324,0.0016661528497934341,0.0023122597485780716,-0.019986528903245926,0.025363009423017502,-0.010128065012395382,0.007236720994114876,-0.002366260625422001,0.017465481534600258,-0.00028969201957806945,-0.0005030335742048919,0.00023123170831240714,-0.000846603827085346,-0.000962493650149554,-0.002073698677122593,-0.0006994978757575154,-0.0006795025547035038,-0.00022148485004436225,9.291170863434672e-05,-0.00023335687001235783,-0.001015309477224946,-0.00044712331146001816,-0.0004781514871865511,3.793116411543451e-05,-0.00017297403246629983,-0.00011761071800719947,-0.00011141767754452303,-0.00010311637743143365,-6.107830995460972e-05,-0.0001313265529461205,0.00020598401897586882,0.00023806504032108933,0.0003451877273619175,-9.411608334630728e-05,0.0003127944655716419,-0.0001295038528041914,0.00019736266403924674,0.00021342442778404802,0.0003702667017932981,-0.00022674357751384377,-5.8042580349138007e-05,-0.00019419300951994956,5.525102824321948e-05,-2.7522559321369044e-05,-0.0008833560277707875,-0.00028461075271479785,0.004153016488999128,-0.0006161330966278911,0.0009548513335175812,0.001811785390600562,0.0026033746544271708,-0.03965884819626808,0.0007421161863021553,-0.01972646266222,-0.010308850556612015,0.015179856680333614,0.042254332453012466,-1.7787981050787494e-05,-8.884862472768873e-05,-7.491353699151659e-06,-0.00011617207201197743,-5.6707809562794864e-05,-0.0002381082740612328,-3.181041029165499e-05,-6.794829823775217e-05,-1.812055052141659e-05,8.195629197871312e-05,9.022426820592955e-05,-4.290661672712304e-05,-2.3069138478604145e-05,-7.525405089836568e-05,-1.0253552318317816e-05,-1.3752554878010415e-05,2.0912539184791967e-05,8.735393748793285e-06,2.997518322445103e-08,1.1398336937418208e-05,-3.0667367809655843e-06,5.211636744206771e-05,4.66959027107805e-05,6.626033427892253e-05,1.375440479023382e-05,5.903806959395297e-05,3.827228283626027e-06,4.8806155973579735e-05,4.4329495722195134e-05,6.582494097528979e-05,-1.7587704860488884e-05,-5.748252078774385e-06,-1.3762356502411421e-05,-9.573041097610258e-06,4.1922397940652445e-05,-2.7011154088540934e-05,0.00017085565195884556,0.0005789381684735417,5.4769538110122085e-05,0.0002132958616130054,0.0003660942311398685,0.0003298350202385336,0.00033029416226781905,0.010140926577150822,-0.0006691141752526164,0.0005376129411160946,0.0002350195572944358,-0.004003722686320543,2.9360940345668496e-09,9.986438342934889e-09,-5.738562514068235e-09,1.5228245331400103e-08,1.7937701102255232e-08,4.282649967990437e-08,1.1957987489097377e-08,1.5428987865107047e-08,4.346744297833993e-09,5.48757816964951e-10,7.495420284442389e-09,1.9654285310366504e-08,7.0070838020797055e-09,9.931490296821721e-09,-1.20265175596046e-09,3.7001646191470172e-09,2.577165814088289e-09,1.756118694906661e-09,2.4063377956906606e-09,1.410164762738475e-09,2.9392934752792144e-09,-2.9560422998287095e-09,-3.6853984308748977e-09,-6.3299472330413664e-09,1.6477116338009523e-09,-5.6409925619504975e-09,3.3052247605525054e-09,-2.5737298958716792e-09,-4.248109863880245e-09,-6.758047899069197e-09,5.232559718848506e-09,1.5101542238937782e-09,3.804067283397217e-09,2.819564026701471e-10,2.3345818611630875e-09,1.785410042032254e-08,1.8227966913642035e-09,-7.801152435149561e-08,1.662777648903102e-08,-9.822710644868948e-09,-2.9759339881252345e-08,-4.787109730841621e-08,2.9684940727747744e-07,-4.182680299891217e-07,2.973889365875948e-07,2.0314134019372432e-07,1.4430362682560371e-07,2.0775856057753117e-07,-3.137280509690754e-05,3.054057015106082e-05,-4.4152879127068445e-05,5.402107126428746e-05,3.263736653025262e-05,0.00010335908882552758,4.675329910241999e-05,8.417695789830759e-05,3.120829205727205e-05,2.7129690352012403e-05,7.034810550976545e-05,4.4875072489958256e-05,5.961395800113678e-06,5.2551251428667456e-05,-6.740318440279225e-06,2.4269305868074298e-05,1.526330925116781e-05,7.264917712745955e-06,1.930493272084277e-05,1.819246608647518e-05,2.6216179321636446e-05,-1.17470635814243e-05,1.4523445315717254e-05,-9.421564755029976e-06,1.4052498954697512e-05,-1.7280241081607528e-05,2.6787089154822752e-05,-8.347527000296395e-06,2.4144284907379188e-05,-1.720398540783208e-05,4.274123421055265e-05,1.4368624761118554e-05,2.243893686681986e-05,1.3956183465779759e-05,0.00011880427337018773,-7.060031066430383e-07,5.713724021916278e-06,-0.0003340390103403479,0.00010881960770348087,-3.856727926176973e-05,3.292406518085045e-06,-0.0001288775383727625,0.0013369122752919793,-0.002344658365473151,0.0020551017951220274,-0.000417826056946069,0.004413663409650326,-0.0010829452658072114,-0.0003228122659493238,-0.0005715274019166827,0.00016091311408672482,-0.0006418577977456152,-0.001300949021242559,-0.0020625682082027197,-0.0005484008579514921,-0.0005735031445510685,-0.00021473968809004873,-0.0001648907782509923,-0.0003648019628599286,-0.001008549821563065,-0.0003677707863971591,-0.00045817773207090795,3.318096059956588e-05,-0.00020579177362378687,-0.00022048708342481405,-0.00022796652046963573,-4.3206160626141354e-05,-2.466131945766392e-06,-0.00011267275840509683,5.8030749642057344e-05,0.00027134036645293236,0.0003586834645830095,5.038119707023725e-05,0.00032063460093922913,-0.00010980922525050119,5.7575758546590805e-05,0.00023482568212784827,0.0003876257687807083,-0.00018542406905908138,-3.4379478165647015e-05,-0.00017056643264368176,0.0001885999517980963,-0.00012128541857236996,-0.0006563083734363317,0.0010375331621617079,0.003928202670067549,-0.000532736477907747,-0.0003407069598324597,0.0020957039669156075,0.0023495929781347513,-0.003204698208719492,0.030097616836428642,-0.013250399380922318,-0.026173150166869164,0.006572122685611248,0.002595604630187154,4.243845978635363e-06,1.3168058103474323e-05,-8.184515536413528e-06,2.197570211137645e-05,2.5495983209111728e-05,5.67497409065254e-05,1.741798041621223e-05,2.160502117476426e-05,6.353226581268245e-06,1.0015450015998795e-06,1.0856305380002595e-05,2.9136035664123483e-05,9.626761311665177e-06,1.4090806871536188e-05,-1.7719901279633632e-06,5.493122898769798e-06,3.653044359452906e-06,2.500124537618831e-06,3.227469733246835e-06,2.063421334241866e-06,4.248764980729902e-06,-4.013929810753325e-06,-5.133554168423871e-06,-8.783796147326939e-06,2.405700115559739e-06,-7.886306775617413e-06,4.5160827539802995e-06,-2.7075755042460514e-06,-4.064552740601357e-06,-9.639770723879337e-06,7.000567165960092e-06,2.247239535790868e-06,6.26013161308947e-06,7.657662308702129e-07,3.1477723041462013e-06,2.5754728994797915e-05,2.571132199591375e-06,-0.00010812292748596519,2.442158802296035e-05,-1.7308771930402145e-05,-4.187653030385263e-05,-6.769785250071436e-05,0.0004351672250777483,-0.0005823440151289105,0.00042204343480989337,0.00029379467014223337,0.00019981151854153723,0.0002713445865083486,-0.00015238697233144194,0.0005553014343604445,-0.0005393835599534214,0.0010908821132034063,0.0011127247707918286,0.0023127018939703703,0.000829002121463418,0.0011920240940526128,0.000407416868256405,0.00021891185315325856,0.0011175578692927957,0.0009618541807867587,0.00026413085288368165,0.0007246211171150208,-8.408531721215695e-05,0.0004052153672091663,0.00023156740644481033,0.000199769128812477,0.00025835513952188194,0.00021669469424523413,0.00028986737015657127,-0.0002651959366630763,-5.854856863152236e-05,-0.00034010608214884996,0.0001467033289372921,-0.0003005054604727775,0.0002828059659805149,-0.00023511535255238414,3.052990359719843e-05,-0.00039940656279213727,0.0004601135733537376,0.0001342301839031279,0.00031979542109183967,0.00037842654273845255,0.0008239584276452661,0.0005769452545791864,-0.0001516209595138207,-0.00518792774528265,0.0013023167848587036,-0.0017042538383975625,-0.0008423351682722569,-0.0031748332548886538,0.03355219215154648,-0.043145548552274704,0.013438774272799492,-0.00732734939083457,0.061957769095897675,0.00024764330009929836,-0.0007616917719133198,-0.0019706871826201677,0.0008385893306694925,-0.0029629424680024385,-0.0034309725742787123,-0.007176926359534264,-0.002003625500947237,-0.002479919930920005,-0.0007072428707033396,0.0002507840399630368,-0.0009188415133394301,-0.0030352850444614887,-0.0012251820880919695,-0.0018161482876166701,0.00017036902136169374,-0.0006645880057476461,-0.00043532787822186947,-0.0002899403334595263,-0.0003032174427062273,-0.0001777284051058814,-0.0004503282834775746,0.0007187990704551339,0.0008251079707406461,0.0013230257900431752,-0.0001339652226306498,0.0011536042438820004,-0.0004770207160618156,0.000678697251714766,0.0007256421376951039,0.0014243533369153738,-0.000724937068298459,-0.00019089765555690974,-0.0006900843000039458,0.00010289555211784318,-0.00016432224947493523,-0.0028117704205214977,0.0008484610007144511,0.016853805631399155,-0.0025480350013822317,0.003433624980971217,0.005921884905546904,0.00930361170321703,-0.05485799163579941,0.11887219548225403,-0.06837158650159836,0.024977337568998337,0.015718411654233932,0.025231139734387398,0.0001445542147848755,0.00050316471606493,-0.00023537450761068612,0.0007426488446071744,0.0008545333985239267,0.0018545329803600907,0.0005294064758345485,0.0006661455263383687,0.00019852192781399935,-3.280020973761566e-05,0.00028331702924333513,0.0008318606996908784,0.00030097702983766794,0.00047666605678386986,-4.476124013308436e-05,0.0001726570335449651,0.00011284251377219334,7.474821904907003e-05,9.832947398535907e-05,5.551353024202399e-05,0.0001271907240152359,-0.00016767368651926517,-0.000189143160241656,-0.000326512788888067,6.0730617406079546e-05,-0.00029135201475583017,0.0001276607799809426,-0.0001563241530675441,-0.00016232606139965355,-0.000352029106579721,0.0002120614080922678,5.922335185459815e-05,0.00019256460655014962,-1.5380589957203483e-06,6.963576015550643e-05,0.0007610631291754544,-4.482798249227926e-05,-0.0038023190572857857,0.0006548819947056472,-0.0007778953295201063,-0.0014684429625049233,-0.002401693258434534,0.012616423889994621,-0.0192421805113554,0.014213087037205696,0.01314407866448164,0.007789308205246925,0.028137648478150368,-0.000508483441080898,-0.0010167777072638273,0.00018850491323973984,-0.0019684084691107273,-0.0022563741076737642,-0.00347693869844079,-0.0012360267573967576,-0.0013471757993102074,-0.0005155007820576429,0.0009608929394744337,0.00042056452366523445,-0.0012742511462420225,-0.0008173901587724686,-0.0010734500829130411,-9.804311412153766e-05,-0.00016464522923342884,-0.00015915291442070156,-3.187336915289052e-05,-0.00015246770635712892,-8.379494829569012e-05,-0.00021295720944181085,0.0007484123343601823,0.0007729915087111294,0.0006730344612151384,-0.0002135247050318867,0.0006899032741785049,-0.00010385157656855881,0.0007080492214299738,0.0007006561500020325,0.0007426204974763095,-0.0004298771091271192,-0.00015482238086406142,-0.00022953146253712475,0.00022011439432390034,-7.115131302271038e-05,-0.00039379604277200997,-0.001218292280100286,0.008325593546032906,0.00038123864214867353,0.0034184674732387066,0.0048383744433522224,0.003726663300767541,-0.03444407880306244,0.045737214386463165,-0.018947437405586243,0.030950400978326797,0.06279003620147705,-0.0388740599155426,0.00017171751824207604,0.0004300018772482872,-9.309429879067466e-05,0.0006109463865868747,0.0008931303746066988,0.0014772184658795595,0.00032854281016625464,0.0004604262940119952,0.0001650292397243902,-0.00019578167120926082,2.779498026939109e-05,0.0005384125397540629,0.00022359353897627443,0.0003536043514031917,1.2834042536269408e-05,8.768983389018103e-05,0.00011345873645041138,5.2287326980149373e-05,3.160913547617383e-05,1.6527850675629452e-05,7.179511885624379e-05,-0.00018630834529176354,-0.0002648928202688694,-0.0002861405664589256,-2.5194298359565437e-05,-0.0002591283991932869,4.294865721021779e-05,-0.0001949416910065338,-0.0002663445775397122,-0.0003105495125055313,0.00012350988981779665,1.2918155334773473e-05,0.00012596152373589575,-0.0001061418151948601,-0.00014307194214779884,0.0004972190945409238,-0.0006005557370372117,-0.00320020061917603,2.8179669243399985e-05,-0.0010466148378327489,-0.0018606730736792088,-0.002022653818130493,0.005186658352613449,-0.01842997968196869,0.006831007543951273,0.0006004325696267188,-0.011379964649677277,0.024763157591223717,9.17169095084304e-18,3.2467159988784007e-17,-1.9223162929391355e-17,5.690864309766412e-17,5.949824119310223e-17,1.3580479243328197e-16,3.841374156009302e-17,4.608145106683092e-17,1.554453192669043e-17,7.710114920840431e-18,2.384630184272983e-17,7.153019862506175e-17,2.1244034649029856e-17,3.1124649163332893e-17,-4.129114391477916e-18,1.2545348733501789e-17,8.229363488300181e-18,5.590525812538627e-18,8.025283969112936e-18,4.467125618775766e-18,9.259048668154153e-18,-1.4641406207737685e-17,-7.315998927725253e-18,-2.0392079977130865e-17,5.6174695666313165e-18,-1.8230395647456237e-17,1.1324075288890735e-17,-8.7494996205572e-18,-9.741714345843132e-18,-2.2675963698697952e-17,1.6427775532439853e-17,4.7484439548407625e-18,1.3859870248565946e-17,1.5955745329476774e-18,6.939528351437057e-18,5.78085295773381e-17,-7.219055841475876e-18,-2.6291468578388015e-16,5.733653370237045e-17,-3.1037179776639086e-17,-9.029111152146255e-17,-1.551684288286583e-16,9.436017971422238e-16,-1.3201597170856613e-15,9.768339701574438e-16,6.826293049668386e-16,4.3311563332058714e-16,6.473325420822454e-16,-4.947786624250223e-18,-9.797270277324031e-18,3.249952922051443e-18,-1.675509586391076e-17,-1.6749505777331128e-17,-3.636464974667666e-17,-9.367149593686258e-18,-1.1404226608705285e-17,-3.1731508565371197e-18,1.0873125370248263e-17,-2.8630389837346114e-18,-1.2328995508385482e-17,-5.6932686756529194e-18,-7.867096430310132e-18,5.80289016594605e-19,-3.2655032971819807e-18,-2.019841259390413e-18,-1.3002323835726096e-18,-8.590826423337251e-19,-5.367508820407592e-19,-1.821456051539983e-18,4.643661264335914e-18,4.707076238816679e-18,7.57361357615693e-18,-8.097705286103178e-20,6.162990217526363e-18,-2.00104585471683e-18,4.02285518357966e-18,4.3418205772734765e-18,5.113911788211085e-18,-2.7316454793336257e-18,-6.673014376987651e-19,-2.977538151304814e-18,1.073205530024648e-18,1.3493174362178711e-19,-1.2394362629111872e-17,8.944949991594292e-18,8.129550912505857e-17,-8.939710629594381e-18,2.5724964671458213e-17,3.395304106672526e-17,5.068077379597277e-17,-1.4377545187628374e-16,4.917861115659851e-16,-2.212396324575641e-16,1.8000929128089127e-17,3.225385657858618e-17,1.5889783879480264e-17,-0.0001788990484783426,-0.00024712763843126595,0.0001323985925409943,-0.00025836139684543014,-0.0007537560304626822,-0.0011234800331294537,-0.00031024194322526455,-0.0003223863313905895,-0.00011601278674788773,-0.00011556683602975681,-0.00030796584906056523,-0.0006155064911581576,-0.0002091149362968281,-0.0002134801761712879,3.3185431675519794e-05,-7.856739830458537e-05,-0.00013194633356761187,-0.00011615970288403332,-3.511647446430288e-05,-2.1340711100492626e-05,-7.71102641010657e-05,2.4202302029152634e-07,0.0001382251939503476,0.00017934887728188187,4.1130690078716725e-05,0.0001666142197791487,-7.917935727164149e-05,-1.5071339475980494e-05,0.00012328856973908842,0.00019530941790435463,-0.00010699863196350634,-7.0833434619999025e-06,-9.62915291893296e-05,0.0001103169925045222,-0.00016583820979576558,-0.00031721388222649693,0.0007721586734987795,0.0022261773701757193,-0.0004264542367309332,-0.00022706935124006122,0.0011559074046090245,0.001198907964862883,-0.0008941939449869096,0.012333361431956291,-0.008356270380318165,-0.015304256230592728,0.00358458049595356,0.003363978583365679,-2.2879366952111013e-06,-2.170968036807608e-05,-1.8472117062628968e-06,-2.6796769816428423e-05,-1.1018083569069859e-05,-5.5219461501110345e-05,-4.399858880788088e-06,-1.7129745174315758e-05,-4.138410076848231e-06,2.1271363948471844e-05,1.774885276972782e-05,-5.940551091043744e-06,-4.08321147915558e-06,-1.919953319884371e-05,-1.893524085971876e-06,-2.3505847366322996e-06,4.035221991216531e-06,2.3438788048224524e-06,2.855128400369722e-07,1.7332635025013587e-06,-6.971757215978869e-07,1.3165774362278171e-05,9.63778165896656e-06,1.6365756891900674e-05,3.3607416298764292e-06,1.435698868590407e-05,7.273526989592938e-07,1.1913278285646811e-05,9.00857867236482e-06,1.6826978026074357e-05,-2.624170292619965e-06,-1.63199092639843e-06,-2.4087808014883194e-06,-2.1922744508628966e-06,8.432549293502234e-06,-3.0018832148925867e-06,3.956309592467733e-05,0.00014982627180870622,1.2912732927361503e-05,5.5005719332257286e-05,7.233493670355529e-05,8.007100404938683e-05,6.970129470573738e-05,0.0029479283839464188,-0.00014930365432519466,0.00028892402769997716,9.702340321382508e-05,-0.0012458970304578543,0.00022109656129032373,0.0005909538012929261,-0.00011266752699157223,0.0008301650523208082,0.0012121465988457203,0.001984027912840247,0.0004304391040932387,0.0006287004216574132,0.00021920836297795177,-0.00029921624809503555,3.376983841008041e-06,0.0006650233990512788,0.0002946865279227495,0.0004891445860266685,2.371452865190804e-05,0.00011163613817188889,0.00014362538058776408,7.07713988958858e-05,4.219022230245173e-05,2.018293525907211e-05,9.204610978486016e-05,-0.0002645688073243946,-0.00036917213583365083,-0.0004058900522068143,-3.511645263643004e-05,-0.0003587372484616935,4.980665835319087e-05,-0.000275632570264861,-0.0003698492073453963,-0.00043586164247244596,0.00015853132936172187,1.8418742911308073e-05,0.0001643920550122857,-0.00013706837489735335,-0.00020103382121305913,0.0006312915356829762,-0.00082631956320256,-0.004319517407566309,-3.5342894989298657e-05,-0.0014928305754438043,-0.002557233674451709,-0.0027848761528730392,-0.0023971563205122948,-0.032019492238759995,0.0059921895153820515,0.0068839979358017445,-0.015332608483731747,0.0502045638859272,-5.950630918192482e-16,-7.587081631628845e-16,1.3754725831979228e-16,-1.6373982256669855e-15,-1.3120249185393494e-15,-2.8171581024596286e-15,-1.6113343866052602e-15,-1.1882203595071743e-15,-4.673273469997475e-16,9.155665947748826e-16,2.4217444879564816e-16,-1.4499782100433419e-15,-9.87473762766142e-16,-8.732130415880363e-16,-9.75609901669543e-17,-1.5406519488463918e-16,-4.9698321456276187e-17,-1.7263174680686962e-16,-1.3065724086391958e-16,-8.729096714440212e-17,-1.7865628187910563e-16,7.103055241832216e-16,-1.5097139033706797e-12,4.3577407269532436e-16,-4.1692060159710133e-16,5.822288486024511e-16,-8.674582203350517e-17,6.554639524967683e-16,5.528779393702279e-16,5.280708854439912e-16,-4.824279856856012e-16,-1.8133023254468945e-16,-1.8450717519715451e-16,-1.4495362176635527e-16,-2.1712638752613802e-16,-4.016641088489529e-16,-2.8208361312748436e-15,7.174097165667855e-15,5.469418795363105e-16,3.30000076371247e-15,3.802294477807822e-15,6.30953465981189e-16,-4.946989541100566e-14,4.084761500398881e-14,-9.989879474862906e-15,3.768447888268488e-14,2.62483685774164e-14,-3.761352123862749e-14,-2.892886183136393e-16,8.838020122198991e-16,-1.7231094895996482e-15,2.02754933034796e-15,2.247222666537153e-15,2.638926488489563e-15,1.6531673321669004e-15,1.6250519793069252e-15,6.454147006709841e-16,6.131358102983396e-16,2.685694353881025e-15,2.39509958429294e-15,6.111706938607096e-16,1.5628142218041658e-15,-4.100924043114884e-16,5.833560376970097e-16,6.115777461314245e-16,1.9900369410315864e-16,4.484987045547909e-16,3.5963663687701986e-16,5.751968340139051e-16,-3.5718781168694847e-16,4.584250307241048e-16,-7.391080854612161e-16,2.468966045370317e-16,-5.580617810074242e-16,6.398852166517488e-16,5.939032496045729e-15,6.183437394349735e-16,-7.424021436535288e-16,8.675937191368328e-16,3.3317461292074627e-16,4.905586549462952e-16,1.390373216229106e-16,1.1296871005992315e-15,1.045933435686792e-15,-3.5665073985883004e-16,-9.388864706039775e-15,2.943957240597703e-15,-1.7966246437621514e-15,-6.625896171655451e-16,-4.608620292166502e-15,4.1038634486121814e-14,-6.789782901498939e-14,4.730479788266073e-14,-7.683647283967393e-14,8.67017300510732e-14,5.3348532121316565e-15,-0.0006186936516314745,-0.0009759870008565485,0.0004661588172893971,-0.0009106389479711652,-0.002682790858671069,-0.004023567773401737,-0.0010947310365736485,-0.0011834215838462114,-0.00041937618516385555,-0.00040164549136534333,-0.0008057593367993832,-0.0020548745524138212,-0.0007362840697169304,-0.0008340076310560107,2.596050762804225e-05,-0.00027617369778454304,-0.00047903478844091296,-0.0003837580734398216,-0.00011424497643020004,-7.830503454897553e-05,-0.00026816301397047937,0.00014579988783225417,0.0004928922280669212,0.0006809968035668135,0.00014733218995388597,0.0005925370496697724,-0.00026949832681566477,8.507262100465596e-05,0.00043268740409985185,0.0007045222446322441,-0.0003748924646060914,-2.4569366360083222e-05,-0.0003298283845651895,0.0004527280107140541,-0.00036068790359422565,-0.0009611310670152307,0.0027410767506808043,0.008146530017256737,-0.0015191760612651706,-0.0006711425958201289,0.0041984673589468,0.004342556931078434,-0.003271758323535323,0.04360070452094078,-0.029395587742328644,-0.05354151129722595,0.012981677427887917,0.0121233481913805,1.0104608737609741e-16,3.623378249458138e-16,-1.920257837441185e-16,5.55680665513574e-16,6.373930869022491e-16,1.372443355150525e-15,4.0906508569536694e-16,4.839720208693274e-16,1.3585294096237746e-16,2.780633803546007e-17,3.7027346487040255e-16,6.925317553949518e-16,2.5180952798000463e-16,3.637182239520423e-16,-4.158810671776937e-17,1.444859934050219e-16,9.034089455944844e-17,6.549535357367088e-17,8.574433130483007e-17,7.303992897442414e-17,1.0892236881992933e-16,-9.221476304934647e-17,-1.19647718373745e-16,3.1687147861736713e-16,6.374800401282406e-17,-1.91503137945883e-16,1.0824686666193893e-16,-8.659463988731008e-17,-1.008836026340124e-16,-2.2816973839464357e-16,1.847551440924632e-16,5.4140906694229035e-17,1.4858679754003518e-16,1.9717897999398096e-17,8.246477193429413e-17,6.541407282144795e-16,7.777277188932184e-17,-2.66204286465308e-15,6.249217443637912e-16,-3.9850753469189133e-16,-1.0337169971258984e-15,-1.7585103845971944e-15,1.1334732319943398e-14,-1.432518044615881e-14,1.0920202865886616e-14,7.217970931236786e-15,4.804811757475437e-15,6.709420820034777e-15,-0.0003483994514681399,-0.0003444743051659316,0.0003326705191284418,-0.00016323744785040617,-0.0014042188413441181,-0.0018668615957722068,-0.0005917318048886955,-0.00047078015631996095,-0.00017965855658985674,-0.0007006587693467736,-0.000675837101880461,-0.0015616693999618292,-0.00041403420618735254,-0.00027445954037830234,0.00012522110773716122,-0.00020225878688506782,-0.00030678504845127463,-0.00021699984790757298,-6.157405732665211e-05,-6.067501090001315e-05,-0.00015378407260868698,-0.0002756321628112346,0.00021923400345258415,5.9005589719163254e-05,6.150949047878385e-05,0.00014819511852692813,-0.00019869643438141793,-0.00024716195184737444,0.00019967599655501544,0.00010666276648407802,-0.00019468297250568867,-2.7106687412015162e-05,-0.0001860982592916116,0.0003065696801058948,-0.00023232797684613615,-0.0006803912692703307,0.0012167446548119187,0.002524463227018714,-0.001368665019981563,-0.0020753678400069475,0.0020701654721051455,0.0005924457218497992,0.007603534962981939,0.000332044146489352,-0.007765389047563076,-0.06018511578440666,0.002777625573799014,0.0339684821665287,-0.00022109273413661867,-0.0004982947721146047,0.00015942972095217556,-0.0007618370000272989,-0.000885111978277564,-0.0017608897760510445,-0.00043559636105783284,-0.0005596199189312756,-0.0001668974873609841,0.00013676215894520283,-0.0001133584082708694,-0.0006276346975937486,-0.0002919088292401284,-0.0004355571581982076,1.899654307635501e-05,-0.00015176035230979323,-9.550030517857522e-05,-6.661195220658556e-05,-4.468449697014876e-05,-2.394228613411542e-05,-9.243503154721111e-05,0.00021661448408849537,0.00024608298554085195,0.00036205409560352564,8.617006642452907e-06,0.00029613010701723397,-8.44245296320878e-05,0.00020943541312590241,0.00022824150801170617,0.00038866951945237815,-0.0001356628054054454,-2.734977715590503e-05,-0.0001433049765182659,5.706412412109785e-05,1.007191531243734e-05,-0.0006136580486781895,0.0005029721651226282,0.003659166395664215,-0.0003483128093648702,0.0010473005240783095,0.0017581897554919124,0.002552891382947564,-0.006800983566790819,0.021224595606327057,-0.010288430377840996,-0.0018021159339696169,0.0018147347727790475,0.0009632868459448218,0.000595464080106467,0.0018246752442792058,-0.0008864911505952477,0.0028070241678506136,0.003270290559157729,0.006984448991715908,0.001986455637961626,0.002452118555083871,0.0007476505707018077,-0.0001003341531031765,0.0010959503706544638,0.003253393108025193,0.0011552948271855712,0.001722250017337501,-0.00018011705833487213,0.0006657212506979704,0.000526007788721472,0.00027759195654653013,0.0003509557282086462,0.00021524610929191113,0.0004789471859112382,-0.0006150996196083724,-0.0007206691079773009,-0.001194717362523079,0.00021857449610251933,-0.0010398556478321552,0.0004916866309940815,-0.0005712103447876871,-0.000655214418657124,-0.0012946662027388811,0.0007789695519022644,0.00024073533131740987,0.0007295543327927589,4.048243863508105e-05,0.00019504774536471814,0.0029419411439448595,-0.00018761734827421606,-0.013759585097432137,0.002615203382447362,-0.0028779013082385063,-0.005865962244570255,-0.008956284262239933,0.04738527536392212,-0.08097813278436661,0.07981280982494354,0.04883209615945816,-0.030795084312558174,0.08275523781776428,8.170467481249943e-05,0.00027403843705542386,-0.00015584606444463134,0.0004230273189023137,0.0004905661917291582,0.0010889725526794791,0.0003284463891759515,0.0003901894378941506,0.0001202373459818773,1.9697281459229998e-05,0.0002049805480055511,0.000563523848541081,0.00018018076661974192,0.00026507084839977324,-3.3855951187433675e-05,0.0001055510583682917,7.076434849295765e-05,4.8018577217590064e-05,6.312612094916403e-05,3.9113187085604295e-05,8.099777187453583e-05,-7.825496140867472e-05,-8.63144377944991e-05,-0.00016841173055581748,4.472129148780368e-05,-0.00014108853065408766,8.814503962639719e-05,-6.965576903894544e-05,-6.844654126325622e-05,-0.00018337657093070447,0.00013368114014156163,4.2322510125814006e-05,0.00011588443157961592,1.4948529496905394e-05,6.002736699883826e-05,0.0004891493008472025,5.739039261243306e-05,-0.0020753187127411366,0.00046838726848363876,-0.0003315320354886353,-0.0008035505306906998,-0.0012915325351059437,0.008285189978778362,-0.011010429821908474,0.008238334208726883,0.005647844169288874,0.003733324119821191,0.005102982744574547,8.016324864001945e-05,0.00026601963327266276,-0.00015171966515481472,0.0004074104072060436,0.0004768521757796407,0.0010607294971123338,0.0003198359627276659,0.00038205855526030064,0.00011695788271026686,1.8868960978579707e-05,0.00020078984380234033,0.0005490286275744438,0.00017813897284213454,0.0002583675959613174,-3.270575689384714e-05,0.00010250791092403233,6.881338777020574e-05,4.683573934016749e-05,6.143844075268134e-05,3.172436845488846e-05,7.901757635409012e-05,-7.484731759177521e-05,-9.387531463289633e-05,-0.00016738339036237448,4.5203774789115414e-05,-0.00014704819477628917,8.301938214572147e-05,-6.767467129975557e-05,-7.700381684117019e-05,-0.00017814406601246446,0.00013028999092057347,4.079715290572494e-05,0.00011795018508564681,1.4667790310340934e-05,5.8632482250686735e-05,0.0004777939466293901,5.7596222177380696e-05,-0.002021679189056158,0.0004547143180388957,-0.0003224104584660381,-0.000782953342422843,-0.0012597227469086647,0.007978410460054874,-0.01062915287911892,0.00793822668492794,0.005488904658704996,0.003597262315452099,0.0049095540307462215,-6.34477510175202e-06,-3.405491224839352e-05,-2.6267196062690346e-06,-6.767236482119188e-05,-8.522632924723439e-06,-6.075802957639098e-05,-2.120044155162759e-05,-3.0937622796045616e-05,-6.5689723669493105e-06,5.345013050828129e-05,2.728639628912788e-05,1.1388819984858856e-06,-1.4251644643081818e-05,-2.973674054373987e-05,-5.0223588914377615e-06,-3.908192411472555e-06,3.990759978478309e-06,9.708636753202882e-06,-3.5611337807495147e-06,1.8081688040183508e-06,-5.973590191388212e-07,3.407150870771147e-05,1.2429628441168461e-05,1.9758788766921498e-05,-1.145644455391448e-05,2.1255409592413343e-05,2.724937985476572e-06,3.0386587241082452e-05,1.3499638953362592e-05,1.9624623746494763e-05,-6.527764526254032e-06,-7.890033089097415e-07,-4.662948413169943e-06,-1.9254744984209538e-05,2.2985432224231772e-05,-2.5956840545404702e-05,-9.059056174010038e-05,0.00021448032930493355,3.978314271080308e-05,0.00017385742103215307,7.195526268333197e-05,0.00010851662955246866,-0.001218884252011776,0.0017757413443177938,-2.6457099011167884e-05,0.0022206741850823164,-0.00015548398368991911,-0.0017837390769273043,-1.7843878595158458e-05,1.882293690869119e-05,-2.4036407921812497e-05,3.777558958972804e-05,2.076997589028906e-05,5.986550240777433e-05,3.229782305425033e-05,5.272054113447666e-05,2.031598887697328e-05,1.6099284039228223e-05,4.0915772842708975e-05,2.2676833395962603e-05,4.986041858501267e-06,3.355163789819926e-05,-3.4546271763247205e-06,1.5978403098415583e-05,8.857424290908966e-06,2.7304067771183327e-06,1.2627440810319968e-05,1.1031055692001246e-05,1.4439329788729083e-05,-8.011596946744248e-06,8.009984412638005e-06,-7.724839633738156e-06,8.775919013714883e-06,-1.114243332267506e-05,1.4115789781499188e-05,-6.016447514411993e-06,1.4566571735485923e-05,-1.2046416486555245e-05,2.772293555608485e-05,8.479497410007752e-06,1.3579607184510678e-05,8.336472092196345e-06,7.12387845851481e-05,-1.4490375406239764e-06,2.2565003746422008e-05,-0.00021548739459831268,6.135458534117788e-05,-2.777595364023e-05,5.126154519530246e-06,-9.766504808794707e-05,0.0010510175488889217,-0.001349454978480935,0.0012569818645715714,-0.00027627713279798627,0.003794011427089572,-0.0011554535012692213,1.0637946079583571e-09,3.430555395311785e-09,-1.9104775539346974e-09,4.604238323935306e-09,5.842573091996428e-09,1.3203938387107428e-08,3.900220146846323e-09,4.714284518314571e-09,1.4437583351067929e-09,2.464388415557295e-10,2.6663433683182802e-09,7.108515998055509e-09,2.193248249682256e-09,3.3472267180201243e-09,-4.2994219295877656e-10,1.2571698126961905e-09,9.18631282154081e-10,5.842199501948642e-10,7.708488847235628e-10,4.761907534955867e-10,1.0373086833936895e-09,-9.128960920534723e-10,-1.1714216263669641e-09,-2.0170076719949748e-09,5.781438106033931e-10,-1.905340107910547e-09,1.0709668707420406e-09,-8.631580450391141e-10,-9.716714099994306e-10,-2.2481534411866733e-09,1.6855782325464475e-09,4.982096402095237e-10,1.5074583803453834e-09,1.8121870670739781e-10,7.317241812465625e-10,5.810600445244063e-09,7.800415313674591e-10,-2.497208839713494e-08,5.987582429867189e-09,-4.230094940993467e-09,-9.661635935742652e-09,-1.5442282119693118e-08,1.0072590583831698e-07,-1.3810907262268302e-07,9.526796418413142e-08,6.83507153098617e-08,4.798868147304347e-08,6.450762413123812e-08,-0.00010117837518919259,9.597852476872504e-05,-0.0001160503234132193,0.00017244658374693245,0.00010263442527502775,0.00031759351259097457,0.00013536826008930802,0.00025261222617700696,9.326011058874428e-05,7.91394486441277e-05,0.00020758470054715872,0.00012846864410676062,1.4588819794880692e-05,0.0001603492710273713,-2.0196535842842422e-05,7.081574585754424e-05,4.540120062301867e-05,2.223869705630932e-05,5.706946467398666e-05,5.42225971003063e-05,6.767089507775381e-05,-3.6683250073110685e-05,3.771562114707194e-05,-3.300539174233563e-05,3.398461194592528e-05,-6.29163914709352e-05,6.5654116042424e-05,-2.6822732252185233e-05,7.091427687555552e-05,-5.854744085809216e-05,0.0001257009425899014,4.214103682897985e-05,6.496773858089e-05,3.850449138553813e-05,0.0003481622552499175,-4.317328148317756e-06,3.068221872126742e-07,-0.0010451353155076504,0.0003244348044972867,-0.00012155125295976177,3.6116289265919477e-06,-0.0004010717384517193,0.004425759892910719,-0.007377970963716507,0.007359439041465521,-0.0014174460666254163,0.015004227869212627,-0.00389367388561368,-7.746198832889828e-23,-1.2395574929851306e-23,3.7662005596340524e-23,-4.845757339517731e-23,-1.715410066155842e-23,-1.7579673133896518e-22,-8.728647308657343e-24,2.1924639167130243e-23,7.2425154047551e-24,-2.1178159025181325e-23,2.719176403481688e-23,1.6915959647034664e-22,-8.85889692157929e-24,-1.5924257832848907e-24,2.0728793876853038e-23,1.2807696672945137e-25,8.18258437942797e-24,-1.9761885487601833e-23,2.4954221608308088e-23,1.3181933568280956e-23,-1.631681000764408e-23,-2.2325221157079662e-24,5.670271444438931e-24,-1.0506480569332048e-22,2.3722940686168355e-23,1.4654205186078466e-23,-1.3957281286195532e-23,-3.294668104324693e-23,-2.892513756818987e-23,-6.043619273813043e-23,1.7508297630280845e-23,-1.4841550184737594e-23,-7.19074483012816e-24,1.2472721582077394e-23,2.8867781069493063e-23,-1.5334081486255212e-22,2.7760267690217076e-22,1.0192418634656735e-22,1.6111878143963956e-22,-3.7613107579813856e-22,-1.833079998212155e-22,-4.725230879014741e-22,-3.911968549620198e-21,-6.721377303620102e-06,-2.515783601116762e-21,4.460189162447392e-10,-8.247391747318034e-08,2.283394273661088e-08,0.0001849340769695118,0.0004788158112205565,-8.511947089573368e-05,0.0006824486190453172,0.0008735028677619994,0.0015425841556861997,0.00031159177888184786,0.0004503178352024406,0.00014913288759998977,-0.00028809907962568104,-9.178361506201327e-05,0.00042250260594300926,0.00022575150069314986,0.0003759599640034139,1.4503577403957024e-05,9.012614464154467e-05,8.01296773715876e-05,1.4628318240283988e-05,2.345873690501321e-05,-2.8335227852949174e-06,6.349456089083105e-05,-0.00024210325500462204,-0.00030349483131431043,-0.0003525954089127481,-5.202564352657646e-05,-0.00029635062674060464,3.053193722735159e-05,-0.00024751442833803594,-0.0003041204472538084,-0.00036614909186027944,9.525466157356277e-05,2.8341389679553686e-07,0.0001310873485635966,-0.00012064557085977867,-0.00026494835037738085,0.0004911610158160329,-0.0008659923332743347,-0.0035223583690822124,-5.213177792029455e-05,-0.0013355342671275139,-0.002122144680470228,-0.0023759608156979084,0.02007335238158703,0.010549725964665413,0.0005676050204783678,-0.025253823027014732,-0.023956812918186188,0.03977898880839348,-2.880046622522059e-06,-5.998172127874568e-06,3.641583134594839e-06,-4.7848275244177785e-06,-1.2360945220279973e-05,-2.540039349696599e-05,-5.413648523244774e-06,-6.9308212005125824e-06,-1.930836333485786e-06,-3.282633088019793e-06,-5.117970886203693e-06,-1.0207550076302141e-05,-3.4843005778384395e-06,-4.984032329957699e-06,1.4004932609168463e-06,-2.4484975256200414e-06,-1.8543821624916745e-06,-1.5850414456508588e-06,-3.9910210603011365e-07,-5.577649631050008e-07,-1.7126046714110998e-06,-1.7393867324244638e-07,2.55289023698424e-06,5.1677520787052345e-06,1.7024999579007272e-06,3.433400934227393e-06,-2.139578782589524e-06,1.2428131412889343e-08,2.23440815716458e-06,5.1450574574118946e-06,2.7275490310785244e-07,-8.624071483609441e-07,-2.690097744562081e-06,2.0077395674888976e-06,8.177387655905477e-08,-1.146239537774818e-05,2.5554720195941627e-05,4.754799374495633e-05,-1.4104122783464845e-05,-3.7724241792602697e-06,1.92041443369817e-05,3.439740976318717e-05,6.374870281433687e-05,0.00023743977362755686,-0.00021411928173620254,-0.0004018845211248845,-6.503058830276132e-05,0.00013247547030914575,-7.143785751395626e-06,1.890941712190397e-05,-6.539889454870718e-06,2.6495425117900595e-05,1.3751954611507244e-05,3.737017323146574e-05,2.291360760864336e-05,3.1543135264655575e-05,1.0608792763378005e-05,-3.6120193271926837e-06,1.411940229445463e-05,-5.4477559388033114e-06,4.2153274080192205e-06,2.1697935153497383e-05,9.141567716142163e-07,8.630357115180232e-06,2.991423571074847e-06,2.198494712501997e-06,7.531924438808346e-06,3.4920647067337995e-06,5.633122327708406e-06,-1.1723013813025318e-05,1.1321742476866348e-06,-1.4465626009041443e-05,3.0735648124391446e-06,-1.2590518963406794e-05,3.737574843398761e-06,-9.402751857123803e-06,3.521372491377406e-06,-1.6001898984541185e-05,1.6467194654978812e-05,5.118380158819491e-06,5.809758476971183e-06,5.848033652000595e-06,2.3619995772605762e-05,-1.0275600288878195e-05,-8.330563105118927e-06,-1.9715573216672055e-05,1.5046157386677805e-06,-3.8302579923765734e-05,-6.25790517005953e-06,-5.540787606150843e-05,0.000722167023923248,0.02279912680387497,8.809511928120628e-05,-0.006300489418208599,0.023616507649421692,-0.017051663249731064,-7.522655778302578e-06,-2.1559537344728597e-05,8.888802767614834e-06,-3.252812894061208e-05,-3.992671554442495e-05,-8.11287754913792e-05,-2.244282040919643e-05,-2.72989746008534e-05,-8.54408153827535e-06,3.3119492854893906e-06,-9.206576578435488e-06,-3.44413383572828e-05,-1.2965208043169696e-05,-1.9841445464408025e-05,1.4135747505861218e-06,-7.1690692493575625e-06,-5.376684384827968e-06,-3.021680186066078e-06,-3.445808033575304e-06,-1.9708365925907856e-06,-5.260205398371909e-06,8.163014172168914e-06,1.0079323146783281e-05,1.4596112123399507e-05,-1.6694478972567595e-06,1.3254479199531488e-05,-4.8459728532179724e-06,7.83424184191972e-06,9.440232133783866e-06,1.575337228132412e-05,-8.204295227187686e-06,-2.3291133857128443e-06,-7.657222340640146e-06,4.785528631146008e-07,-7.611034789078985e-07,-3.1499253964284435e-05,7.836044460418634e-06,0.0001711442309897393,-2.4436949388473295e-05,3.91776738979388e-05,7.898943295003846e-05,0.00011602071026572958,0.007101994473487139,0.001190174138173461,0.003684326773509383,-0.00011224339687032625,-0.006780575029551983,0.01885717734694481,2.1584356524328996e-10,7.231568122101351e-10,-4.0711048421293583e-10,1.2161214257844222e-09,1.196443610851361e-09,2.9283426794535217e-09,8.563916797932336e-10,1.0523455440392127e-09,3.0959623753545884e-10,2.252444064598791e-11,5.378164580349676e-10,1.5613709214434834e-09,4.940182707358076e-10,7.173878713295778e-10,-8.910771426284825e-11,2.9987812233400746e-10,1.7864973389514205e-10,1.278736699861227e-10,1.7044841926772136e-10,1.0620709173236875e-10,2.1393127547231217e-10,-2.1591063659176513e-10,-2.6953717036093394e-10,-4.5062978348830995e-10,1.2781917191340142e-10,-4.127345409887795e-10,2.3977006491371355e-10,-1.915859276779841e-10,-1.7301765575794548e-10,-4.892444782633731e-10,3.8646852384971453e-10,1.1073146566342729e-10,3.222984101824977e-10,3.848937141226472e-11,1.5501862293820778e-10,1.395438764539847e-09,1.281675876541044e-10,-5.683351123053626e-09,1.2360854562132317e-09,-7.793560241609043e-10,-2.1555033313802596e-09,-3.4953355765310334e-09,2.2133189503392714e-08,-2.983349389751311e-08,2.3492225054155824e-08,1.5638903505532653e-08,9.842514359093002e-09,1.4030931971831251e-08,-2.155460424546618e-05,-0.00012312698527239263,-9.607730135030579e-06,-0.0002514627994969487,-2.911520095949527e-05,-0.00021486049809027463,-7.870283297961578e-05,-0.00011647662176983431,-2.403830148978159e-05,0.00020047955331392586,0.00011375854955986142,-8.748619620746467e-06,-5.108039113110863e-05,-0.00010950439900625497,-1.9279817934148014e-05,-1.541271194582805e-05,1.4409334653464612e-05,3.755340367206372e-05,-1.385239556839224e-05,8.520984920323826e-06,-2.113682967319619e-06,0.0001275647955480963,4.451460699783638e-05,7.140731759136543e-05,-3.942030161852017e-05,8.073534991126508e-05,1.010859341477044e-05,0.00011341418576193973,5.6341017625527456e-05,7.054970046738163e-05,-2.16027069654956e-06,-3.532736400302383e-06,-1.796604919945821e-05,-7.24945857655257e-05,8.582358714193106e-05,-9.738589869812131e-05,-0.0003628333506640047,0.0007867752574384212,0.0001461072824895382,0.0006508833030238748,0.00026435579638928175,0.00039345340337604284,-0.004560128785669804,0.0065229423344135284,-9.88439132925123e-05,0.00841486919671297,-0.0006939756567589939,-0.006694704294204712,-0.000168264246894978,-0.0005272277630865574,0.0002444415586069226,-0.0007836092845536768,-0.0008972109062597156,-0.0019154706969857216,-0.0005490334588102996,-0.0006817917455919087,-0.00019016704754903913,5.219080776441842e-05,-0.0002850377932190895,-0.0008471383480355144,-0.00032081169774755836,-0.000492478662636131,5.500447150552645e-05,-0.0001789827656466514,-0.0001203818537760526,-7.657028618268669e-05,-9.614931332180277e-05,-5.269033499644138e-05,-0.00012685362889897078,0.00018523821199778467,0.00020169954223092645,0.00034110454726032913,-5.714248982258141e-05,0.00030776887433603406,-0.0001379652094328776,0.0001734535035211593,0.00017385285173077136,0.0003678559442050755,-0.0002109766792273149,-5.7069257309194654e-05,-0.00019332724332343787,1.530860572529491e-05,-6.531501276185736e-05,-0.0007763161556795239,8.315564627991989e-05,0.003971184603869915,-0.0007512843585573137,0.0008547162287868559,0.0015432358486577868,0.002500360133126378,-0.0072438474744558334,0.04028480127453804,-0.015345537103712559,-0.0069846343249082565,0.0049421098083257675,0.026091234758496284,-8.79693470778875e-05,9.04034823179245e-05,-0.0001180136896437034,0.00018372393969912082,0.00010466179810464382,0.0003047125064767897,0.0001594901696080342,0.0002580338914413005,9.859474812401459e-05,7.943243690533563e-05,0.00020907731959596276,0.0001223231665790081,2.0833151211263612e-05,0.00016276708629447967,-1.8461310901329853e-05,7.767660281388089e-05,4.492028529057279e-05,1.550974957353901e-05,6.244999531190842e-05,5.561255238717422e-05,7.210846524685621e-05,-3.903009201167151e-05,4.3290809117024764e-05,-3.608319821069017e-05,4.435994560481049e-05,-5.268077802611515e-05,7.043541700113565e-05,-2.952305476355832e-05,7.330561493290588e-05,-5.755031816079281e-05,0.00013506172399502248,4.394822826725431e-05,6.80241355439648e-05,4.851729318033904e-05,0.0003635265165939927,-6.443841812142637e-06,7.846162770874798e-05,-0.0010416777804493904,0.0003164393128827214,-0.00013955940084997565,1.7824932001531124e-05,-0.0004549533186946064,0.005047559272497892,-0.007122467737644911,0.00625811330974102,-0.001680221757851541,0.01812218874692917,-0.005170931573957205,-0.00036996687413193285,-0.0007113961037248373,0.00011082527635153383,-0.0013590274611487985,-0.0015676114708185196,-0.0024227274116128683,-0.0008305248920805752,-0.0009089232189580798,-0.0003545295912772417,0.0006616547470912337,0.0003513166157063097,-0.0008785270038060844,-0.0005617711576633155,-0.0007355803973041475,-7.375895802397281e-05,-0.00011114729568362236,-9.427660552319139e-05,-2.249532008136157e-05,-9.595643496140838e-05,-4.927450936520472e-05,-0.0001397711457684636,0.0005124491872265935,0.0005505238077603281,0.0004745761107187718,-0.00013827887596562505,0.00047530344454571605,-6.271695747273043e-05,0.00048302835784852505,0.0005033689667470753,0.0005243337946012616,-0.00028497353196144104,-0.00010545724217081442,-0.00015363907732535154,0.0001702614245004952,-1.0614528946462087e-05,-0.00024922910961322486,-0.000790432037319988,0.005758650600910187,0.0003734768251888454,0.0023166867904365063,0.0035164880100637674,0.0025413173716515303,-0.02284189686179161,0.028484467417001724,-0.011949241161346436,0.025218697264790535,0.038039680570364,-0.026544060558080673,-0.00041061616502702236,-0.0010059043997898698,0.00036865880247205496,-0.0015308891888707876,-0.0017356530297547579,-0.003609025850892067,-0.000923150044400245,-0.0011613991810008883,-0.00032623676816001534,0.000222782589844428,-0.00038075607153587043,-0.0012899910798296332,-0.0005974940140731633,-0.0008865469717420638,7.286026084329933e-05,-0.00032129124156199396,-0.00021779435337521136,-0.00014076675870455801,-0.00012134198914282024,-5.588169733528048e-05,-0.0002006751747103408,0.0004194624489173293,0.00043794731027446687,0.0007454432779923081,-2.229752135463059e-05,0.0005911800544708967,-0.00020904818666167557,0.00040163795347325504,0.0003945780044887215,0.0007954830070957541,-0.00032564872526563704,-6.391517672454938e-05,-0.0003159007173962891,0.00010570167796686292,-3.761635525734164e-05,-0.0013038238976150751,0.0007258131518028677,0.00721947755664587,-0.001072238082997501,0.0019600163213908672,0.003132967511191964,0.0051913331262767315,-0.01646343432366848,0.0662684440612793,-0.023654107004404068,-0.006221827119588852,0.02023818902671337,-0.006928705144673586,-2.017209590121638e-05,2.1875075617572293e-05,-2.564610076660756e-05,3.922467658412643e-05,2.2597905626753345e-05,7.016632298473269e-05,3.096103318966925e-05,5.722081186831929e-05,2.1501049559446983e-05,1.7521520931040868e-05,4.513562817010097e-05,2.699595643207431e-05,1.8825163579094806e-06,3.636039764387533e-05,-4.26735459768679e-06,1.6458425307064317e-05,1.0145152373297606e-05,4.961732429364929e-06,1.2845886885770597e-05,1.1853915566462092e-05,1.5583333151880652e-05,-8.275511390820611e-06,8.784490091784392e-06,-7.691314749536105e-06,7.571866717626108e-06,-1.2443588275345974e-05,1.4955033293517772e-05,-6.283641141635599e-06,1.6023284842958674e-05,-1.2612640603038017e-05,2.7975931516266428e-05,9.678286915004719e-06,1.4512794223264791e-05,7.951765837788116e-06,7.776963320793584e-05,-2.1465541522047715e-07,-1.968837068488938e-06,-0.0002375847107032314,7.14444468030706e-05,-2.631735333125107e-05,2.5006738724187016e-06,-9.619274351280183e-05,0.0010616411454975605,-0.001660771551541984,0.0015550896059721708,-0.00029731966787949204,0.003604623954743147,-0.0009832982905209064,2.768418562482111e-05,8.984551095636562e-05,-5.084569420432672e-05,0.00013476349704433233,0.0001596546935616061,0.0003564062062650919,0.000108293657831382,0.00012950680684298277,3.973626371589489e-05,7.755976184853353e-06,6.839058914920315e-05,0.00018504468607716262,6.051651871530339e-05,8.711200644029304e-05,-1.1229747542529367e-05,3.5829845728585497e-05,2.3089227397576906e-05,1.5465064279851504e-05,2.0662666429416277e-05,1.3018521713092923e-05,2.6579338737064973e-05,-2.4227758331107907e-05,-3.173384538968094e-05,-5.5309075833065435e-05,1.462042928324081e-05,-5.0388305680826306e-05,2.7988646252197213e-05,-2.1826841475558467e-05,-2.5988820198108442e-05,-6.039112122380175e-05,4.386089131003246e-05,1.3764485629508272e-05,4.007676034234464e-05,4.736097253044136e-06,1.947239798028022e-05,0.00016135946498252451,1.1088839528383687e-05,-0.000681135687045753,0.00015129103849176317,-0.00010071098949993029,-0.00026155420346185565,-0.0004171798354946077,0.0122227743268013,-0.003126145340502262,0.0018257026094943285,0.001468268339522183,0.00039126683259382844,0.0009462072630412877,-0.00027509519713930786,-0.0006851257057860494,0.0002829555014614016,-0.0010411731200292706,-0.0012097780127078295,-0.0024890692438930273,-0.0006866494077257812,-0.0008499248651787639,-0.0002470480394549668,0.00011240113963140175,-0.00026237539714202285,-0.0010587425203993917,-0.0004226478049531579,-0.0006271100719459355,5.643311305902898e-05,-0.0002255530416732654,-0.00015089947555679828,-9.550697723170742e-05,-9.798136306926608e-05,-5.651845640386455e-05,-0.0001548131403978914,0.00026270607486367226,0.0003088338708039373,0.00045509851770475507,-3.969971658079885e-05,0.0004075871256645769,-0.00015995003923308104,0.0002501964336261153,0.0002791803563013673,0.0004914187593385577,-0.00024450375349260867,-6.3570863858331e-05,-0.00023363420041278005,4.364712367532775e-05,-2.6162910216953605e-05,-0.0009734858758747578,0.00033571611857041717,0.005320678930729628,-0.0008182459278032184,0.0012652608565986156,0.002296874299645424,0.0034027164801955223,-0.014891364611685276,0.03328138217329979,-0.018606998026371002,-0.007558546494692564,-0.0014364431845024228,0.038786858320236206,0.00011775219172704965,0.0003913308319170028,-0.00022036698646843433,0.0005964126321487129,0.0006992589915171266,0.0015555878635495901,0.0004664443258661777,0.0005582230514846742,0.0001701461587799713,2.5096705940086395e-05,0.0002920656988862902,0.0007992853643372655,0.00026148027973249555,0.00037971307756379247,-4.7660829295637086e-05,0.00014894138439558446,0.00010018495959229767,6.831328937551007e-05,8.955419616540894e-05,5.6772209063638e-05,0.00011526823800522834,-0.00011123444710392505,-0.0001392008998664096,-0.00024240963102784008,6.434256647480652e-05,-0.00021591778204310685,0.0001215151060023345,-0.00010021001799032092,-0.00011433869076427072,-0.00026242161402478814,0.00018999926396645606,6.25020547886379e-05,0.0001717395498417318,2.0092604245292023e-05,8.394053293159232e-05,0.0006990323890931904,7.80110785854049e-05,-0.0029627233743667603,0.0006623119697906077,-0.0004808038647752255,-0.0011504878057166934,-0.0018589759711176157,0.01210174523293972,-0.015965232625603676,0.011765498667955399,0.008149431087076664,0.006068520713597536,0.007351181469857693,3.255301930793486e-11,8.93104479260387e-11,-1.8712425706168823e-11,6.602010604872532e-11,1.3948789345796797e-10,4.132185149607892e-10,5.0462085898761444e-11,8.104675264242189e-11,2.5174324430610184e-11,-2.745788492408696e-11,-2.8330705836854264e-11,1.426563728257335e-10,4.18539855551181e-11,6.34002364496844e-11,8.633253617204573e-13,1.9379057386581522e-11,5.346739110484444e-12,1.748413046287478e-12,3.4306602697542488e-12,7.675923156640063e-13,1.2232677544521398e-11,-3.0753212476586356e-11,-5.6881301752076396e-11,-5.459189003631515e-11,-9.40791194947721e-12,-4.2603729571988325e-11,6.3200339059377164e-12,-3.2082250051024275e-11,-5.730136504178418e-11,-6.65890675932701e-11,1.4997848449271878e-11,-1.968426506862575e-12,2.9397619755178184e-11,-4.780238010981819e-11,-4.845314774404308e-11,1.2858729359077614e-10,-1.2862996778828517e-10,-5.581423656586537e-10,8.986548484524182e-12,-1.7581505695751787e-10,-3.2002814287501735e-10,-3.7647321371458986e-10,6.800598417733283e-10,-2.941030752268148e-09,9.781222498617126e-10,2.2388411125007224e-09,-3.0973312803439512e-09,2.431746581876837e-09,0.0001404732174705714,0.0003749568131752312,-0.00010879748151637614,0.0005304052028805017,0.000701814191415906,0.0013206895673647523,0.00029911071760579944,0.00040502051706425846,0.00013968508574180305,-0.0001509719149908051,-3.130504865112016e-06,0.0005375805194489658,0.00019741151481866837,0.0003063366748392582,7.092577902767516e-07,7.609240856254473e-05,6.476738053606823e-05,2.2176005586516112e-05,3.346690573380329e-05,1.711857839836739e-05,6.85287086525932e-05,-0.00014986821042839438,-0.00022833292314317077,-0.00025061293854378164,-2.387118547630962e-05,-0.00022132942103780806,4.57987844129093e-05,-0.00015325438289437443,-0.0002258752501802519,-0.0002602777094580233,0.0001057011540979147,1.7573936929693446e-05,0.00013300661521498114,-5.976734610158019e-05,-0.0002015774807659909,0.000539527740329504,-0.0005990457721054554,-0.002728163730353117,0.00011315481970086694,-0.0007869185646995902,-0.0016293455846607685,-0.0016986465780064464,0.0043539865873754025,-0.018970778211951256,0.006580286659300327,0.005907100159674883,-0.01020114403218031,0.016330771148204803,0.0003667155106086284,0.0009054430411197245,-0.0001924896496348083,0.0012856223620474339,0.0018450069474056363,0.0029467239510267973,0.0006527567165903747,0.0009038288844749331,0.00027298153145238757,-0.0005246108048595488,-1.4436749552260153e-05,0.0008663212065584958,0.00045937986578792334,0.0007372130639851093,-1.699314225334092e-06,0.00016446869994979352,0.00023216848785523325,0.00010200835822615772,5.762802538811229e-05,1.1099087714683264e-05,0.00012858615082222968,-0.0004482204094529152,-0.0005656751454807818,-0.0006386081222444773,-3.698568980325945e-05,-0.0005611584056168795,0.00010048208787338808,-0.0004641707055270672,-0.0005636024288833141,-0.0006818874389864504,0.00022485719819087535,5.714662620448507e-06,0.0002284335350850597,-0.00027066742768511176,-0.00028576317708939314,0.0008540262933820486,-0.0010733124800026417,-0.007074521854519844,0.0002534825762268156,-0.0025769441854208708,-0.003964382689446211,-0.004518452100455761,0.020441006869077682,-0.010303722694516182,-0.012836629524827003,-0.04972144216299057,-0.01859082467854023,0.08654116094112396,3.1689206548845235e-17,9.7941605745292e-17,-5.367503195579427e-17,1.602708229540202e-16,1.7793909643568746e-16,4.0733986487026714e-16,1.215428619489979e-16,1.4487382861574596e-16,3.93617831863074e-17,5.731165128236424e-18,7.114189357574976e-17,2.0355539769879703e-16,6.511790775144048e-17,9.47828345965235e-17,-1.158290423846164e-17,3.834271321525432e-17,2.4752056341669268e-17,1.6346895466505643e-17,2.340237386030732e-17,8.082656389219001e-18,2.6917151964190065e-17,-5.490207498517788e-17,-7.156106900552223e-17,-6.156566332889276e-17,1.6190909055312843e-17,-5.490128750923473e-17,3.279120633939043e-17,-2.6009326204996793e-17,-2.7001794047550166e-17,-7.079854744709125e-17,4.154321066284244e-17,1.5021135048458728e-17,4.554017385247827e-17,4.9973980222590096e-18,2.2332081557002507e-17,1.8049830060669792e-16,1.85593405616502e-17,-7.307835515347192e-16,1.6580590533164124e-16,-1.1948571008769281e-16,-2.872423984713097e-16,-4.488013070751975e-16,2.992615048252726e-15,-3.8796768667701334e-15,2.8007843203144926e-15,2.066385367463096e-15,1.3502983140192717e-15,1.9011921316501156e-15,-0.0005805361433885992,-0.0007146682473830879,0.00034442287869751453,-0.0006677358760498464,-0.0019563196692615747,-0.0029639513231813908,-0.0007999569061212242,-0.0008423628751188517,-0.00029859153437428176,-0.0003179408668074757,-0.0007390574901364744,-0.0015157676534727216,-0.0005409238510765135,-0.0006144740036688745,8.763248479226604e-05,-0.00020125317678321153,-0.00034046833752654493,-0.0002889046154450625,-8.635579433757812e-05,-5.7374974858248606e-05,-0.00019696573144756258,-1.3569162547355518e-05,0.00036579056177288294,0.0004653309006243944,0.00011073449422838166,0.00043156673200428486,-0.00020536704687401652,2.5762572477106005e-05,0.0003205319226253778,0.0005070673651061952,-0.0002726455277297646,-1.7007881979225203e-05,-0.0002472050255164504,0.00032531851320527494,-0.0004145363927818835,-0.0007850862457416952,0.0020409775897860527,0.005773172713816166,-0.001112007419578731,-0.0005718773463740945,0.003079401794821024,0.0030868505127727985,-0.0020925747230648994,0.03183077648282051,-0.021659284830093384,-0.039666902273893356,0.009422816336154938,0.008922668173909187,5.153895926923724e-06,1.1686032848956529e-05,-1.0995560842275154e-05,2.019514977291692e-05,2.5201392418239266e-05,5.612222958006896e-05,2.2276954041444696e-05,2.1477721020346507e-05,7.419685061904602e-06,6.311560809990624e-06,1.705018075881526e-05,4.516568878898397e-05,1.2163000064902008e-05,1.248790886165807e-05,-2.7841485916724196e-06,6.3829575083218515e-06,4.563384209177457e-06,3.265686473241658e-06,4.394424195197644e-06,3.3514786537125474e-06,5.658538157149451e-06,-1.1908723536180332e-06,-3.602365040933364e-06,-3.1009728900244227e-06,4.539392648439389e-06,-5.398468147177482e-06,6.107015451561892e-06,-3.90850402709475e-07,-2.4711023343115812e-06,-3.969505542045226e-06,9.046737432072405e-06,3.6729159091919428e-06,7.79474703449523e-06,2.734761210376746e-06,6.013605343468953e-06,3.557655873009935e-05,1.8105685740010813e-05,-7.213275239337236e-05,3.609556006267667e-05,4.876534603681648e-06,-3.2981508411467075e-05,-2.7118585421703756e-05,0.0031820381991565228,-0.0037091553676873446,-0.0012290924787521362,0.002683819504454732,0.0027853245846927166,0.0003286637074779719,0.00010511786967981607,0.00027364285779185593,-3.713616752065718e-05,0.00038321252213791013,0.00047854927834123373,0.0008878132211975753,0.0001697499246802181,0.00024262056103907526,7.933809683891013e-05,-0.0001623903081053868,-0.00010236015805276111,0.00021113820548634976,0.00012230427819304168,0.0002110223431373015,1.2180786143289879e-05,4.7160581743810326e-05,2.392307396803517e-05,3.662988490304997e-07,1.0352056051488034e-05,-5.675929969584104e-06,3.0572835385100916e-05,-0.00013400070019997656,-0.000186646226211451,-0.00022158095089253038,-3.4615786717040464e-05,-0.00016947524272836745,1.035083278111415e-05,-0.00013695581583306193,-0.00018983233894687146,-0.0002255870058434084,4.9438098358223215e-05,-3.5754521832132014e-06,7.312410161830485e-05,-6.220613431651145e-05,-0.0001704071619315073,0.00027208798564970493,-0.0005385269178077579,-0.0020286040380597115,-7.711414218647406e-05,-0.0007241001585498452,-0.0013324476312845945,-0.0013995731715112925,0.004151007626205683,0.0271670613437891,0.01068903785198927,-0.004022269509732723,-0.02476651966571808,0.020424162968993187,0.0002545500174164772,0.0008867521537467837,-0.00040899557643570006,0.0013078107731416821,0.0015029186615720391,0.0032699492294341326,0.0009265461703762412,0.0011682562762871385,0.00034755177330225706,-5.97486287006177e-05,0.0004951832233928144,0.0014563758159056306,0.0005266498192213476,0.000838758482132107,-7.645467849215493e-05,0.00030247808899730444,0.000197805609786883,0.00013018721074331552,0.00017093634232878685,9.599093027645722e-05,0.00022091815480962396,-0.00029523076955229044,-0.0003338587412144989,-0.0005758467596024275,0.00010422997729619965,-0.000514080747961998,0.00022170721786096692,-0.0002754967426881194,-0.0002874540805350989,-0.000621908635366708,0.000370497175026685,0.00010216627561021596,0.0003350181505084038,-4.501243893173523e-06,0.00011845291737699881,0.0013289939379319549,-0.0001009692350635305,-0.007688974961638451,0.0011695013381540775,-0.0014132779324427247,-0.0025998365599662066,-0.004469695035368204,0.01306291576474905,0.049828462302684784,0.0010367782087996602,0.037399761378765106,0.027509374544024467,0.0553622730076313,-2.2736747268936597e-05,-5.0480161007726565e-05,1.5351641195593402e-05,-7.742089655948803e-05,-9.003453305922449e-05,-0.00017915743228513747,-4.4221127609489486e-05,-5.685072756023146e-05,-1.693650301604066e-05,1.4154693417367525e-05,-1.1246956091781612e-05,-6.364413275150582e-05,-2.9008393539697863e-05,-4.397230441099964e-05,1.9034213210034068e-06,-1.536425043013878e-05,-9.689790203992743e-06,-6.7504292928788345e-06,-4.505138349486515e-06,-2.406893372608465e-06,-9.26989105209941e-06,2.644311825861223e-05,2.485275581420865e-05,3.6840974644292146e-05,9.447270485907211e-07,3.0096940463408828e-05,-7.277728855115129e-06,2.1824807845405303e-05,2.3272026737686247e-05,3.955485226470046e-05,-1.4862862371955998e-05,-2.713584990488016e-06,-1.459100894862786e-05,6.1226160141814034e-06,1.1592675264182617e-06,-6.246059638215229e-05,5.141723158885725e-05,0.00037189319846220315,-3.534567076712847e-05,0.00010653618664946407,0.0001789102389011532,0.0002598289283923805,-0.0006899099098518491,0.0021551891695708036,-0.0010487956460565329,-0.0001735303085297346,0.00018635846208781004,8.890833123587072e-05,-0.0002559866989031434,-0.0006055163103155792,0.0002284991933265701,-0.0009273390751332045,-0.0011041521793231368,-0.00219948822632432,-0.0005873990594409406,-0.0007383916527032852,-0.0002166558406315744,0.0001261099532712251,-0.00018784157873596996,-0.0008928945171646774,-0.00037377289845608175,-0.0005464567802846432,4.1042825614567846e-05,-0.00019584869733080268,-0.00014384434325620532,-7.7475153375417e-05,-7.63687930884771e-05,-4.647082096198574e-05,-0.00012970753596164286,0.00024019744887482375,0.0002966299362014979,0.0004135432536713779,-2.4627795937703922e-05,0.00035959467641077936,-0.0001311438245465979,0.0002289414987899363,0.00028352244407869875,0.0004465005767997354,-0.00020317434973549098,-5.422228423412889e-05,-0.00020035970374010503,3.2605214073555544e-05,1.752232128637843e-05,-0.0008157882839441299,0.0003374406951479614,0.004612017888575792,-0.0006590263801626861,0.0011423908872529864,0.002276764251291752,0.003015692811459303,-0.004666740074753761,0.02985076792538166,-0.019701702520251274,0.0033729716669768095,-0.0023691277019679546,0.013982736505568027,7.200640538940206e-05,0.0002427001454634592,-0.00013495130406226963,0.00036887431633658707,0.0004299025749787688,0.0009610701818019152,0.0002867216244339943,0.0003437518316786736,0.00010515787289477885,1.5025369066279382e-05,0.00017735426081344485,0.00048715557204559445,0.00016024874639697373,0.0002351084549445659,-2.8869482775917277e-05,9.246052650269121e-05,6.182124343467876e-05,4.1714374674484134e-05,5.4776428441982716e-05,3.4541470085969195e-05,7.066391845000908e-05,-7.296158582903445e-05,-8.497383532812819e-05,-0.00015075771079864353,3.9385620766552165e-05,-0.00013532442972064018,7.676528912270442e-05,-6.312558252830058e-05,-7.085919060045853e-05,-0.0001656377426115796,0.00011672167602228001,3.607188773457892e-05,0.00010581217793514952,1.195153163280338e-05,5.12288352183532e-05,0.00042626127833500504,4.346830610302277e-05,-0.0018470990471541882,0.0004003838403150439,-0.000306811387417838,-0.0007102512172423303,-0.0011535441735759377,0.006723709404468536,-0.00980824138969183,0.006880682893097401,0.004841472487896681,0.0018730986630544066,0.005613339599221945,-7.074156746966764e-05,-0.00013046381354797632,3.000912329298444e-05,-0.00013649585889652371,-0.0003200749633833766,-0.00047416085726581514,-0.00011899792298208922,-0.00013158177898731083,-4.720688593806699e-05,-1.9437014998402447e-05,-9.600842167856172e-05,-0.00021699309581890702,-7.948529673740268e-05,-0.00010348918294766918,3.558524440450128e-06,-3.2414100132882595e-05,-5.37231499038171e-05,-4.995520066586323e-05,-1.0793859473778866e-05,-2.4173800738935824e-06,-2.3502190742874518e-05,1.3992572348797694e-05,6.584382936125621e-05,8.344031812157482e-05,2.2237632947508246e-05,7.687811012146994e-05,-2.0073348423466086e-05,1.6571153537370265e-05,5.926596713834442e-05,9.004119056044146e-05,-3.978860331699252e-05,-2.9550349722740066e-07,-3.5664041206473485e-05,5.274876457406208e-05,-3.170578565914184e-05,-0.00012343136768322438,0.00031148569541983306,0.0009695494663901627,-8.789788989815861e-05,-2.6081073883688077e-05,0.0004919289494864643,0.000528712582308799,-0.00046000885777175426,0.005379864014685154,-0.0027177580632269382,-0.0056990464217960835,0.001430094358511269,0.001038458663970232,-0.0008690837421454489,-0.0013662249548360705,0.0006124884239397943,-0.00129090272821486,-0.003849638858810067,-0.005559188313782215,-0.0015039091231301427,-0.0015771432081237435,-0.0005643383483402431,-0.0004066253313794732,-0.0013426562072709203,-0.0028405163902789354,-0.0010121240047737956,-0.0011489551980048418,0.00015751646424178034,-0.0003859430144075304,-0.0006679153302684426,-0.0005575037794187665,-0.0001580918615218252,-0.00010317577107343823,-0.00036461022682487965,2.6027340936707333e-05,0.0006904751644469798,0.0009052078821696341,0.00020383886294439435,0.0008231695392169058,-0.00038968445733189583,6.654566823272035e-05,0.0006072561373002827,0.0009590602130629122,-0.0005153741803951561,-3.131396806566045e-05,-0.0004641265841200948,0.00058372737839818,-0.0007818485610187054,-0.0015031233197078109,0.0037971518468111753,0.0107982587069273,-0.0019953802693635225,-0.0010154708288609982,0.005782382097095251,0.0058250417932868,-0.004313298966735601,0.06029004231095314,-0.04012469947338104,-0.07360830903053284,0.018124841153621674,0.016315985471010208,-0.00015495535626541823,-0.0002811355225276202,8.553254883736372e-05,-0.0002789231948554516,-0.0007277462282218039,-0.0010270228376612067,-0.00026651020743884146,-0.0002903989516198635,-0.00010511985601624474,-6.227711128303781e-05,-0.0002383106475463137,-0.0004943319363519549,-0.00020260008750483394,-0.0002324482920812443,1.0504863894311711e-05,-7.609391468577087e-05,-0.0001290195359615609,-0.00011970350169576705,-2.8173344617243856e-05,-9.012829650600906e-06,-5.757849066867493e-05,2.157987910322845e-05,0.00012446969049051404,0.00017439947987440974,2.9228303901618347e-05,0.00015801253903191537,-5.022894765716046e-05,3.174829907948151e-05,0.00010152003960683942,0.00018863666628021747,-8.728782995603979e-05,1.424384549864044e-06,-8.147849439410493e-05,0.00010073839075630531,-6.927558570168912e-05,-0.00028712418861687183,0.0005917874514125288,0.002083561150357127,-0.00020529319590423256,-7.778969302307814e-05,0.0010654841316863894,0.0011208802461624146,-0.0014542253920808434,0.011650318279862404,-0.005996061488986015,-0.012411597184836864,0.00346095091663301,0.002021831227466464,0.00013184135605115443,0.00045694285654462874,-0.00021326706337276846,0.0006751067703589797,0.0007762557943351567,0.0016812575049698353,0.000481397524708882,0.0006048846989870071,0.00018054341489914805,-3.0520935979438946e-05,0.0002555697865318507,0.0007527074194513261,0.00027422254788689315,0.0004334517871029675,-4.039066698169336e-05,0.0001568607840454206,0.00010266385652357712,6.824157026130706e-05,8.899275417206809e-05,5.0229882617713884e-05,0.00011528008326422423,-0.00015240401262417436,-0.00017226944328285754,-0.0002971625071950257,5.4620755690848455e-05,-0.0002657561853993684,0.00011568243644433096,-0.00014249318337533623,-0.00014837452908977866,-0.0003203940868843347,0.00019249675096943974,5.3581770771415904e-05,0.00017478346126154065,-1.8658586213859962e-06,6.295191269600764e-05,0.0006902726599946618,-4.551722668111324e-05,-0.0034438467118889093,0.0005937906680628657,-0.0007050575804896653,-0.0013218647800385952,-0.0021757069043815136,0.0045872344635427,-0.020390884950757027,0.010036871768534184,0.013763727620244026,0.03344109654426575,0.02516474388539791,-1.1222752618778031e-05,1.0678066246327944e-05,-1.5425779565703124e-05,2.2483862267108634e-05,1.2350978067843243e-05,3.7079560570418835e-05,2.0633677195291966e-05,3.301946344436146e-05,1.2635274288186338e-05,1.1204137990716845e-05,2.708835745579563e-05,1.655409869272262e-05,3.127498757748981e-06,2.07261873583775e-05,-2.162689952456276e-06,9.926103302859701e-06,5.595124548563035e-06,1.6568777709835558e-06,8.150087523972616e-06,7.396604360110359e-06,9.243273780157324e-06,-4.349603386799572e-06,6.2155390878615435e-06,-3.6571084365277784e-06,5.722161859011976e-06,-6.142407528386684e-06,9.077075446839444e-06,-3.0846770187054062e-06,9.940285053744446e-06,-7.108129011612618e-06,1.6665313523844816e-05,5.9568278629740234e-06,8.834784239297733e-06,6.4409623519168235e-06,4.712334703071974e-05,-3.030849597962515e-07,1.877760405477602e-05,-0.0001286896876990795,4.036816244479269e-05,-1.5028736015665345e-05,5.519309979717946e-06,-5.42968264198862e-05,0.0006904109031893313,-0.001089319004677236,0.0007946180994622409,-1.2987697118660435e-05,0.0022510970011353493,-0.0006581397028639913,-0.00015418202383443713,0.00017495505744591355,-0.0002362194354645908,0.00036296839243732393,0.00021458964329212904,0.0005711422418244183,0.00028648279840126634,0.0004982301034033298,0.00018533172260504216,0.00014057739463169128,0.0004133488400839269,0.00024587244843132794,4.857129533775151e-05,0.0003110091492999345,-3.9778155041858554e-05,0.00014929154713172466,9.168256656266749e-05,3.2687923521734774e-05,0.00011746354721253738,0.00010536041372688487,0.0001384663482895121,-8.612320380052552e-05,8.208520739572123e-05,-6.531496183015406e-05,8.13948136055842e-05,-0.00010268059850204736,0.00013764947652816772,-6.683659012196586e-05,0.00013936935283709317,-0.0001010568521451205,0.0002574233803898096,8.193896064767614e-05,0.0001325572666246444,8.267862722277641e-05,0.0006970884860493243,-1.4121611457085237e-05,0.00019603842520155013,-0.001995599828660488,0.0006359705002978444,-0.00033693964360281825,-2.0582710931194015e-06,-0.0008372161537408829,0.009362387470901012,-0.0156306903809309,0.012240961194038391,-0.0068622129037976265,0.0364953950047493,-0.008724592626094818,-1.050022557791408e-08,1.2569381979687932e-08,-1.4126419145554792e-08,2.0656575117072862e-08,1.3184870084614886e-08,4.791386842839529e-08,1.7352936865222546e-08,3.0513209736682256e-08,1.162491880535299e-08,9.686657698182444e-09,2.5349732979407236e-08,1.612355227109674e-08,2.8213906211327355e-10,2.0499003383633863e-08,-2.4027035916418527e-09,8.869274203959776e-09,5.493370203168979e-09,2.70622457776426e-09,5.906663602672779e-09,6.513002137609192e-09,7.633984999699805e-09,-4.5490899935884954e-09,3.287022209974566e-09,-4.131464947931818e-09,4.3777950153867096e-09,-6.801151197777244e-09,8.17972090061403e-09,-3.275497428845142e-09,8.905462145492038e-09,-6.962087351070068e-09,1.414247918773981e-08,5.100878386343766e-09,8.281348939931377e-09,1.8591421735436597e-09,4.195371161586081e-08,-7.996581730118635e-10,2.100329687948488e-09,