#include <math.h>
#include <hls_stream.h>
#include <ap_axi_sdata.h>

#define INPUT_NODES 48
#define HIDDEN_LAYER_NODES 128
#define OUTPUT_NODES 2

// reference: https://github.com/EricBryann/CG4002/blob/main/Hardware_Ai/HLS/hls.cpp

typedef float custom_float;

custom_float input_weight[INPUT_NODES * HIDDEN_LAYER_NODES] = {-0.05114180967211723,0.05761365965008736,-0.1623462587594986,0.01680697500705719,0.08110124617815018,0.05385575070977211,-0.07724300026893616,0.20268358290195465,0.18723838031291962,0.06947244703769684,0.06044106185436249,-0.06174486503005028,0.08043383061885834,-0.028553137555718422,-0.055854298174381256,0.12505865097045898,-0.07607678323984146,-0.056618381291627884,0.1036982387304306,0.023832159116864204,0.02610176056623459,-0.023381048813462257,-0.08133771270513535,0.18132343888282776,0.11376670747995377,-0.1534704864025116,0.10927655547857285,0.033891502767801285,-0.08730290085077286,-0.07197072356939316,0.17604461312294006,0.08072283864021301,-0.01989968679845333,0.008446460589766502,0.12648813426494598,-0.008375825360417366,-0.04538705199956894,-0.152506485581398,0.18976984918117523,0.021416502073407173,0.046911150217056274,0.07564079016447067,-0.07756582647562027,-0.03228272870182991,-0.007872844114899635,0.04719168320298195,0.11818113923072815,0.1898832470178604,0.014293401502072811,-0.20251919329166412,-0.09940077364444733,0.06925036758184433,-0.062145378440618515,-0.1397636979818344,-0.10374259948730469,-0.12948033213615417,0.01886562630534172,0.15152820944786072,0.02438545972108841,0.048442114144563675,-0.02359616383910179,-0.11602788418531418,0.0992986410856247,0.11533692479133606,-0.075449138879776,0.300159752368927,-0.17889007925987244,-0.1029578447341919,-0.1268206089735031,-0.02323496900498867,0.05733824893832207,-0.009799658320844173,0.001447468064725399,0.09308719635009766,-0.1270272433757782,0.07938229292631149,0.09809710830450058,0.032324597239494324,-0.07820556312799454,0.07703584432601929,-0.20111455023288727,0.039301980286836624,0.12662088871002197,-0.11369125545024872,-0.03799673914909363,-0.00131648825481534,0.08199851959943771,0.09958959370851517,-0.01176158245652914,-0.1014464870095253,-0.10245881229639053,-0.05461933836340904,-0.0034703731071203947,0.11499436944723129,-0.07882212102413177,-0.14533759653568268,-0.11131647974252701,-0.017866719514131546,0.04926522821187973,-0.028502091765403748,-0.0939893051981926,0.11597583442926407,0.13100942969322205,-0.05811169371008873,-0.05108310282230377,-0.10346817225217819,0.09609803557395935,-0.05829540267586708,-0.03206386789679527,0.13864929974079132,-0.02827470935881138,0.11796250194311142,0.00100607518106699,-0.08853907883167267,-0.006957162171602249,0.07985447347164154,0.09084011614322662,0.11516374349594116,0.10191001743078232,0.13328835368156433,0.06225796788930893,-0.14965027570724487,-0.04952600598335266,0.13558800518512726,0.14784161746501923,-0.06848303228616714,-0.04852977395057678,-0.09228232502937317,0.06774377822875977,0.04628874361515045,0.12685559689998627,0.17774660885334015,-0.006266848184168339,-0.0873180702328682,-0.06467937678098679,-0.09555145353078842,-0.06771854311227798,-0.10251439362764359,0.04522394388914108,0.032790470868349075,0.06645474582910538,0.07438328117132187,0.1254912167787552,0.1966262012720108,0.10470748692750931,-0.14404341578483582,0.13805854320526123,0.0014074478531256318,0.053411900997161865,-0.06821348518133163,-0.0296642929315567,-0.006232400890439749,-0.08066913485527039,-0.08290060609579086,0.06442642211914062,-0.15502700209617615,0.026142224669456482,-0.013885552063584328,-0.0032715003471821547,-0.08817916363477707,0.07675168663263321,-0.04632295295596123,-0.15190428495407104,0.13103221356868744,-0.15111133456230164,0.13145539164543152,-0.042156659066677094,-0.015202349051833153,0.049904629588127136,0.10029098391532898,-0.06729428470134735,-0.04296188801527023,0.10621247440576553,0.0663025826215744,-0.06994644552469254,0.12262796610593796,0.06569807231426239,-0.07599540054798126,-0.07230237126350403,0.08237309753894806,0.020682524889707565,-0.03920538350939751,-0.13003917038440704,-0.053423285484313965,0.032215457409620285,0.12562263011932373,0.07216309756040573,-0.02571883425116539,0.09767619520425797,0.13511067628860474,-0.010549372993409634,0.09455909579992294,-0.12247521430253983,0.024084487929940224,0.11425656825304031,-0.14141009747982025,-0.13804219663143158,-0.09664769470691681,-0.0384601354598999,-0.08998233824968338,0.02218163013458252,-0.030004994943737984,0.01897747442126274,0.0414140559732914,0.13815566897392273,0.05779118090867996,-0.10625290125608444,0.11931521445512772,0.05527228116989136,0.04796954244375229,0.09793158620595932,0.04010258987545967,0.09324996918439865,0.014953726902604103,0.06645297259092331,-0.07270454615354538,-0.11920303851366043,0.10641936957836151,-0.12353508174419403,0.08735740184783936,-0.017700962722301483,-0.13210943341255188,0.06575343012809753,0.07167764008045197,0.019696258008480072,-0.012925161980092525,0.01886862702667713,-0.017893686890602112,0.06882006675004959,0.06194296479225159,0.03402353823184967,-0.13406766951084137,-0.0253384280949831,-0.11679718643426895,0.06294402480125427,-0.08918404579162598,-0.029588228091597557,0.09343652427196503,-0.11277063190937042,0.11594828218221664,0.06362713873386383,0.007865735329687595,0.005607531871646643,-0.053804993629455566,-0.16514869034290314,-0.10001186281442642,-0.02241656742990017,0.02905447408556938,-0.0881669670343399,-0.1034705862402916,0.105011947453022,0.11248758435249329,-0.11744578927755356,-0.021046800538897514,0.07618853449821472,0.04296794906258583,0.0711526870727539,0.23427288234233856,-0.08806238323450089,0.03294810280203819,-0.013233482837677002,-0.09747081249952316,0.03533105552196503,-0.08258108794689178,0.031120609492063522,-0.07576627284288406,-0.028844114392995834,-0.10295362770557404,0.042498182505369186,0.014520100317895412,-0.032819755375385284,0.13169705867767334,0.0924714058637619,0.08237062394618988,-0.02518410049378872,-0.06119263917207718,0.06315959244966507,0.16889014840126038,-0.1465437263250351,0.024089613929390907,-0.07756411284208298,0.017871486023068428,0.046380139887332916,0.08036958426237106,0.052826542407274246,0.008626692928373814,0.023123303428292274,-0.11147508025169373,0.18698781728744507,-0.04808960482478142,-0.08940059691667557,-0.20067699253559113,-0.12942643463611603,0.014195750467479229,0.028472186997532845,-0.20633110404014587,0.01579941064119339,0.11347062140703201,0.0733480453491211,-0.03598494082689285,-0.2945860028266907,-0.022726180031895638,-0.017122993245720863,-0.00980908703058958,-0.008120443671941757,-0.019649792462587357,0.03702589124441147,0.26240187883377075,-0.04039175435900688,0.17015057802200317,0.08564610779285431,-0.03346242383122444,-0.46971049904823303,0.031072115525603294,-0.09679240733385086,-0.05496712401509285,0.11772648245096207,0.015445321798324585,0.044339001178741455,-0.00822995975613594,-0.023084355518221855,0.20812374353408813,0.09946254640817642,-0.020530182868242264,-0.6678242087364197,-0.05545441433787346,-0.009179268963634968,-0.027318352833390236,-0.00014618507702834904,0.04314567521214485,-0.28100916743278503,0.06824292242527008,-0.07739120721817017,-0.04951321706175804,-0.06180989742279053,-0.028166281059384346,-0.04539969190955162,-0.03446083515882492,0.11487320810556412,0.12420722097158432,0.03295431658625603,0.09800940006971359,0.008092356845736504,-0.08625300228595734,-0.004307820927351713,-0.13732154667377472,-0.11963755637407303,-0.0660654827952385,-0.11422756314277649,-0.0696592777967453,0.16393765807151794,0.024449026212096214,0.005049212835729122,-0.02238818258047104,0.07491379976272583,-0.0019272449426352978,0.031704071909189224,-0.03575214743614197,0.0003268399159424007,-0.1455449014902115,0.03103298880159855,0.021735023707151413,0.06064089015126228,0.12359516322612762,0.08180680125951767,0.10592521727085114,-0.07230424880981445,-0.09699280560016632,0.02450765296816826,0.11912427097558975,0.0848211720585823,-0.08685159683227539,0.09032812714576721,0.052945271134376526,0.05074860155582428,-0.1466302126646042,-0.06598390638828278,0.10357274115085602,0.09392519295215607,0.130315363407135,0.06990247219800949,0.11620945483446121,-0.017054125666618347,-0.11879029124975204,-0.09542795270681381,-0.070591501891613,0.06134524196386337,0.1187424585223198,0.12160828709602356,-0.051508720964193344,0.03757067397236824,-0.08580821752548218,-0.005611189641058445,0.050935257226228714,-0.11351794004440308,-0.06152648106217384,0.0028063119389116764,0.0676080510020256,0.13334645330905914,-0.04741697385907173,0.0025937026366591454,0.04590204730629921,-0.024455476552248,0.021628962829709053,-0.03531775623559952,-0.040502939373254776,-0.12797491252422333,-0.03440503031015396,-0.053275395184755325,0.10355537384748459,0.02245001308619976,-0.03623821586370468,0.11267036199569702,-0.055549778044223785,0.10033737123012543,-0.12900415062904358,-0.10109712928533554,-0.12438345700502396,0.0860724225640297,-0.03474937751889229,0.12019594758749008,-0.030999213457107544,-0.0954718142747879,-0.020522715523838997,-0.08512834459543228,-0.11384301632642746,0.030989013612270355,0.08467087149620056,0.1052115261554718,0.035218849778175354,0.09050756692886353,0.015978911891579628,-0.013101368211209774,-0.01770002208650112,-0.08988402783870697,-0.2009534388780594,-0.039805978536605835,-0.13322390615940094,-0.03916967660188675,-0.12222093343734741,-0.22002972662448883,0.05472881719470024,-0.004764920100569725,-0.007801072672009468,0.062166016548871994,0.001103497575968504,-0.17159701883792877,-0.03765904903411865,0.21599367260932922,0.3787834644317627,-0.17337438464164734,-0.000506924872752279,-0.12131188809871674,0.10154584050178528,0.013852105475962162,0.031991150230169296,-0.22336702048778534,-0.0593213327229023,0.008819959126412868,0.10303888469934464,0.03201576694846153,0.12018410861492157,0.0018714973703026772,-0.0038935060147196054,-0.005578752141445875,0.0930420383810997,0.025865208357572556,-0.2544008791446686,-0.2517949044704437,0.0944942757487297,-0.008625613525509834,0.200430765748024,-0.07597438246011734,-0.0900958701968193,-0.0773189514875412,0.1265188753604889,-0.19529786705970764,-0.12356014549732208,0.08577874302864075,-0.02777906507253647,0.16242676973342896,-0.051157113164663315,-0.004012102726846933,-0.1590225100517273,0.007680907379835844,-0.010024944320321083,0.0443212129175663,-0.027617886662483215,-0.15778915584087372,-0.061237938702106476,0.19392865896224976,0.0614132434129715,-0.10645458102226257,-0.2214515209197998,-0.0286447424441576,0.1364435851573944,0.03377179428935051,0.11403267830610275,-0.09791787713766098,-0.015096684917807579,0.02065587230026722,0.14465250074863434,0.12404382228851318,-0.0889950543642044,-0.29183655977249146,0.06413937360048294,-0.1555507332086563,0.0024266992695629597,0.06004547327756882,0.13321149349212646,-0.06683142483234406,-0.06069766357541084,-0.22874054312705994,0.03334513679146767,0.00733144162222743,-0.17921432852745056,-0.409829318523407,0.0643174946308136,0.09268543124198914,0.029482640326023102,-0.06721653044223785,0.17214912176132202,-0.1404019296169281,0.09707757830619812,-0.011681207455694675,0.09036672115325928,-0.07054408639669418,-0.18575309216976166,0.1497734636068344,0.059748873114585876,0.0636586844921112,0.03168385475873947,0.011607721447944641,-0.060738202184438705,-0.18952269852161407,-0.14576835930347443,-0.15033063292503357,0.1804763376712799,0.14733490347862244,0.004442225210368633,0.05463993921875954,-0.1100381389260292,-0.14182189106941223,0.10700515657663345,0.08978882431983948,-0.03394065797328949,-0.19425368309020996,0.1163892149925232,-0.1604011505842209,-0.09698851406574249,0.034242723137140274,0.02935732901096344,-0.08507228642702103,0.004492263309657574,-0.08852282911539078,0.17637299001216888,0.14699731767177582,-0.06699181348085403,-0.06417776644229889,-0.0029729183297604322,-0.10601384937763214,0.13183431327342987,-0.06869839876890182,-0.004409251268953085,-0.17213676869869232,0.05173661932349205,0.15881739556789398,0.15713860094547272,-0.07218627631664276,0.10616329312324524,-0.24561430513858795,0.13125762343406677,-0.009617157280445099,-0.06533429026603699,0.15852051973342896,0.11703570187091827,-0.02574331872165203,0.047853853553533554,-0.11672583967447281,0.041023191064596176,-0.07299063354730606,0.11020006984472275,-0.029754742980003357,-0.08557581156492233,0.06226745992898941,0.04720745235681534,0.005016095004975796,0.07290353626012802,0.07927118241786957,0.07968808710575104,-0.057441774755716324,0.14126063883304596,-0.08747158944606781,-0.04721272736787796,0.10989034920930862,0.04852360114455223,0.10081057250499725,0.08112242817878723,0.08256902545690536,0.05674262344837189,0.11224117875099182,0.01911153830587864,-0.03838028758764267,0.08289751410484314,-0.06138550490140915,0.008793594315648079,0.09676343947649002,0.12459813058376312,0.09743063151836395,0.13072910904884338,-0.09574001282453537,0.12410561740398407,0.050313204526901245,-0.13995808362960815,0.12829500436782837,-0.09304626286029816,-0.06839096546173096,-0.12061714380979538,0.16425161063671112,0.06292463093996048,-0.04427957534790039,0.030267465859651566,0.12272834777832031,-0.05562170222401619,0.027185974642634392,-0.09553253650665283,0.0471545048058033,-0.05175017565488815,-0.04190518707036972,0.012777401134371758,-0.18580612540245056,-0.18753741681575775,-0.08486872911453247,0.040408987551927567,0.1611659973859787,-0.030155954882502556,-0.10866346955299377,-0.1427864134311676,0.04008780047297478,0.09219156205654144,0.10669725388288498,0.22080962359905243,-0.07477975636720657,0.00360313942655921,0.10213775187730789,-0.028347473591566086,0.174429252743721,0.14522862434387207,-0.1653931885957718,0.18497610092163086,-0.13304007053375244,-0.052306123077869415,0.16895996034145355,-0.04179438203573227,-0.12496618926525116,-0.012056687846779823,-0.10320818424224854,0.027700060978531837,-0.07459603995084763,-0.054373472929000854,-0.09448771923780441,0.12050430476665497,0.015661349520087242,0.127848282456398,0.038068439811468124,-0.07137298583984375,-0.14926783740520477,-0.07169264554977417,0.039986662566661835,-0.10624123364686966,-0.05740373209118843,0.00885680690407753,0.09475743025541306,0.04461386799812317,0.08189336955547333,-0.04585786163806915,0.06413137912750244,-0.027814796194434166,-0.12130092829465866,-0.2044748067855835,-0.04716617614030838,0.058371108025312424,0.02506653033196926,0.10315146297216415,-0.09696776419878006,-0.04490436241030693,-0.19829903542995453,0.08065663278102875,0.0842694640159607,0.1589076966047287,-0.06034541130065918,0.13702718913555145,0.08743616193532944,0.16238908469676971,0.021588774397969246,0.05235143378376961,-0.3205246031284332,0.00055906199850142,0.15488332509994507,0.034065037965774536,0.07291891425848007,0.19068028032779694,0.04471785947680473,0.012504147365689278,-0.20333470404148102,0.15895187854766846,-0.016143668442964554,0.029154404997825623,-0.4229276180267334,0.1567627191543579,-0.045382726937532425,0.18244799971580505,-0.08929073065519333,-0.04555663838982582,-0.18200239539146423,0.13836045563220978,-0.066628597676754,0.07549422234296799,-0.0822230726480484,-0.14595603942871094,-0.0569913387298584,-0.000521044188644737,0.11524937301874161,-0.04745267704129219,-0.06809266656637192,-0.033798325806856155,0.12036696076393127,-0.03186230733990669,0.07291949540376663,0.10297740995883942,0.09699572622776031,0.09685470908880234,0.0603584460914135,0.06969064474105835,0.061673279851675034,0.13529400527477264,0.013181072659790516,-0.1627170741558075,-0.04532809183001518,-0.03888824209570885,-0.01532326452434063,0.0984257310628891,0.09496907889842987,0.01553857047110796,0.08278993517160416,0.07514845579862595,-0.0037873960100114346,-0.0828135684132576,0.06164635345339775,-0.1289318948984146,0.02830732986330986,0.11212683469057083,0.13070818781852722,0.05141310393810272,0.1467292159795761,0.05080418288707733,0.1880284547805786,-0.1184709444642067,-0.03708381950855255,-0.06767702847719193,-0.05274311825633049,-0.013555830344557762,-0.041347768157720566,-0.06698302924633026,0.06579191982746124,0.0922294557094574,0.14217840135097504,0.09999031573534012,0.04794320464134216,-0.09611181169748306,-0.02509116567671299,-0.13460981845855713,-0.09231436997652054,-0.16534791886806488,-0.15254615247249603,-0.006405515596270561,0.007458413951098919,0.044673360884189606,0.1655658483505249,-0.01850866712629795,0.09305056929588318,-0.19977158308029175,-0.04115075245499611,0.08354271948337555,0.0403175987303257,-0.017782406881451607,-0.0811748281121254,-0.04245808720588684,-0.09310910850763321,0.12058781087398529,-0.10069626569747925,-0.10704357177019119,-0.2275049388408661,0.00934586301445961,-0.1342080682516098,-0.09041783213615417,-0.10357910394668579,0.06417883187532425,0.08247161656618118,-0.035787466913461685,-0.23006007075309753,0.16259005665779114,0.10436007380485535,-0.0914967879652977,-0.10802754759788513,0.09117837995290756,0.020000174641609192,0.17858757078647614,0.16301202774047852,0.038217734545469284,-0.10270100831985474,0.0452810563147068,-0.10930363833904266,-0.06692672520875931,-0.007535685785114765,-0.1392359435558319,-0.02070239745080471,0.11866719275712967,-0.07460270822048187,0.09462578594684601,-0.026358051225543022,0.13604871928691864,-0.10138218849897385,-0.04518631845712662,0.11285272240638733,-0.0813838541507721,-0.0583391971886158,0.15863870084285736,0.0765857994556427,0.19095399975776672,0.02323351427912712,0.003402504837140441,-0.06406821310520172,-0.1274186670780182,0.059110578149557114,-0.0052444469183683395,0.03612947091460228,0.15022814273834229,0.10147950798273087,0.05790350213646889,0.17133371531963348,-0.03855548053979874,-0.07034040987491608,0.010614858940243721,-0.08593953400850296,0.12826262414455414,0.06122337281703949,0.015704559162259102,0.05167984589934349,-0.05269181355834007,0.16328448057174683,-0.048616278916597366,-0.07353291660547256,-0.12525805830955505,0.12322618812322617,0.12009792029857635,-0.016711199656128883,0.07506794482469559,0.16382314264774323,-0.00964649673551321,-0.03459000587463379,0.0045697251334786415,0.0704839751124382,0.08103955537080765,0.12160638719797134,-0.16193325817584991,0.1482163667678833,-0.09295395761728287,0.060812558978796005,0.014251591637730598,-0.11940270662307739,-0.08008420467376709,0.05231225863099098,0.11745195090770721,0.0918431505560875,-0.07202164828777313,-0.039306849241256714,-0.12403783202171326,-0.15602107346057892,-0.1095704734325409,0.015664758160710335,0.16561006009578705,0.04043295979499817,-0.07309205830097198,0.041878726333379745,0.055008526891469955,0.16121365129947662,0.03383613005280495,-0.012006166391074657,0.18591518700122833,0.0587693452835083,-0.10216858983039856,-0.09328951686620712,-0.03653492406010628,-0.06674229353666306,-0.10789137333631516,-0.17202764749526978,-0.00012367742601782084,-0.022189756855368614,-0.1196422353386879,-0.1185065358877182,0.10082152485847473,0.0697130486369133,0.05500202625989914,0.16160091757774353,-0.04418681934475899,0.006420493125915527,0.17545035481452942,0.06857451796531677,0.11347954720258713,0.07937214523553848,-0.02026529796421528,-0.032286010682582855,-0.04588242992758751,0.01550107728689909,-0.0664694607257843,0.029092639684677124,0.008891121484339237,-0.17692670226097107,0.011737662367522717,-0.059211183339357376,0.17946390807628632,0.16886013746261597,-0.10176914185285568,-0.08483986556529999,0.022961437702178955,-0.15174663066864014,0.026150114834308624,0.037175778299570084,0.1969406008720398,0.03986288234591484,0.12037855386734009,-0.030896039679646492,0.12944169342517853,0.1364165097475052,0.06696117669343948,-0.18678319454193115,0.1623728722333908,-0.0233268141746521,0.08638156205415726,-0.09704387187957764,0.10628989338874817,0.0295752864331007,-0.11911465972661972,0.02413194067776203,-0.11884644627571106,-0.05391828343272209,0.05128209665417671,-0.16960790753364563,-0.07862246036529541,-0.025045551359653473,-0.030333442613482475,-0.0357901006937027,0.16485320031642914,0.0755147859454155,0.08094804733991623,-0.18810810148715973,-0.01873735710978508,0.028206875547766685,-0.1699833869934082,-0.3446381986141205,0.020397404208779335,0.023283571004867554,0.7365990281105042,0.20541810989379883,-0.1916712373495102,0.07135389745235443,-0.06883928924798965,0.0036434829235076904,0.2601584792137146,-0.19075793027877808,0.13658128678798676,-0.29530254006385803,-0.6847845315933228,-0.020037883892655373,1.0504051446914673,0.5112943649291992,-0.39575979113578796,-0.025683704763650894,0.23840661346912384,-0.17211462557315826,-0.07924632728099823,-0.20958852767944336,-0.005747209768742323,0.0023912163451313972,0.043862633407115936,0.09356211125850677,-0.11579328030347824,-0.02621902897953987,0.11135588586330414,0.0028885898645967245,-0.18019114434719086,-0.0679846704006195,0.48208463191986084,0.5013006329536438,0.7568018436431885,0.008054358884692192,0.3739470839500427,0.06751362234354019,-0.3874633014202118,-0.22169463336467743,0.16583244502544403,-0.019429944455623627,0.18330004811286926,-0.047472938895225525,-0.2201642394065857,-0.052114877849817276,-0.06412507593631744,0.08842259645462036,0.028237948194146156,0.032365310937166214,-0.025674408301711082,0.13229021430015564,0.11271805316209793,-0.028498731553554535,0.09433049708604813,0.03418661653995514,0.08098721504211426,-0.012884065508842468,0.1430387943983078,-0.11945498734712601,-0.012564786709845066,0.15327328443527222,-0.062456510961055756,0.08221995085477829,-0.12597249448299408,-0.10341894626617432,0.15600067377090454,0.04437633976340294,-0.1038094311952591,0.05544978380203247,0.0863291546702385,-0.0980202928185463,-0.06193259358406067,-0.03857174143195152,0.1048346757888794,-0.09642495214939117,0.052173346281051636,-0.030020950362086296,0.04433165118098259,0.19468335807323456,0.08947782963514328,-0.21044760942459106,0.014384043402969837,-0.058762047439813614,-0.15876412391662598,-0.11726254969835281,0.05182972177863121,0.04845506325364113,-0.06874476373195648,0.0051455129869282246,-0.08223596960306168,0.06845902651548386,0.020074129104614258,-0.10217180103063583,0.21373353898525238,0.15788337588310242,-0.15869872272014618,0.13738639652729034,-0.16346095502376556,0.05346135422587395,-0.15708281099796295,0.08582092821598053,0.08372259885072708,-0.19871997833251953,-0.019472992047667503,-0.10755809396505356,0.08125580847263336,0.0558641292154789,-0.17602668702602386,0.07877392321825027,-0.003666108939796686,0.03919782117009163,0.06003796309232712,-0.06704840809106827,0.016143087297677994,0.08381333202123642,0.1383408159017563,-0.06559295952320099,0.1058254987001419,0.0074549163691699505,0.08298342674970627,-0.17475154995918274,0.10470208525657654,0.13797278702259064,0.07548188418149948,-0.04439704120159149,0.12807299196720123,-0.049151211977005005,0.035247597843408585,0.11011634767055511,-0.07306910306215286,-0.06823841482400894,0.12455207109451294,-0.15258221328258514,0.026596669107675552,-0.056338272988796234,-0.09344445168972015,0.02033550851047039,0.06648719310760498,0.07849349826574326,-0.06506906449794769,-0.009009324014186859,-0.10345645248889923,-0.18944773077964783,-0.039898451417684555,-0.03284928947687149,-0.09986009448766708,0.05947496369481087,0.08452527970075607,0.17427577078342438,0.1858314573764801,0.04580949246883392,0.001570926047861576,-0.06437759101390839,0.03095482662320137,0.034290727227926254,0.0236873310059309,0.0424145944416523,-0.005942740943282843,-0.012775888666510582,0.014667225070297718,0.04979000240564346,-0.11911647766828537,0.1325225979089737,0.013047258369624615,0.0008412431925535202,0.018772585317492485,0.08251064270734787,-0.04674911126494408,0.10793888568878174,0.09388995915651321,-0.0634203851222992,0.1690530776977539,0.013389481231570244,0.1561434268951416,0.21464872360229492,-0.03105134516954422,0.21818965673446655,0.1108873188495636,0.10959730297327042,-0.02217249572277069,0.11743716150522232,0.02107529528439045,0.11469627916812897,0.035497669130563736,0.042451161891222,0.017113760113716125,0.022396057844161987,0.11056321859359741,-0.00043324753642082214,0.12749361991882324,-0.7218137383460999,-0.818425714969635,-0.6523581743240356,0.194627046585083,-0.3012174069881439,1.1706745624542236,-0.5664427876472473,0.7745907306671143,-0.9359750747680664,-0.12774118781089783,0.15123727917671204,0.16963817179203033,-0.785700261592865,-0.47356316447257996,-1.082741141319275,-0.9840067625045776,0.5922554731369019,-0.5460167527198792,0.511938214302063,1.0824426412582397,-0.5191187858581543,-0.5091978907585144,0.4354808032512665,-0.11293022334575653,-1.14751136302948,0.7207315564155579,0.627755343914032,-0.44307973980903625,0.49845945835113525,0.019269641488790512,0.5085803270339966,0.31593239307403564,0.057981327176094055,0.18313156068325043,0.24042107164859772,-0.055338054895401,-1.4926806688308716,0.7058401703834534,1.0824593305587769,-0.8921054601669312,-0.537228524684906,-0.4527924954891205,-1.2245441675186157,0.8943777680397034,1.04762601852417,-0.2533232569694519,-0.5800477266311646,0.236074298620224,0.04529360309243202,0.03266951069235802,-0.02188749611377716,-0.08146277070045471,-0.1790216565132141,0.017923997715115547,-0.0020369677804410458,-0.16599984467029572,-0.09686624258756638,0.08578535914421082,-0.0223420150578022,0.05788542330265045,-0.04968591406941414,-0.19792011380195618,0.050303295254707336,0.10998629778623581,-0.015966784209012985,0.14273299276828766,-0.1726849526166916,-0.07534316182136536,-0.0173930786550045,-0.06489276885986328,0.08166295289993286,0.04091830551624298,-0.1103772222995758,0.14870451390743256,0.04048566520214081,0.05874887481331825,-0.11044876277446747,0.062127646058797836,-0.04729593172669411,-0.06674712151288986,-0.03777008876204491,0.14866837859153748,-0.06520343571901321,-0.024793950840830803,-0.15256847441196442,0.04512619227170944,0.05742482841014862,0.033097028732299805,0.09208104014396667,-0.03692251816391945,0.03356858342885971,0.030823932960629463,0.013870167545974255,0.08922586590051651,0.003848044900223613,-0.1499548852443695,-0.13261137902736664,0.04937400668859482,-0.030522018671035767,-0.0823165774345398,0.04317452013492584,0.14581388235092163,0.10677564889192581,0.007211743388324976,0.016763966530561447,-0.0036561544984579086,-0.03659847751259804,0.25310835242271423,-0.009759116917848587,0.20969665050506592,0.05083341896533966,-0.23252855241298676,0.02432430535554886,-0.2728647291660309,-0.04581894725561142,0.044604528695344925,0.0632348284125328,0.0012315716594457626,0.09731965512037277,0.05435917526483536,0.39042767882347107,-0.130580335855484,-0.0034116944298148155,-0.07385270297527313,0.04207248240709305,0.08203548192977905,-0.0007057600887492299,-0.0790271982550621,0.26986920833587646,0.07065770775079727,0.03251419961452484,0.3413022756576538,0.2601681351661682,-0.11568798869848251,0.15033136308193207,-0.2146589607000351,0.28898221254348755,0.17105454206466675,0.11748438328504562,-0.05522066727280617,0.08984477072954178,-0.041860923171043396,0.18952576816082,0.03389441967010498,-0.05664559453725815,-0.010066868737339973,-0.018950283527374268,-0.023278173059225082,-0.09622369706630707,-0.04535812884569168,0.008262627758085728,0.03557342290878296,0.11188696324825287,0.0857042521238327,-0.088022381067276,-0.014489248394966125,0.014593304134905338,-0.10328216105699539,-0.12281312793493271,-0.09779176861047745,0.055129751563072205,-0.03607610985636711,-0.09218385815620422,-0.027005592361092567,-0.011871659196913242,0.045466456562280655,-0.12127287685871124,0.09228107333183289,0.13467679917812347,-0.12543721497058868,0.13084855675697327,-0.01932038553059101,0.12197065353393555,0.032124005258083344,0.0359744131565094,0.14416815340518951,0.08000336587429047,0.03839315101504326,0.09980382025241852,0.13741640746593475,-0.05827360972762108,0.02986360341310501,-0.07348335534334183,0.026562364771962166,0.07856464385986328,0.10999846458435059,0.07055104523897171,0.033961765468120575,0.12395080178976059,-0.0021831118501722813,0.07396260648965836,-0.06990760564804077,-0.10356729477643967,-0.020683985203504562,0.05143142491579056,0.06673817336559296,-0.13946983218193054,-0.032664328813552856,0.01068238727748394,-0.09180372953414917,-0.1417650282382965,0.12687693536281586,0.10772593319416046,-0.1106872633099556,-0.11595871299505234,0.08314825594425201,0.014371986500918865,-0.05628185719251633,0.1426839530467987,0.08630488812923431,-0.05429210141301155,-0.13787662982940674,-0.02382218837738037,-0.02219310589134693,0.14226219058036804,0.12028144299983978,-0.15449561178684235,-0.018132634460926056,-0.13004586100578308,0.07495754212141037,0.013557511381804943,0.019579604268074036,-0.0970812514424324,-0.11636869609355927,-0.04018451273441315,-0.14795534312725067,-0.13018077611923218,-0.15375930070877075,-0.13993102312088013,0.08794573694467545,-0.13410834968090057,0.11757264286279678,0.13483750820159912,0.102359339594841,0.10412382334470749,-0.009377204813063145,-0.15181374549865723,-0.015985438600182533,-0.06136004626750946,0.10849516093730927,0.022285595536231995,0.023792702704668045,-0.009537427686154842,-0.011662439443171024,0.04711088910698891,0.0477868877351284,0.057594142854213715,0.1717500388622284,0.07735584676265717,0.046778783202171326,-0.032056212425231934,0.14617955684661865,-0.09910447895526886,0.20624670386314392,-0.13322117924690247,-0.06795970350503922,-0.10685543715953827,0.014927763491868973,0.11973361670970917,-0.12210480868816376,0.18851034343242645,0.0016163346590474248,0.040674224495887756,-0.03532394394278526,0.19882197678089142,0.10721796751022339,-0.0197325199842453,-0.09351219981908798,0.034646518528461456,-0.06438108533620834,0.07442189753055573,-0.03287756070494652,0.25805991888046265,0.10700644552707672,-0.017732378095388412,0.1702549010515213,0.24597901105880737,-0.06315373629331589,0.1623205542564392,-0.09135761857032776,0.031997084617614746,0.15110470354557037,0.09192191064357758,-0.04906441643834114,0.011308840475976467,0.042790476232767105,0.16160665452480316,0.17621497809886932,-0.0712226927280426,0.13108137249946594,-0.1496635228395462,0.006837922148406506,0.04071053862571716,-0.05351483076810837,0.09781968593597412,-0.07762391120195389,0.0955827608704567,-0.04013316333293915,0.0651591345667839,0.0928918644785881,0.10071887820959091,0.011933200061321259,9.191595017910004e-05,0.10736042261123657,-0.06438849121332169,-0.13713183999061584,-0.023871909826993942,0.02155514433979988,0.015364550054073334,-0.0407654233276844,0.0364900678396225,0.12186989933252335,0.2194737046957016,-0.07562785595655441,-0.003955294378101826,0.013196847401559353,0.12526999413967133,0.1450769007205963,-0.005486173555254936,-0.05933155119419098,0.1295303851366043,-0.045501288026571274,0.06125841662287712,0.12254729866981506,0.22182218730449677,-0.0910021960735321,0.10878775268793106,0.021825339645147324,-0.02688237652182579,0.022513538599014282,0.0970679298043251,-0.16147565841674805,0.1775663197040558,0.12897489964962006,0.1334056556224823,0.05333767458796501,0.03767305240035057,-0.028225043788552284,-0.04132711887359619,0.11298911273479462,-0.016179244965314865,-0.0854284018278122,0.04544522240757942,-0.017606860026717186,-0.1287221610546112,-0.07383326441049576,0.09922264516353607,-0.11981531977653503,0.08797252923250198,-0.057634249329566956,0.11067955940961838,-0.015322228893637657,-0.1078328788280487,-0.12151776254177094,0.009995204396545887,0.09102135896682739,-0.08552795648574829,-0.027651861310005188,-0.11001910269260406,-0.027830826118588448,-0.1442500203847885,-0.08479896187782288,-0.12430238723754883,-0.08335781842470169,-0.1242610514163971,-0.1451074331998825,-0.0198323056101799,0.09656666219234467,0.08580219745635986,0.005146604031324387,0.01034917775541544,0.12302138656377792,0.08639790117740631,0.12474110722541809,-0.15090535581111908,-0.029703950509428978,-0.0630008801817894,0.01181213092058897,-0.09666961431503296,-0.011617394164204597,-0.04272047057747841,0.09278051555156708,-0.046254705637693405,-0.0647212490439415,0.15185147523880005,-0.15062135457992554,-0.01877620257437229,-0.13472262024879456,-0.03209976106882095,0.07990322262048721,0.035797830671072006,-0.15327776968479156,0.023779800161719322,0.18982017040252686,-0.028935058042407036,-0.10346706211566925,-0.14857684075832367,-0.20348577201366425,-0.02998572215437889,-0.08904295414686203,0.056906115263700485,0.07134565711021423,-0.0018844600999727845,-0.02450062334537506,-0.054529499262571335,0.06279610842466354,0.11868633329868317,-0.0599079504609108,-0.11964821070432663,0.08776407688856125,0.06189177930355072,0.14237967133522034,0.14304569363594055,-0.10013678669929504,-0.07103786617517471,0.010465768165886402,0.01999080739915371,0.003961977083235979,-0.05129272863268852,0.1263328641653061,-0.041265711188316345,-0.013450577855110168,-0.05774408206343651,0.1483141928911209,0.029863126575946808,0.04211030900478363,-0.10204774141311646,0.026214802637696266,-0.079988494515419,-0.039528004825115204,0.07087384909391403,0.006082514766603708,0.24534721672534943,-0.25791651010513306,0.04035743325948715,-0.09619083255529404,0.003710181685164571,-0.18364836275577545,0.08489515632390976,-0.07081708312034607,-0.3972037732601166,0.14121957123279572,0.038726139813661575,0.01394873857498169,0.03991728276014328,-0.08382228016853333,-0.1578608602285385,-0.04837583750486374,0.14289945363998413,0.27365827560424805,-0.029894506558775902,0.3936108946800232,-0.13387255370616913,0.021304883062839508,0.07023580372333527,0.06316334754228592,-0.6069807410240173,0.10121650993824005,-0.018156198784708977,0.09855932742357254,-0.06554630398750305,0.017857467755675316,0.02492838352918625,-0.022740740329027176,-0.37313568592071533,0.24393397569656372,-0.08728747814893723,-0.38654443621635437,-0.9528047442436218,0.12405487895011902,-0.010888313874602318,0.121945820748806,-0.0776095986366272,0.00969497486948967,-0.630757749080658,0.23279781639575958,-0.10984143614768982,0.2074308693408966,-0.035064369440078735,-0.01797788217663765,-0.04509696364402771,0.00860739778727293,-0.09239571541547775,-0.020914902910590172,-0.08605771511793137,0.03411434218287468,0.06643761694431305,0.1753903329372406,-0.022510623559355736,-0.035966984927654266,-0.08539503812789917,0.1525275558233261,0.11661802977323532,0.12296470254659653,-0.09772633016109467,0.14093205332756042,-0.07312090694904327,-0.193231001496315,0.13451239466667175,0.13359634578227997,-0.086385078728199,-0.135870099067688,0.010632036253809929,-0.017530186101794243,0.06270335614681244,0.06602046638727188,0.10696396231651306,-0.024127241224050522,0.06986245512962341,0.08417120575904846,0.062069348990917206,-0.0994194895029068,0.16887035965919495,-0.060978323221206665,0.0670875683426857,0.0972757488489151,0.0810065045952797,-0.06500924378633499,0.14828214049339294,0.0429188571870327,0.03213784098625183,-0.006204655393958092,-0.08271612972021103,0.04680589586496353,0.06967096030712128,0.12627826631069183,0.09530000388622284,0.0898255854845047,-0.10407628864049911,-0.045155372470617294,0.003978729248046875,-0.10033970326185226,0.11694253236055374,0.10492203384637833,0.10173524916172028,0.06556093692779541,0.20392732322216034,0.020552242174744606,0.05972621589899063,-0.04892240837216377,-0.07796875387430191,0.028786323964595795,-0.06648702174425125,0.04062911495566368,-0.07375463843345642,-0.2094404548406601,-0.03631821274757385,0.021382665261626244,0.023854559287428856,0.07102131098508835,0.04252355918288231,0.16473570466041565,0.21455977857112885,0.09475121647119522,0.016995007172226906,-0.015732744708657265,0.07896244525909424,-0.062956303358078,0.0542411170899868,-0.05774814635515213,0.029347732663154602,-0.0903012678027153,0.034594133496284485,0.09975424408912659,0.11416414380073547,-0.14630885422229767,0.2303876280784607,-0.1059657409787178,0.021040217950940132,-0.016946332529187202,0.06737630069255829,-0.08227913081645966,0.19026364386081696,0.16837845742702484,0.0724802315235138,0.161856546998024,0.08085355162620544,0.1171334832906723,-0.11815807223320007,0.03884496912360191,-0.086858831346035,0.05808573216199875,0.18209347128868103,0.1785978078842163,0.17926406860351562,0.06753966212272644,-0.08249746263027191,0.09252089262008667,-0.09080494195222855,0.06874987483024597,-0.012236803770065308,0.11895908415317535,0.13729959726333618,-0.1339387446641922,-0.015440302900969982,0.11003810912370682,-0.05813056603074074,-0.11879675835371017,-0.09817516803741455,-0.009132183156907558,0.07753228396177292,-0.030625225976109505,-0.004625446163117886,0.15476848185062408,0.16558334231376648,0.1220133826136589,-0.04927169531583786,0.10705255717039108,0.07097132503986359,0.16124624013900757,-0.013144565746188164,0.11469758301973343,0.13161610066890717,-0.12076364457607269,0.09534082561731339,-0.10561303794384003,0.1145746111869812,0.11784249544143677,-0.04988974332809448,-0.012093749828636646,0.0594823956489563,-0.01634037308394909,-0.06009823828935623,0.1801244169473648,-0.11530674993991852,-0.07006791234016418,-0.06252902001142502,0.05360591411590576,0.12630465626716614,-0.07834576815366745,0.0970979854464531,0.0644945502281189,-0.06783469021320343,-0.039272282272577286,-0.10120347142219543,-0.09639570116996765,0.024774976074695587,-0.07626120001077652,-0.08382558822631836,0.009536574594676495,0.13625526428222656,0.06722751259803772,-0.05919395014643669,0.0642147809267044,0.08403594046831131,-0.009604902006685734,-0.022747857496142387,-0.133230522274971,0.042327623814344406,-0.00851396657526493,-0.04090283811092377,-0.011151100508868694,-0.08185657858848572,-0.08024429529905319,0.012665636837482452,0.010640719905495644,0.045209240168333054,0.10161569714546204,-0.07769809663295746,0.04952084645628929,-0.07205698639154434,-0.14211200177669525,-0.006318783387541771,-0.015223563648760319,-0.021327756345272064,-0.05893490090966225,-0.04450349137187004,0.12162206321954727,-0.08832729607820511,0.08628930151462555,-0.11747544258832932,0.05495000258088112,-0.0012848915066570044,0.13889238238334656,-0.20878712832927704,0.05617018789052963,-0.09699084609746933,-0.1233471930027008,0.04488047957420349,0.09571236371994019,-0.04865046218037605,0.007627920247614384,0.034455642104148865,0.06079784780740738,-0.06877438724040985,0.08709096163511276,-0.12607869505882263,0.10234645009040833,0.20520742237567902,0.010733240284025669,-0.07892917841672897,0.29006874561309814,-0.023788614198565483,0.06832665205001831,-0.00886890385299921,0.005487036891281605,-0.010291792452335358,-0.09396301954984665,0.010666350834071636,-0.11131966859102249,-0.1303122490644455,-0.04994684085249901,-0.08399340510368347,0.20839326083660126,0.1661321520805359,-0.05560183897614479,-0.10502909123897552,-0.1681661456823349,-0.12740325927734375,-0.09413933753967285,0.21060438454151154,-0.15113846957683563,-0.00865174364298582,-0.028683330863714218,-0.08094175159931183,-0.06503638625144958,-0.07064152508974075,-0.07333246618509293,-0.06899116188287735,0.16215616464614868,0.12752696871757507,-0.10996019095182419,0.11764097213745117,0.043705053627491,-0.07863815128803253,0.11529610306024551,0.014569301158189774,-0.09056854993104935,-0.11295783519744873,-0.029589487239718437,-0.10415349900722504,-0.1282050907611847,-0.09258636087179184,-0.06389664858579636,-0.06443669646978378,-0.10243329405784607,-0.0592467300593853,0.08649972081184387,0.07035170495510101,0.047904424369335175,-0.052892979234457016,0.0008876838837750256,0.045995134860277176,0.003238196950405836,-0.1346488893032074,0.08852256834506989,0.014109354466199875,-0.06397802382707596,0.09778925776481628,-0.01808839663863182,0.016224263235926628,-0.06811226904392242,0.006120570469647646,-0.12024389952421188,0.010505842976272106,-0.04635069891810417,0.06176261976361275,0.11333025991916656,0.04507380723953247,-0.11187341809272766,-0.029001010581851006,-0.09653383493423462,0.03198742866516113,-0.14012201130390167,-0.010012824088335037,0.07897397875785828,-0.06995169073343277,0.10861977189779282,0.11419729143381119,0.12413263320922852,-0.09724228829145432,2.905559813370928e-05,0.02483086660504341,-0.00042482424760237336,0.0665154904127121,0.07960929721593857,0.11066512018442154,-0.02882402576506138,0.047563809901475906,0.056685466319322586,-0.11953485757112503,-0.10926326364278793,0.11751498281955719,-0.1536969542503357,-0.1867808848619461,-0.14703701436519623,0.1085997074842453,-0.07109664380550385,-0.011537238024175167,0.0906716138124466,-0.11184996366500854,-0.03325105458498001,0.01065659336745739,-0.03822561353445053,0.10103030502796173,0.005209058057516813,-0.0055958884768188,-0.04360191151499748,0.05448988452553749,0.010996823199093342,0.0663638487458229,-0.14064805209636688,0.06748688966035843,-0.08541961759328842,0.0742601752281189,-0.017606887966394424,-0.14398255944252014,0.08948046714067459,-0.043478503823280334,0.018381234258413315,0.00632009282708168,0.16051723062992096,-0.09860759973526001,-0.04297150298953056,0.07808659970760345,-0.07821889966726303,0.07664624601602554,0.07582320272922516,0.06629154831171036,0.10902531445026398,-0.03457687422633171,0.13420218229293823,-0.14653253555297852,0.053937457501888275,-0.004136256407946348,-0.1493726670742035,0.016454597935080528,-0.10672810673713684,0.058395348489284515,0.02225538156926632,-0.06200559809803963,0.08419843763113022,-0.11950242519378662,0.11682835966348648,-0.05218591168522835,0.048882387578487396,-0.003339956048876047,-0.05764397606253624,-0.11550441384315491,0.06632331758737564,-0.14284324645996094,0.010738723911345005,0.040073033422231674,0.005471724551171064,-0.08522170037031174,-0.11714135110378265,0.09024916589260101,0.09845508635044098,0.12028564512729645,0.08494486659765244,-0.020269479602575302,-0.09935641288757324,0.11753365397453308,-0.07883013039827347,-0.05666801705956459,-0.14049898087978363,0.06476417928934097,0.11039039492607117,-0.020564774051308632,-0.07384330034255981,0.10376974940299988,0.1344081610441208,-0.04038400202989578,0.13480441272258759,-0.10671602189540863,-0.13842439651489258,-0.013142676092684269,-0.001760409097187221,0.16079770028591156,0.05366532877087593,-0.09421874582767487,-0.07731982320547104,0.010610383935272694,-0.12877024710178375,0.14634926617145538,-0.12926806509494781,0.06654694676399231,-0.06440237909555435,-0.1117822602391243,-0.36528536677360535,0.23057331144809723,1.282502293586731,0.09490246325731277,-0.08293577283620834,-0.009755377657711506,-0.036621782928705215,-0.049970731139183044,0.08585799485445023,0.10823109745979309,0.16929154098033905,0.014681459404528141,0.09111030399799347,-0.04163571074604988,-0.15062008798122406,0.11033408343791962,-0.017538361251354218,0.10249193757772446,-0.003963681869208813,0.07616308331489563,-0.07178964465856552,-0.12349800020456314,-0.0855475664138794,0.05665646120905876,-0.1700466275215149,0.04655853286385536,-0.08272038400173187,0.09519553929567337,0.12565277516841888,-0.10419950634241104,0.04459353908896446,0.1402738392353058,-0.1483008861541748,0.104868583381176,-0.12623026967048645,0.093703992664814,0.08106884360313416,0.049761198461055756,-0.09932372719049454,-0.07823527604341507,0.14380285143852234,-0.11371368914842606,-0.04514066129922867,-0.07285002619028091,-0.11702171713113785,-0.11373990029096603,0.031528573483228683,-0.1301795244216919,-0.023145465180277824,0.1023058220744133,0.0868322029709816,0.11614780128002167,-0.09024494141340256,-0.10128482431173325,-0.14214378595352173,-0.03164054453372955,-0.07644093781709671,0.009175820276141167,-0.10995122045278549,0.1250547468662262,-0.07451920956373215,0.04761398583650589,-0.04549137130379677,0.03372980281710625,0.11424634605646133,-0.03880832716822624,0.021920744329690933,0.034592438489198685,0.023123707622289658,0.1092783510684967,0.1295052319765091,-0.04757222905755043,-0.1119004338979721,0.12286388128995895,0.11851325631141663,-0.12341246753931046,-0.07702343165874481,-0.1058223694562912,-0.02740723080933094,0.08989628404378891,-0.13552014529705048,0.10455770045518875,-0.059932634234428406,0.04053453728556633,0.07160213589668274,0.08084248751401901,-0.08206448704004288,-0.08096010982990265,0.0977926030755043,0.09723253548145294,0.05963144451379776,-0.0060784462839365005,-0.05170569196343422,0.06491751223802567,-0.11497315764427185,0.03709084540605545,-0.12892372906208038,0.13821043074131012,-0.06241794675588608,0.08823197335004807,-0.06945164501667023,-0.10957100987434387,0.1303531527519226,0.14225389063358307,0.09661572426557541,0.053757164627313614,-0.008459998294711113,0.023957565426826477,-0.07623960822820663,0.13952824473381042,0.12529867887496948,0.06435153633356094,0.08481134474277496,0.008079661056399345,-0.07793861627578735,-0.08007081598043442,0.04884111508727074,-0.14098462462425232,0.06812755763530731,-0.020933017134666443,0.036499492824077606,0.004774879664182663,-0.12800754606723785,-0.07871340215206146,-0.0574684701859951,0.07565177232027054,0.10503118485212326,0.010254360735416412,0.09917409718036652,-0.4996204674243927,0.15757274627685547,-0.5630735754966736,0.09186394512653351,0.005153106525540352,-0.40339308977127075,-0.2316359430551529,0.44198113679885864,0.12500785291194916,0.07817092537879944,-0.19466987252235413,-0.0932270810008049,-1.0176122188568115,0.4757092297077179,-1.0103358030319214,0.6928040981292725,-0.3465173840522766,-1.1396658420562744,0.02312045730650425,0.4346047341823578,0.33003541827201843,0.11697264015674591,-0.4402408301830292,0.25901561975479126,0.2756962478160858,-0.34314411878585815,0.6823300123214722,0.1288212537765503,-0.30555635690689087,0.019747046753764153,0.08683056384325027,0.8889220952987671,0.7635263800621033,-0.18302036821842194,-0.7469311952590942,0.146631121635437,0.4539368748664856,-0.5731518864631653,1.0422513484954834,0.3786166310310364,-0.40296870470046997,0.251036137342453,0.09049849957227707,-0.23099324107170105,0.43893149495124817,0.6359806656837463,0.1493411809206009,0.594985842704773,-0.05619703233242035,0.10111779719591141,-0.19878607988357544,0.08731138706207275,0.008873723447322845,0.04101088270545006,-0.06423427164554596,0.008465578779578209,0.1547863483428955,0.03460181504487991,-0.08208923041820526,-0.00471489829942584,0.029019556939601898,0.00245176674798131,-0.03064383752644062,-0.09703778475522995,0.08286671340465546,-0.26868489384651184,0.04732275754213333,0.11318973451852798,0.06234394386410713,0.08064547181129456,-0.02001778408885002,0.1119159460067749,0.2688375413417816,0.0839114859700203,0.010311266407370567,0.10122606158256531,0.0019567266572266817,0.1763853132724762,0.07840780913829803,-0.02260262332856655,0.06959538906812668,-0.09421907365322113,-0.04347001388669014,0.15193891525268555,0.3385992646217346,-0.08147552609443665,0.020542675629258156,-0.13585682213306427,0.10944279283285141,-0.008460675366222858,0.21956562995910645,-0.040915414690971375,0.04142050817608833,-0.053267188370227814,0.08364062011241913,0.05633107200264931,-0.02447589486837387,-0.04193805530667305,0.01020120270550251,-0.1715494692325592,-0.14400863647460938,-0.05455382168292999,0.0718914121389389,-0.13791099190711975,-0.06329591572284698,-0.033735744655132294,0.12564748525619507,0.08013839274644852,-0.12080912292003632,-0.12019156664609909,0.04111367464065552,-0.06581751257181168,0.11328564584255219,0.23541288077831268,-0.08361075073480606,0.03292587772011757,-0.1712017059326172,-0.014437736943364143,-0.07968846708536148,0.009357697330415249,-0.1452873945236206,0.15680067241191864,-0.06432221829891205,-0.02221549302339554,0.04094182327389717,-0.12276549637317657,0.06683667004108429,-0.04129733145236969,0.009140968322753906,-0.02493000030517578,0.06426923722028732,0.03965770825743675,-0.14233346283435822,0.1497034877538681,-0.061115849763154984,0.038271695375442505,0.12957604229450226,0.04404980689287186,-0.1349123865365982,0.1439012736082077,0.020996036008000374,-0.065395787358284,-0.02835701033473015,0.00747132720425725,0.04794454574584961,0.01011581253260374,-0.06062755361199379,-0.12355906516313553,-0.007771773729473352,-0.18133164942264557,-0.17568370699882507,-0.0111343152821064,-0.22042396664619446,0.1963261514902115,0.029366206377744675,-0.11410030722618103,-0.0563056655228138,-0.04287511482834816,0.043828703463077545,-0.03536810353398323,0.1772795170545578,0.14373481273651123,-0.11860695481300354,0.14744403958320618,-0.16575294733047485,-0.043597668409347534,0.03091188706457615,0.14281506836414337,-0.12349291890859604,0.00907892920076847,0.09668873995542526,-0.009232163429260254,0.14570462703704834,-0.035397808998823166,0.06749526411294937,0.02989571914076805,0.0016781433951109648,0.08877012133598328,0.058838509023189545,-0.07562733441591263,-0.11794505268335342,0.16681505739688873,0.006162965204566717,-0.015150044113397598,-0.11185634881258011,-0.07461848855018616,-0.22638094425201416,0.035039979964494705,-0.16679465770721436,-0.03649675473570824,0.09544435143470764,-0.12793917953968048,0.09852803498506546,0.0183778814971447,0.10621527582406998,0.1374903917312622,0.04340819641947746,-0.08066578954458237,0.19301435351371765,0.07155251502990723,0.12564150989055634,0.0463966466486454,0.04384978488087654,0.10478201508522034,0.2740764319896698,-0.003230438567698002,-0.07403215765953064,-0.1147724986076355,0.14472828805446625,-0.11513455212116241,0.1734531819820404,0.1590949147939682,-0.029336515814065933,-0.06863284856081009,-0.10304471105337143,-0.027233434841036797,0.174054816365242,-0.11440849304199219,0.07151118665933609,-0.043687671422958374,0.00342915509827435,0.03314671665430069,0.14346706867218018,0.055866580456495285,-0.027876611799001694,-0.01750662736594677,0.060185424983501434,0.012354947626590729,0.07523802667856216,0.019399072974920273,-0.044726643711328506,-0.058017127215862274,0.05453905090689659,-0.03561120852828026,-0.03816128149628639,0.04000527411699295,0.09610803425312042,-0.0019912216812372208,-0.08063069730997086,0.008221609517931938,0.10802148282527924,-0.09595615416765213,0.1494751274585724,0.12364379316568375,-0.0505150705575943,0.022232841700315475,-0.12602877616882324,-0.10005789995193481,-0.12943264842033386,0.12008143216371536,-0.08889225125312805,-0.13355034589767456,0.027105506509542465,0.15555529296398163,0.01597144454717636,-0.12780840694904327,-0.12983167171478271,0.014717569574713707,0.06664284318685532,-0.09300905466079712,-0.039611682295799255,0.06298920512199402,0.05347992852330208,-0.11133193224668503,0.05302109941840172,0.08876661211252213,0.1277480572462082,-0.08915906399488449,0.12939022481441498,-0.046591296792030334,-0.03729870170354843,-0.06636946648359299,-0.0804908499121666,-0.027332279831171036,-0.1303701400756836,-0.08885180950164795,-0.1418112814426422,0.12942977249622345,0.019758202135562897,0.10814548283815384,-0.08524075150489807,0.08155298233032227,0.043744996190071106,-0.07414807379245758,-0.021549439057707787,-0.1428748071193695,-0.15002189576625824,0.055824968963861465,0.03029521368443966,0.0393410325050354,0.10985465347766876,-0.12046442925930023,0.043742917478084564,-0.19680234789848328,-0.11846454441547394,-0.13847531378269196,-0.19321320950984955,0.11144709587097168,0.11779533326625824,-0.1299159675836563,-0.0016334076644852757,-0.1521121859550476,-0.10193232446908951,-0.10349549353122711,0.048551592975854874,0.011927691288292408,-0.1614154875278473,-0.021273845806717873,-9.22113104024902e-05,0.16009701788425446,0.017787940800189972,0.006562994793057442,-0.1114121749997139,-0.09118285030126572,-0.09453299641609192,0.009367238730192184,0.011519710533320904,0.0420023649930954,-0.07872885465621948,-0.1273217797279358,-0.11487700045108795,0.05302738398313522,-0.027460947632789612,-0.05939057469367981,-0.30046066641807556,0.07428363710641861,0.1302424669265747,0.1957271546125412,0.12349743396043777,0.05479743331670761,-0.062479984015226364,0.19746628403663635,-0.009353063069283962,-0.13083118200302124,0.12821610271930695,-0.0768701359629631,-0.09616552293300629,0.06291399151086807,-0.027817117050290108,-0.018591279163956642,0.006385630462318659,0.13507789373397827,0.08453109115362167,0.03317524492740631,-0.004477526061236858,-0.04978559911251068,0.07744516432285309,0.091817207634449,0.09214156866073608,0.1714785248041153,-0.09632206708192825,-0.11481258273124695,-0.022759953513741493,-0.12604491412639618,0.08097437024116516,0.1275796890258789,-0.022657087072730064,0.10128264874219894,-0.040048450231552124,0.02105376124382019,0.23730425536632538,-0.17745143175125122,0.11902467161417007,0.12087565660476685,0.008355910889804363,0.1363612413406372,0.13483619689941406,0.06128142774105072,0.02979174815118313,0.06724768877029419,0.10126367211341858,0.003073590574786067,0.21813495457172394,0.06923553347587585,0.20142513513565063,-0.1504468470811844,0.14061029255390167,0.04881053417921066,0.1693335324525833,-0.17176984250545502,0.10969670861959457,-0.05340973287820816,0.15954025089740753,0.20641550421714783,-0.11409183591604233,0.051760610193014145,-0.14480648934841156,-0.12165586650371552,0.08877021074295044,-0.12872210144996643,0.17718467116355896,0.14407660067081451,0.02239403873682022,0.09576088190078735,-0.020059628412127495,0.069617860019207,-0.11848602443933487,0.1669534593820572,0.10099821537733078,0.12039259821176529,-0.07904434949159622,-0.15096014738082886,0.026934253051877022,0.017036613076925278,-0.02230001613497734,0.13734258711338043,-0.08236253261566162,0.030727535486221313,0.05580706149339676,0.02720634452998638,-0.07870163023471832,0.04340080916881561,0.001545092323794961,-0.0312664732336998,0.1526753008365631,-0.11515816301107407,0.19725875556468964,0.07342339307069778,0.09573197364807129,0.06421905010938644,-0.04868434742093086,-0.06687558442354202,0.07920536398887634,0.028514297679066658,-0.04473893716931343,0.08756013959646225,-0.08106126636266708,0.013293980620801449,-0.051879435777664185,0.07624530047178268,0.07698461413383484,0.1499587744474411,-0.023643022403120995,-0.1889592558145523,0.10697408765554428,0.003980301786214113,-0.11121761798858643,0.016954245045781136,0.05477704852819443,-0.18246568739414215,-0.0679839476943016,0.07162807881832123,0.08819554001092911,0.0265104491263628,0.08645901083946228,-0.06297213584184647,-0.0934862345457077,0.016152149066329002,-0.06199663132429123,-0.028026795014739037,-0.07822872698307037,-0.15666015446186066,-0.09847334027290344,0.061205122619867325,-0.09055154770612717,-0.03859054669737816,-0.12716078758239746,0.18773692846298218,-0.13017354905605316,0.13470937311649323,-0.12126386910676956,-0.046861227601766586,-0.07037202268838882,-0.00874087493866682,-0.15164132416248322,-0.12117760628461838,-0.11331207305192947,0.08084499835968018,0.06363416463136673,-0.09428694099187851,-0.15907056629657745,-0.00865519605576992,0.10271387547254562,0.13458316028118134,0.09619969129562378,-0.031962502747774124,0.008310031145811081,0.06050123646855354,0.05186992883682251,0.021957552060484886,0.09140458703041077,0.035121142864227295,-0.009959434159100056,-0.120234414935112,-0.117116779088974,0.03249572962522507,0.05762021243572235,-0.14998461306095123,0.033155348151922226,-0.02354622073471546,-0.11244773119688034,-0.11576149612665176,0.06921500712633133,0.13083575665950775,0.09029366821050644,-0.10238020867109299,0.023642659187316895,-0.03263336420059204,0.12511178851127625,0.009541227482259274,0.10612043738365173,0.11500966548919678,0.052361391484737396,0.0074211666360497475,0.09628742933273315,-0.08462479710578918,0.02065075747668743,-0.13326162099838257,-0.10355447232723236,-0.12963654100894928,0.12601497769355774,0.031029820442199707,-0.15505190193653107,-0.06492865085601807,-0.07904237508773804,0.051877837628126144,-0.05037497729063034,-0.11659932881593704,-0.08345683664083481,0.05866392329335213,0.02492874301970005,-0.08233596384525299,0.11415870487689972,-0.04542487487196922,-0.029872113838791847,0.07983941584825516,-0.14375761151313782,0.08508853614330292,-0.061650846153497696,-0.05296071246266365,0.02471195161342621,-0.002505585318431258,-0.04133269563317299,-0.06683745980262756,0.1489945650100708,-0.002912983763962984,0.1185898706316948,-0.12889155745506287,-0.020148223266005516,-0.012932098470628262,0.05180015787482262,0.2054549902677536,-0.12516121566295624,0.0663251280784607,-0.05439535528421402,-0.027833038941025734,0.006746640428900719,0.014811440370976925,0.14050057530403137,-0.040074970573186874,-0.042449481785297394,0.04464435577392578,0.08473782986402512,-0.060153938829898834,0.09927933663129807,0.07808391749858856,0.0674595981836319,0.0021109404042363167,0.17829878628253937,0.10695813596248627,0.2173416167497635,0.01871160790324211,0.19028528034687042,0.057776227593421936,0.30744099617004395,-0.10623715817928314,0.1798950880765915,-0.16557183861732483,-0.07912280410528183,0.14202190935611725,0.08381552249193192,0.008859659545123577,0.081312395632267,0.13303600251674652,0.09693367034196854,0.16030335426330566,-0.11497568339109421,0.07869944721460342,-0.03477326035499573,-0.04911903664469719,0.046708472073078156,0.15174153447151184,0.06868503987789154,0.054453928023576736,-0.0581272691488266,0.11367704719305038,-0.07915154099464417,-0.12005726248025894,0.15538963675498962,0.07586832344532013,0.060943130403757095,-0.0144259724766016,-0.014189623296260834,-0.10026980191469193,-0.057955339550971985,0.004194062668830156,0.07832399755716324,-0.03950173407793045,-0.02212470769882202,-0.09539787471294403,0.043529052287340164,-0.12928184866905212,0.04795405641198158,0.07971605658531189,-0.10542245954275131,0.12771211564540863,-0.09898094832897186,0.049802325665950775,0.061609938740730286,0.07903977483510971,0.04430650919675827,-0.10310640186071396,-0.08883268386125565,0.0028192447498440742,-0.13740164041519165,-0.14012637734413147,0.025171251967549324,0.003679282031953335,-0.03128625079989433,0.005420288536697626,0.09160075336694717,0.10025589913129807,0.05688776820898056,-0.15511031448841095,-0.223830908536911,0.038632988929748535,0.2750965356826782,-0.05545296519994736,0.08329731225967407,-0.0240744911134243,0.0019412399269640446,-0.023391731083393097,0.09938772767782211,-0.049387477338314056,-0.03613882139325142,0.1235167384147644,-0.13260610401630402,0.15660405158996582,0.06186578795313835,-0.22673751413822174,-0.04538693651556969,-0.21464063227176666,-0.03318610042333603,-0.4388987720012665,0.11601925641298294,0.06737054139375687,0.1717768758535385,0.00025894417194649577,0.511762797832489,-0.06475187838077545,0.20628812909126282,-0.0393870547413826,0.09582653641700745,-0.05064426735043526,-0.027683200314641,-0.012430881150066853,0.5660172700881958,-0.02877204492688179,-0.04118894040584564,0.37716975808143616,0.530595600605011,0.0802302286028862,0.19213013350963593,-0.037856653332710266,0.2091648131608963,0.16557717323303223,0.15837451815605164,-0.012070209719240665,0.7166150212287903,-0.11617415398359299,-0.05940104275941849,0.11778194457292557,-0.05159316211938858,0.09021643549203873,0.06757447123527527,0.14144879579544067,-0.06472685933113098,-0.05680669844150543,-0.02839653007686138,0.05532326549291611,-0.07768483459949493,0.07875638455152512,0.07985541224479675,0.07800503075122833,-0.022268859669566154,0.07517103105783463,0.05544054135680199,-0.01931130141019821,-0.08397002518177032,-0.051276784390211105,-0.08889811486005783,-0.05323566868901253,0.04533256217837334,0.056144773960113525,-0.1419782191514969,-0.10674180835485458,-0.1045021340250969,0.06918953359127045,0.00031970752752386034,-0.06997040659189224,0.1190093532204628,-0.0017586948815733194,0.107466921210289,0.11578705161809921,-0.053804174065589905,0.03230024501681328,-0.038210589438676834,0.09794557094573975,-0.10283456742763519,0.03968082740902901,0.08143888413906097,-0.015704551711678505,-0.030559919774532318,0.09065427631139755,0.07480677962303162,-0.010248323902487755,-0.052780166268348694,-0.014699077233672142,-0.0885607898235321,-0.10030906647443771,-0.004686063155531883,0.0063734534196555614,0.11245278269052505,0.15923719108104706,-0.02310895174741745,0.10231605172157288,0.11975349485874176,-0.04633694514632225,0.014174765907227993,-0.1590805947780609,0.10470282286405563,0.10381617397069931,-0.03950568661093712,0.10104978084564209,0.04010861739516258,0.007067165803164244,-0.12693922221660614,-0.028099268674850464,-0.05366786941885948,-0.12184447795152664,-0.010262918658554554,0.08636204153299332,-0.09346076846122742,0.028670592233538628,0.048712294548749924,-0.05688982829451561,0.09642551839351654,0.08083333820104599,-0.12629473209381104,0.10507047921419144,-0.14931945502758026,0.029386138543486595,-0.1461820751428604,0.11780495196580887,0.03718689829111099,-0.11074844747781754,-0.13179104030132294,0.01727069541811943,0.010999232530593872,-0.07772265374660492,-0.16040447354316711,-0.15603885054588318,0.054080940783023834,0.1438693106174469,-0.02616279013454914,-0.08018368482589722,-0.0887327641248703,0.06639664620161057,-0.004010457079857588,0.06123081222176552,-0.09370515495538712,-0.1371912956237793,-0.1594347506761551,-0.0629291981458664,-0.1522693634033203,-0.07354019582271576,-0.1923295557498932,0.043210357427597046,0.029664143919944763,-0.003222094848752022,0.01091788150370121,-0.1551094800233841,0.008471163921058178,0.007955232635140419,0.10345639288425446,0.01379606407135725,-0.16124996542930603,0.045977458357810974,-0.13410909473896027,0.16360190510749817,-0.02650841884315014,0.06048623472452164,-0.13646036386489868,0.13705120980739594,0.09324036538600922,-0.05804823711514473,-0.06771194934844971,-0.0190924983471632,-0.06510984152555466,-0.07708317041397095,-0.10070569813251495,0.005437296815216541,0.015417760238051414,0.09869151562452316,-0.16417275369167328,-0.011932623572647572,0.008628956973552704,-0.033851709216833115,0.0020115007646381855,0.033989161252975464,-0.12975431978702545,-0.018242888152599335,-0.049052439630031586,-0.05281917750835419,-0.0055619217455387115,-0.10851865261793137,-0.10354098677635193,0.10564544051885605,-0.17615170776844025,0.027488136664032936,0.08200700581073761,-0.0070490422658622265,0.107962965965271,0.1041557714343071,0.06844598799943924,0.01794448308646679,0.05264681205153465,0.08486773818731308,0.15632785856723785,0.030255118384957314,-0.0036808731965720654,-0.08310799300670624,0.1153116300702095,-0.2135169953107834,0.10376036912202835,-0.09286907315254211,0.041551511734724045,-0.009833780117332935,0.12500420212745667,-0.013017273508012295,0.2597108781337738,0.004212943837046623,0.011223364621400833,-0.043372225016355515,0.19400453567504883,-0.012699421495199203,0.17638666927814484,-0.07413704693317413,0.28740787506103516,0.12750542163848877,0.1045105829834938,0.12395095080137253,0.46958208084106445,-0.1546342521905899,-0.02257501147687435,-0.009848948568105698,0.11571040004491806,-0.06519608944654465,0.1702646166086197,-0.07317016273736954,0.0199035182595253,-0.06404785811901093,-0.052330344915390015,0.14234036207199097,-0.04244393855333328,-0.059969354420900345,0.04398059844970703,0.0730208307504654,0.05351012572646141,0.07755250483751297,-0.04792935028672218,0.05472596362233162,-0.045593392103910446,0.02051449567079544,0.17793461680412292,-0.041682202368974686,-0.06159653887152672,0.20654726028442383,0.033462509512901306,0.12172656506299973,-0.02699761651456356,-0.06729019433259964,0.09074508398771286,-0.027263721451163292,-0.07526998221874237,0.009741122834384441,0.1697743833065033,0.18259644508361816,0.1007779911160469,-0.015167186968028545,0.06875116378068924,-0.08454359322786331,0.1413477510213852,0.05367925390601158,-0.07189497351646423,0.0024822659324854612,0.04514479637145996,5.296430754242465e-05,0.12694935500621796,-0.027168573811650276,0.0013091772561892867,-0.1843634992837906,0.016988927498459816,0.0378810353577137,0.1049005389213562,0.0063474285416305065,0.16728612780570984,-0.1669476330280304,0.18970100581645966,0.008894474245607853,0.04827481880784035,0.1770632416009903,0.1365649402141571,-0.030994560569524765,-0.10240235924720764,0.03223476931452751,-0.08250131458044052,0.0025638833176344633,-0.018687762320041656,-0.08923884481191635,0.11038526147603989,0.10191603004932404,-0.12968476116657257,-0.15727472305297852,0.0698692724108696,0.03913797065615654,-0.04644806310534477,0.016151467338204384,-0.028344422578811646,-0.11456803977489471,-0.09749272465705872,-0.0026513179764151573,-0.07481993734836578,-0.003321937983855605,-0.029509544372558594,0.057964976876974106,-0.09191994369029999,0.09836146980524063,0.04815080016851425,0.027035757899284363,-0.13123628497123718,0.07019205391407013,0.12330417335033417,0.04205051437020302,-0.11058823764324188,-0.1373382955789566,-0.07155023515224457,-0.04278610646724701,-0.010856082662940025,0.09274140000343323,-0.08739829063415527,-0.04227045923471451,-0.0972210019826889,-0.1373482346534729,0.12447724491357803,0.04540715739130974,-0.005610078573226929,0.012711912393569946,-0.09369784593582153,-0.04298608377575874,-0.11461961269378662,0.06649858504533768,-0.13508836925029755,0.03149130567908287,-0.020659280940890312,0.12252185493707657,0.11989407241344452,-0.09336818009614944,0.1745585799217224,-0.11536339670419693,0.079097680747509,0.050586361438035965,-0.050247471779584885,0.05286242812871933,0.03851291164755821,-0.11548327654600143,-0.2576627731323242,-0.08930537104606628,-0.06523244827985764,0.0550304614007473,0.03439701348543167,0.0006090310052968562,0.13290709257125854,-0.03669636324048042,0.06757918000221252,0.11226703226566315,0.10377366840839386,-0.12714259326457977,0.06838179379701614,0.06542777270078659,-0.030584344640374184,0.12567557394504547,-0.08683457225561142,-0.05391356721520424,0.24278603494167328,0.16596587002277374,0.14762823283672333,0.120574451982975,-0.06659505516290665,0.022095030173659325,0.06805330514907837,-0.13688011467456818,0.1555541604757309,0.008364031091332436,-0.08070185780525208,-0.027252011001110077,0.16504819691181183,-0.15338361263275146,0.17523278295993805,-0.026871871203184128,-0.02656136080622673,-0.08508419245481491,0.06251099705696106,-0.0030572600662708282,0.038090258836746216,-0.03651322424411774,-0.06346377730369568,0.19844691455364227,0.09991847723722458,0.048566535115242004,-0.07816673815250397,-0.20889143645763397,-0.11638572067022324,-0.1125064417719841,0.016487013548612595,-0.06403578072786331,-0.017404379323124886,-0.03141411021351814,-0.03926264867186546,-0.012206879444420338,0.1751234382390976,0.04462797939777374,-0.29353591799736023,0.1587018370628357,0.05631169676780701,0.13738523423671722,0.06682148575782776,0.013644203543663025,-0.14322954416275024,0.005280042067170143,-0.002616334008052945,0.1705435961484909,0.15724509954452515,-0.02447027526795864,-0.10791364312171936,-0.04486698657274246,0.02010698802769184,-0.040270619094371796,-0.002361059421673417,-0.0567513145506382,-0.27138370275497437,-0.06601027399301529,-0.16226708889007568,-0.034539155662059784,-0.009653405286371708,-0.14354299008846283,-0.15759757161140442,0.08911024034023285,0.11956494301557541,-0.05399980768561363,-0.0011586983455345035,0.1637912094593048,0.11640431731939316,-0.07774265110492706,0.13792914152145386,-0.009415832348167896,-0.00794785562902689,0.07263842970132828,-0.1668342649936676,0.05041384696960449,-0.07738056033849716,-0.22544336318969727,-0.1756771206855774,-0.07105515897274017,0.13220149278640747,0.016393354162573814,-0.06360089033842087,0.14246760308742523,-0.040621016174554825,0.05407083034515381,0.04510624706745148,0.05594385415315628,-0.08764903247356415,0.06373003870248795,-0.013373722322285175,-0.026926949620246887,0.13325779139995575,-0.0664026066660881,0.13112865388393402,-0.07766322791576385,-0.01742233708500862,0.39425182342529297,0.10291874408721924,-0.10231605917215347,-0.05117177590727806,-0.07342503219842911,0.15556161105632782,0.03631582111120224,0.1118737980723381,-0.041242487728595734,0.4217293858528137,-0.017098018899559975,0.007128648925572634,0.1704985648393631,-0.8240232467651367,-0.4721929132938385,0.14264407753944397,0.7614182829856873,-0.12492639571428299,-1.3707753419876099,0.3543974459171295,0.4837646782398224,0.17828437685966492,-0.9766133427619934,-0.16678734123706818,-0.20262029767036438,-1.1528874635696411,-1.3703802824020386,0.9681534171104431,0.37473493814468384,-0.7270811200141907,-0.6807699799537659,1.1957939863204956,1.3253499269485474,0.3022754192352295,-1.172805905342102,0.2196432203054428,1.0530434846878052,-1.0783833265304565,-0.2805316150188446,-0.6347184181213379,-1.3530023097991943,-0.4899881184101105,0.9656391739845276,-0.746312141418457,0.8307775855064392,-2.062110424041748,-0.7502328157424927,0.15646710991859436,0.6321493983268738,-1.2600682973861694,0.61037677526474,-1.1771154403686523,-0.17359094321727753,1.2942650318145752,0.6133294701576233,-1.4207159280776978,-0.12720438838005066,-1.3881038427352905,-1.444370985031128,0.6450149416923523,0.3752051889896393,0.23675505816936493,-0.04711924120783806,-0.17560149729251862,-0.016540683805942535,-0.07520201802253723,-0.08672744035720825,-0.04772438481450081,0.07747393846511841,-0.31257131695747375,0.06417538970708847,0.1772538721561432,-0.04445084556937218,-0.03916437178850174,-0.1499205380678177,-0.4578295052051544,0.04270825535058975,0.017605846747756004,0.21569512784481049,0.004716698080301285,0.3411969244480133,-0.09472786635160446,0.13230375945568085,0.14096061885356903,0.11117123812437057,-0.6357554793357849,0.16713105142116547,-0.13743922114372253,-0.023291951045393944,0.005453379359096289,0.08853504061698914,-0.16705714166164398,0.054048001766204834,-0.35439878702163696,0.23828305304050446,0.07440724223852158,-0.35128992795944214,-0.8393402099609375,0.1824282705783844,-0.15059702098369598,0.2623484432697296,0.017341002821922302,0.13600261509418488,-0.4355984032154083,0.13595691323280334,-0.1832992434501648,0.2743636965751648,0.0008427692227996886,-0.2649409770965576,-0.1426420956850052,0.15821294486522675,-0.1751452088356018,0.08891486376523972,0.04808206856250763,0.14985711872577667,0.02120221219956875,0.030109671875834465,0.16792866587638855,0.03649945184588432,0.05501621216535568,0.11959242820739746,-0.1967163234949112,0.14857736229896545,-0.11001594364643097,-0.00395476957783103,-0.4504547715187073,-0.20348617434501648,-0.1012653335928917,-0.025593673810362816,-0.007486127316951752,0.08246561884880066,-0.10798329859972,0.08346071094274521,0.18974246084690094,-0.07608173787593842,-0.02051069773733616,0.09063604474067688,-0.038195595145225525,-0.08869225531816483,-0.07462091743946075,0.007284195628017187,0.057771842926740646,0.14740300178527832,-0.06640210002660751,0.0935315191745758,0.029980666935443878,0.04137197881937027,-0.011821038089692593,0.029681315645575523,0.11087290197610855,0.05470062792301178,0.08145985752344131,0.05901942402124405,0.03288053721189499,0.12017673999071121,0.02084112912416458,0.025102252140641212,-0.1435142606496811,0.18012061715126038,-0.06303215771913528,0.1408178061246872,0.016185760498046875,0.14029493927955627,0.09257141500711441,0.06912662088871002,0.10586843639612198,0.11876657605171204,0.055041179060935974,0.1712007075548172,-0.06258296966552734,0.11350318044424057,0.02645806595683098,0.11770597100257874,-0.06946609169244766,-0.2060629278421402,0.18201081454753876,-0.043478917330503464,0.1210445985198021,0.05728735774755478,-0.052300624549388885,0.13360805809497833,0.08531724661588669,-0.0083055654540658,-0.04506971314549446,-0.04299449548125267,0.10999587178230286,-0.06670904159545898,0.15449096262454987,0.1617770493030548,-0.024731328710913658,0.1424722969532013,0.10385297983884811,0.1380029171705246,0.12340079993009567,0.021505072712898254,0.10005757957696915,0.02032315358519554,-0.1162668839097023,-0.05521519482135773,0.04500119760632515,0.08611439913511276,0.0963582769036293,0.04859410598874092,0.11690554022789001,0.09038176387548447,1.8475741147994995,0.36986449360847473,-0.46195128560066223,0.17565999925136566,-0.07781130820512772,-0.46657994389533997,-0.0630120187997818,-0.3709036707878113,-2.095046043395996,-0.10112861543893814,-0.33133143186569214,0.36416903138160706,1.2594159841537476,-1.030505895614624,-1.0576303005218506,1.083057165145874,0.8234819769859314,0.734355092048645,-1.2431937456130981,0.3502141237258911,-1.9768120050430298,-0.6068962216377258,-0.6387571692466736,0.6081936359405518,0.12662726640701294,-0.5391649603843689,0.3574165105819702,-0.5818673372268677,-0.47513943910598755,0.5832025408744812,-0.5938301682472229,-0.9977017045021057,-1.930896282196045,0.37330031394958496,1.3866103887557983,0.36269229650497437,0.5913737416267395,-0.3199591338634491,1.135655403137207,-0.4392237663269043,-0.6582739353179932,0.20419539511203766,0.1657775342464447,-0.37699639797210693,-0.2612355649471283,-0.7488124370574951,-1.081318974494934,-1.1672241687774658,-0.07560794800519943,-0.19871582090854645,-0.012381651438772678,0.031290940940380096,-0.09457281231880188,0.07260554283857346,0.0597713440656662,0.010461002588272095,-0.08065631985664368,-0.04449371248483658,0.05807311832904816,0.09674147516489029,-0.017556972801685333,-0.022669412195682526,0.06973084807395935,0.1341446340084076,0.10910443961620331,0.02110329456627369,-0.10663256794214249,0.00676561426371336,-0.18509037792682648,-0.03456268832087517,0.02210867963731289,0.1443503201007843,-0.2095067948102951,0.0099549051374197,0.09806273877620697,0.06352216750383377,-0.06108491122722626,0.0428009107708931,-0.16084712743759155,-0.05864208564162254,-0.0279138945043087,0.17737603187561035,-0.10664291679859161,-0.02248452790081501,-0.20532210171222687,0.1616194099187851,-0.05662941932678223,0.19773004949092865,0.03613364323973656,0.1490490734577179,-0.17648012936115265,0.10144199430942535,-0.07080533355474472,0.09281040728092194,-0.11128773540258408,-0.15245860815048218,0.03557635471224785,0.03049432300031185,0.0918063223361969,0.10718294978141785,-0.14160983264446259,-0.015129461884498596,-0.03235726058483124,-0.04935843124985695,0.056725457310676575,0.1512322872877121,0.042336978018283844,0.12632979452610016,0.06298524886369705,0.060564491897821426,0.10121557116508484,-0.11971864104270935,0.07605025917291641,0.05055798590183258,0.11050064116716385,-0.06735235452651978,0.04463566839694977,-0.006487290374934673,-0.11081229895353317,0.10974274575710297,-0.10151543468236923,0.14917679131031036,-0.0946907326579094,0.05744639039039612,0.13046453893184662,-0.003217648481950164,-0.16981761157512665,-0.05285832658410072,0.009485584683716297,-0.06612139195203781,0.026081833988428116,0.07275357097387314,-0.1438077986240387,-0.046887271106243134,-0.01957145519554615,0.06621459871530533,0.06670339405536652,-0.054736409336328506,0.09451974928379059,0.07426377385854721,-0.05940501019358635,0.06053301692008972,0.04358246922492981,-0.11757548898458481,-0.10067791491746902,0.14351791143417358,0.031835831701755524,0.07350490242242813,0.12041334062814713,0.10223228484392166,-0.09035447984933853,0.10480967909097672,0.10218369215726852,0.09858929365873337,0.1191684678196907,0.11930637061595917,-0.10366924107074738,-0.034206781536340714,0.04734716936945915,0.009610038250684738,-0.21194182336330414,-0.0713186115026474,0.10001342743635178,-0.012514104135334492,0.015584363602101803,0.0981031134724617,-0.1077299639582634,0.09245394915342331,-0.04009300470352173,-0.10184413939714432,0.06623245030641556,0.04437251761555672,0.03326932340860367,-0.01825869455933571,-0.0026658892165869474,-0.02113734371960163,0.20259176194667816,-0.09592461585998535,-0.1560717672109604,-0.06045961007475853,0.18360094726085663,-0.0829598680138588,0.12477318197488785,0.08959855884313583,-0.01767033524811268,0.10529372096061707,0.04880300164222717,-0.13244573771953583,0.18592201173305511,0.10628156363964081,0.11278888583183289,-0.0239640474319458,-0.031188610941171646,-0.08029631525278091,-0.07289506494998932,-0.1033804640173912,-0.11016204953193665,-0.16107511520385742,-0.059388063848018646,-0.18587829172611237,-0.1173819750547409,0.0989898294210434,-0.0825849249958992,0.07674666494131088,-0.07669977843761444,-0.0945403054356575,0.07542520016431808,-0.04320191219449043,-0.04685196653008461,0.07034554332494736,-0.09945223480463028,0.047518372535705566,-0.030025385320186615,0.12532147765159607,0.10183592140674591,0.02020033448934555,-0.12547719478607178,0.1034858450293541,0.07257698476314545,-0.10697314888238907,-0.12180951237678528,0.09457910060882568,0.0606754831969738,-0.1472209244966507,0.05937740206718445,-0.05751651152968407,-0.00562650291249156,0.05434441193938255,-0.09688832610845566,-0.07442251592874527,-0.16723676025867462,0.14628572762012482,0.06437122076749802,-0.014043929055333138,-0.015688002109527588,0.06272702664136887,-0.10681083798408508,0.05740838497877121,0.0006674878532066941,0.0016355442348867655,-0.028249189257621765,0.0678299143910408,-0.04555380716919899,0.009780802763998508,0.1364709734916687,-0.22088557481765747,-0.17475111782550812,0.07676324248313904,0.06838478147983551,0.15880753099918365,0.17666296660900116,-0.11358405649662018,-0.43839403986930847,-0.051633577793836594,-0.01494516059756279,0.11339463293552399,-0.6646237373352051,0.28692522644996643,-0.02588081732392311,-0.06999202817678452,0.016251686960458755,0.04847893491387367,0.025876088067889214,-0.1841052770614624,-0.05814754217863083,-0.042372334748506546,0.12753339111804962,-0.013373060151934624,0.02319718897342682,-0.002238437533378601,0.11611562222242355,0.0805216133594513,0.11800795048475266,0.05055995285511017,-0.29642346501350403,-0.0351896770298481,0.23898234963417053,-0.06814905256032944,0.18039454519748688,0.010090023279190063,-0.07253701984882355,-0.1958393007516861,0.09145703166723251,-0.17094478011131287,-0.013899454846978188,-0.12411932647228241,0.1298644244670868,0.010448751039803028,-0.04519682005047798,-0.058721840381622314,0.09693969041109085,-0.10917297750711441,-0.16432850062847137,-0.08412446826696396,0.10544444620609283,-0.12388192117214203,-0.004395933821797371,0.07160826027393341,0.05846318230032921,-0.09176447242498398,-0.08669642359018326,-0.020603979006409645,-0.14194627106189728,0.09927669167518616,0.074390709400177,-0.00904112495481968,-0.13654695451259613,-0.09402594715356827,-0.059417687356472015,0.13625448942184448,-0.06250027567148209,0.06847310811281204,-0.14667825400829315,0.04946193844079971,-0.02760009467601776,0.06868060678243637,0.03103776089847088,0.003966116812080145,-0.1408582180738449,-0.15025988221168518,0.08516259491443634,0.07488112151622772,0.05415283143520355,-0.1627272069454193,-0.12009438127279282,0.13721062242984772,-0.03721509873867035,-0.04465490207076073,-0.05937528610229492,0.12264581024646759,-0.02095947600901127,0.11639051139354706,0.024556823074817657,0.09448415040969849,0.006609202828258276,0.03355701267719269,0.017929045483469963,-0.04761194810271263,-0.12180928885936737,-0.06733627617359161,0.13317161798477173,-0.01597771793603897,-0.1421586126089096,-0.056006915867328644,0.09925954043865204,-0.010165720246732235,-0.14512813091278076,0.07398006319999695,-0.0022255287040024996,-0.006094274111092091,-0.006538109853863716,0.081006720662117,-0.04541827738285065,-0.03335780277848244,0.03904020041227341,-0.027064329013228416,-0.10421136021614075,0.004399382509291172,-0.03440634533762932,-0.041241154074668884,-0.1260010004043579,-0.04203159362077713,0.11946723610162735,-0.05778510123491287,0.05913016200065613,-0.08313010632991791,0.12334839999675751,-0.04251263663172722,-0.10722177475690842,-0.1205124631524086,-0.06137080863118172,-0.10690003633499146,-0.11820150911808014,-0.039018940180540085,0.06122906133532524,0.12183567136526108,-0.015143751166760921,-0.10391255468130112,0.05959560349583626,-0.06643854081630707,0.04740576073527336,-0.010255561210215092,-0.022861380130052567,0.05729546397924423,-0.0036431937478482723,0.19635717570781708,0.09453293681144714,-0.10158608108758926,-0.010218716226518154,-0.055446237325668335,-0.06407038867473602,-0.02492341212928295,0.029451124370098114,-0.0285742599517107,0.07040482014417648,0.08075404167175293,-0.00981785450130701,0.17592239379882812,0.07233010232448578,-0.10372144728899002,0.022842535749077797,-0.1345003843307495,-0.03505290299654007,0.015434556640684605,0.21326355636119843,-0.02400912530720234,-0.11046746373176575,0.16936874389648438,0.3967866897583008,0.04312501847743988,0.2587006986141205,0.13847298920154572,0.08638785034418106,-0.018276887014508247,0.04467427730560303,0.1473233699798584,0.2596469223499298,0.027052175253629684,-0.016587648540735245,0.17354707419872284,0.5280061960220337,-0.14128762483596802,0.07616720348596573,-0.18139541149139404,0.15207397937774658,0.06411811709403992,0.2628028392791748,-0.11907103657722473,0.1798078864812851,-0.10575550049543381,0.062384217977523804,0.011737450957298279,0.06245352700352669,-0.21179109811782837,0.126119464635849,-0.1822529435157776,-0.13457274436950684,-0.04659053683280945,0.07538557052612305,-0.061043914407491684,0.06678976118564606,-0.07432561367750168,0.14351819455623627,0.022356104105710983,-0.004529247060418129,-0.16206783056259155,-0.09379894286394119,0.07872597873210907,0.025412052869796753,0.17041249573230743,0.08729363977909088,0.09781447052955627,0.05574505031108856,-0.09031224250793457,-0.09521625190973282,-0.03885595127940178,-0.05432423949241638,0.0005233243573457003,-0.15988540649414062,0.14954198896884918,-0.03749650716781616,-0.0358998142182827,-0.1736481487751007,0.13036614656448364,-0.1974509209394455,0.16658149659633636,0.03038923256099224,-0.16935938596725464,-0.21817438304424286,-0.011983859352767467,-0.00891723670065403,0.0915580689907074,-0.08300548046827316,-0.12929213047027588,0.02356504462659359,0.19118031859397888,0.05518892779946327,-0.07383927702903748,-0.09924417734146118,0.017679546028375626,0.1513582020998001,0.05270979553461075,-0.11002564430236816,-0.06753907352685928,-0.13017456233501434,-0.14077125489711761,-0.10192083567380905,-0.16477788984775543,-0.09860310703516006,0.1207742989063263,0.07676783949136734,-0.11606860160827637,-0.18570329248905182,0.030528774484992027,-0.01698840968310833,0.05500519648194313,0.1340208202600479,0.04809946566820145,-0.04588031768798828,0.08856948465108871,-0.011384089477360249,0.031322505325078964,-0.016998928040266037,-0.07688017189502716,-0.26260122656822205,-0.00257865060120821,0.14016620814800262,0.1997803896665573,-0.037888240069150925,-0.052424222230911255,-0.16568978130817413,0.10428021103143692,-0.14527973532676697,-0.07364383339881897,-0.06826674193143845,-0.18150576949119568,-0.5312100648880005,0.019840430468320847,0.14449816942214966,-0.0024040061980485916,0.010516934096813202,0.02087382785975933,-0.17079073190689087,0.1892154961824417,-0.16444233059883118,0.14258477091789246,0.06892815232276917,0.0327548049390316,-0.18548978865146637,-0.278533935546875,-0.014022390358150005,0.04899587482213974,0.11086086183786392,-0.31021133065223694,-0.0476439967751503,0.261642187833786,-0.03652922809123993,0.07718731462955475,0.08401525020599365,-0.028077445924282074,-1.3717347383499146,0.21495942771434784,-0.1686919629573822,0.39038825035095215,-0.464415580034256,-0.36219048500061035,0.05538810417056084,0.24954885244369507,-0.001253102789632976,0.08907953649759293,-0.18346862494945526,0.021126138046383858,0.09754897654056549,-0.5288065075874329,0.21953630447387695,0.005334831774234772,-0.01189661305397749,-0.010174669325351715,-0.01822105422616005,0.06727030873298645,0.14929041266441345,0.1121518686413765,-0.16520854830741882,0.1558828204870224,0.08864099532365799,-0.34313222765922546,0.13590474426746368,0.16421227157115936,-0.21107518672943115,0.24732671678066254,-0.0806632712483406,-0.2400306910276413,0.030783960595726967,0.2789425253868103,0.18528680503368378,0.2304752767086029,0.06128544732928276,0.09949205815792084,0.021441852673888206,-0.08757057040929794,-0.09543518722057343,0.04978542774915695,0.055277448147535324,0.15352442860603333,-0.03442365676164627,-0.06541029363870621,0.08899175375699997,0.18853698670864105,-0.037832196801900864,0.1104087233543396,0.007868471555411816,0.06300276517868042,-0.15145131945610046,-0.11572446674108505,-0.013069291599094868,0.09388753771781921,0.1387707144021988,-0.05354216322302818,-0.12092046439647675,0.14911647140979767,0.20042796432971954,-0.07480356097221375,0.10526994615793228,-0.03998974338173866,0.004645050503313541,-0.09789621829986572,-0.017444103956222534,0.11014829576015472,0.10583487898111343,-0.07118577510118484,-0.06554655730724335,0.2993278205394745,0.1838206648826599,-0.053530920296907425,0.039076343178749084,0.039343252778053284,0.11915066093206406,0.10264559090137482,0.22586604952812195,-0.025334523990750313,0.215622678399086,0.084245465695858,0.05552505701780319,-0.0026137051172554493,-0.08553913235664368,-0.08197034150362015,-0.08982418477535248,0.006682356353849173,0.12391313165426254,-0.12635749578475952,-0.02834821678698063,-0.15762943029403687,0.08502081781625748,-0.05416637659072876,0.13387733697891235,0.11858771741390228,-0.0024634411092847586,-0.008189805783331394,0.14567410945892334,-0.04296864941716194,0.08584179729223251,0.2232731282711029,0.025435812771320343,-0.13001777231693268,0.04641061648726463,0.0331469289958477,-0.15362367033958435,0.04586414620280266,-0.07005681097507477,-0.002746550366282463,-0.10571777075529099,-0.008260972797870636,0.08451475203037262,0.04172646254301071,-0.0030870039481669664,0.012745624408125877,0.06332916021347046,-0.06323075294494629,0.029745807871222496,-0.15321625769138336,-0.12112458050251007,-0.061897121369838715,-0.12718531489372253,0.021802233532071114,-0.1570451855659485,-0.11675681918859482,0.03389986604452133,-0.08044897019863129,0.07241180539131165,-0.14256198704242706,-0.025737596675753593,0.026839857921004295,-0.14846433699131012,0.2381504774093628,0.02740655280649662,-0.018672099336981773,0.048694171011447906,0.04182211682200432,0.16805057227611542,0.2386709600687027,0.1222505196928978,0.081785187125206,-0.11274737119674683,0.1349545270204544,-0.09748377650976181,0.2864968180656433,-0.0924103707075119,0.06433030962944031,0.008632929064333439,-0.32405930757522583,0.0742783322930336,0.14875230193138123,-0.04871959239244461,-0.06091054156422615,-0.16687212884426117,0.1795121729373932,0.12841211259365082,-0.261788547039032,0.13680848479270935,0.037197839468717575,0.03319209814071655,0.18997451663017273,-0.03100655972957611,0.16228711605072021,0.12945525348186493,-0.011328812688589096,-0.2813624441623688,-0.04736045002937317,-0.08309371024370193,-0.19979111850261688,0.03811902552843094,0.02173025533556938,-0.17215268313884735,0.13334688544273376,-0.057136766612529755,-0.04306664690375328,0.000216166241443716,0.16654984652996063,0.10606295615434647,0.26520147919654846,0.06230643764138222,0.06174193322658539,0.016306649893522263,-0.07667218148708344,-0.014002601616084576,-0.14004437625408173,0.0034381363075226545,0.19744037091732025,0.047277651727199554,0.13294851779937744,0.09647722542285919,-0.04520935192704201,-0.13778938353061676,0.17828917503356934,-0.05209210515022278,-0.04295355826616287,0.11143996566534042,-0.10566170513629913,0.09901587665081024,0.13230085372924805,0.0026304228231310844,-0.07401496171951294,-0.03528540953993797,0.0024985969066619873,0.03866007924079895,-0.03621073439717293,-0.034115854650735855,-0.08388137817382812,0.044876378029584885,-0.07035306096076965,0.06364204734563828,-0.06728130578994751,0.10701349377632141,0.17702990770339966,0.0035110535100102425,0.034506961703300476,0.22261251509189606,-7.703655865043402e-05,0.04914446175098419,-0.05549988895654678,0.04689217731356621,0.11800052970647812,0.17082135379314423,-0.16903986036777496,0.14150656759738922,0.0007366763893514872,0.18378201127052307,0.05644069239497185,-0.045831624418497086,-0.2126157283782959,0.00543226907029748,0.02072623185813427,-0.16025476157665253,-0.2274331897497177,0.08256141096353531,-0.08971365541219711,-0.07372252643108368,0.09519044309854507,-0.02248484641313553,-0.0633208230137825,-0.08953583240509033,-0.05000021681189537,-0.05695483461022377,0.18472646176815033,0.13322658836841583,0.40043237805366516,0.06943953037261963,0.19850242137908936,-0.05318598821759224,-0.10044388473033905,-0.021409466862678528,-0.04560043290257454,-0.08114418387413025,-0.09896369278430939,0.04864559322595596,0.028049001470208168,0.06732488423585892,0.045559972524642944,-0.033684179186820984,0.09376941621303558,-0.2099844217300415,0.11671359837055206,-0.0047845616936683655,-0.11400754749774933,-0.10471537709236145,0.1420843005180359,-0.16242049634456635,0.13430538773536682,0.07887527346611023,-0.10457359999418259,-0.12769414484500885,0.00915425643324852,0.01357172429561615,0.15832312405109406,0.041354741901159286,-0.19639934599399567,0.033927660435438156,0.0847555473446846,-0.06783851236104965,0.027571367099881172,-0.11982583999633789,-0.12820765376091003,0.06498262286186218,0.018908102065324783,0.08501232415437698,0.06662452965974808,-0.09754227101802826,0.03687691688537598,-0.011622983030974865,0.07176584750413895,0.013041761703789234,0.12871628999710083,-0.08233562111854553,0.0038226444739848375,0.03357525169849396,0.12507794797420502,0.17282642424106598,-0.1358596533536911,0.1029520109295845,-0.029452664777636528,-0.06502747535705566,0.07441744953393936,-0.10123845189809799,0.023846765980124474,-0.11523319780826569,0.021485427394509315,0.12187370657920837,0.02774195186793804,0.17497465014457703,-0.0012314787600189447,0.12133847177028656,0.13922952115535736,0.18698419630527496,-0.10916712135076523,-0.10245196521282196,0.0433935672044754,0.06293424963951111,0.027522651478648186,-0.04854930564761162,0.08323080837726593,0.053553737699985504,-0.004737147130072117,0.008554711006581783,0.09814614802598953,-0.1555778980255127,0.06935647130012512,0.028365610167384148,0.16055706143379211,-0.0013950311113148928,-0.07906442880630493,0.0022980778012424707,0.044971417635679245,0.09629076719284058,-0.008375984616577625,-0.05349475517868996,0.19103248417377472,-0.3597564399242401,0.18076211214065552,-0.14221274852752686,0.1046798899769783,-0.3594653308391571,-0.17006006836891174,0.018126966431736946,0.18643255531787872,-0.03617044910788536,0.11089103668928146,-0.126337468624115,0.05993999168276787,0.014840426854789257,-0.08244209736585617,0.20405395328998566,-0.10318838804960251,-0.12221860885620117,-0.0049838596023619175,-0.00679771276190877,-0.04458624869585037,0.17613963782787323,-0.11280807852745056,-0.047885362058877945,-0.12686406075954437,0.1146642342209816,-0.15110427141189575,0.0730774998664856,0.06192552298307419,-0.020448893308639526,-0.021701032295823097,0.16930453479290009,-0.22641955316066742,0.09557226300239563,0.0898345410823822,0.15254318714141846,0.22813189029693604,0.08385347574949265,0.025713004171848297,-0.01474031712859869,0.11863252520561218,-0.09878331422805786,0.12556150555610657,0.030199365690350533,0.10532543063163757,0.09453035891056061,0.09045165032148361,0.01019031647592783,-0.13195601105690002,0.08875901252031326,-0.03741655871272087,0.053098164498806,-0.07307535409927368,-0.022402985021471977,-0.09206177294254303,-0.1357516646385193,-0.11135335266590118,-0.100197434425354,-0.12762640416622162,-0.08221649378538132,0.08696046471595764,-0.1547994315624237,-0.056492459028959274,0.1231403723359108,0.014686912298202515,0.09220859408378601,-0.09358949214220047,0.030124783515930176,0.04097979515790939,-0.051393620669841766,-0.02974330261349678,-0.03310151398181915,-0.12295161932706833,-0.08474297821521759,-0.057176243513822556,0.12017001956701279,0.07759828865528107,-0.09394209831953049,-0.06804188340902328,0.012244515120983124,0.07202349603176117,0.08116595447063446,0.08348377794027328,0.043887391686439514,0.1179116740822792,-0.5838696956634521,0.16554327309131622,-0.07172516733407974,0.4014371931552887,-0.10545557737350464,0.2878936529159546,-0.0794050544500351,-0.19183415174484253,0.27257123589515686,-0.5101342797279358,0.10559152066707611,0.048566900193691254,-0.029734378680586815,0.32861045002937317,-0.03501439094543457,-0.048979051411151886,0.007388242520391941,-0.2274075448513031,0.039885178208351135,-0.5504785776138306,0.2515559494495392,-0.04188421741127968,0.1946837306022644,0.0930032953619957,1.120205044746399,0.23437348008155823,0.14061212539672852,-0.24396437406539917,0.4454687833786011,-0.12786611914634705,0.10270117223262787,-0.11129538714885712,0.6870171427726746,-0.2751700282096863,0.2938344180583954,0.7191157341003418,1.3662264347076416,-0.0578024722635746,0.3231499493122101,-0.42265012860298157,0.493070125579834,0.3623761236667633,0.8696812987327576,0.06318674981594086,0.5249608159065247,-0.305707186460495,0.14017601311206818,0.30110520124435425,0.13809314370155334,-0.10581344366073608,0.08903253823518753,0.07582080364227295,-0.059336211532354355,-0.11954646557569504,0.0404912568628788,-0.11693022400140762,0.06719799339771271,0.15161073207855225,0.09844383597373962,-0.0931960865855217,0.05672420933842659,-0.06953754276037216,-0.10776349157094955,0.07578656077384949,0.09778326004743576,0.09420937299728394,-0.14548218250274658,-0.12587706744670868,-0.10840620845556259,0.11406830698251724,-0.03259630873799324,0.05172712355852127,-0.08573921769857407,0.09316228330135345,-0.146033376455307,-0.08242638409137726,0.10666345804929733,0.11421304196119308,0.002569786738604307,0.0853877142071724,-0.008717061020433903,-0.12698769569396973,0.12832079827785492,-0.15485499799251556,-0.050478316843509674,-0.07669565081596375,-0.08982362598180771,0.07828216254711151,0.034409135580062866,-0.04310620576143265,-0.13011914491653442,0.18201999366283417,-0.09955143928527832,0.0801156684756279,0.05818389356136322,0.05977855250239372,0.08634750545024872,-0.12210135906934738,0.0034296433441340923,0.05843291059136391,-0.12010859698057175,-0.18406878411769867,-0.16983908414840698,0.026102684438228607,-0.07201239466667175,-0.016235118731856346,0.06261569261550903,0.07755549252033234,0.0367497019469738,-0.05710345134139061,-0.10619073361158371,0.1229512020945549,0.12505954504013062,0.09197120368480682,-0.17039887607097626,0.06930551677942276,-0.028739482164382935,-0.0886131152510643,0.042052995413541794,0.05197200924158096,-0.20820724964141846,0.07136781513690948,0.07343856990337372,0.11876732856035233,0.03878774866461754,0.051694851368665695,-0.17308692634105682,-0.0380520336329937,0.0023135629016906023,0.14998093247413635,-0.11825509369373322,-0.036080002784729004,-0.10245325416326523,0.1344453990459442,-0.09092891216278076,0.15811751782894135,0.09643039107322693,-0.02935001812875271,0.06123637035489082,0.07811573147773743,-0.13248087465763092,-0.0050733634270727634,-0.14204727113246918,-0.14679907262325287,-0.017985820770263672,0.09162545204162598,-0.14071190357208252,0.10823357105255127,-0.13270825147628784,0.12377077341079712,-0.032251499593257904,-0.020343706011772156,0.1288101077079773,-0.01411062479019165,-0.12146170437335968,-0.01967748999595642,0.12928125262260437,-0.1413138210773468,0.0027430951595306396,-0.03947550803422928,-0.07546758651733398,0.0798114538192749,-0.03881736844778061,-0.11179260909557343,-0.13217654824256897,0.007013574242591858,-0.03498818725347519,-0.10845845937728882,-0.07141376286745071,0.007171690464019775,0.019900456070899963,0.02137814462184906,-0.08792465925216675,-0.03243732452392578,0.00696149468421936,-0.014678671956062317,0.07484222948551178,-0.06341689825057983,-0.14178523421287537,-0.13659724593162537,0.08416028320789337,-0.068251833319664,-0.005142033100128174,-0.052322208881378174,-0.09393714368343353,-0.06499752402305603,-0.07174615561962128,0.05799546837806702,-0.026534676551818848,-0.08695308864116669,-0.1378328800201416,-0.09593433141708374,-0.021768178790807724,-0.08539699763059616,-0.16741758584976196,-0.056830570101737976,0.06197008118033409,-0.10936861485242844,0.1889122575521469,0.19524706900119781,0.12697221338748932,0.08815225213766098,0.020693814381957054,-0.04240245372056961,0.1382443904876709,-0.021488098427653313,-0.04786784574389458,-0.015797952190041542,0.01326819509267807,0.05747479200363159,-0.04059458523988724,0.07472679018974304,-0.06946877390146255,0.13149820268154144,-0.009988415986299515,0.026625260710716248,0.07776012271642685,-0.17516155540943146,0.03279387578368187,-0.07047423720359802,-0.06339731812477112,0.03342313691973686,0.18522299826145172,-0.04631190374493599,0.09916675835847855,0.1269339770078659,0.049749355763196945,0.18950140476226807,0.021939191967248917,-0.08817023783922195,0.10926924645900726,-0.16976596415042877,0.16178129613399506,0.004496919922530651,0.21279141306877136,0.0019830772653222084,-0.06113718822598457,-0.09316032379865646,0.1048855409026146,0.1752072423696518,-0.07763555645942688,-0.10141739249229431,0.15641319751739502,-0.12369821220636368,-0.031538233160972595,-0.1435219645500183,-0.1409303843975067,-0.153761625289917,-0.007939138449728489,0.09069007635116577,0.16141480207443237,0.02138656936585903,-0.0027853308711200953,-0.16196796298027039,-0.12835371494293213,0.1033850908279419,-0.04593465104699135,0.10369734466075897,0.07148262113332748,-0.0809168815612793,-0.07916049659252167,0.06616570800542831,-0.08894234150648117,0.07099492847919464,-0.11272220313549042,0.09892840683460236,-0.16053679585456848,0.14321471750736237,0.06592866033315659,-0.040255870670080185,-0.011574182659387589,0.10010158270597458,-0.13324610888957977,-0.06413523852825165,0.10549414902925491,-0.1198030412197113,0.01704101637005806,0.1471807062625885,-0.08448373526334763,0.078487329185009,0.14655840396881104,-0.07099715620279312,0.020148394629359245,-0.0333121083676815,-0.1825341433286667,-0.12084823101758957,0.10323961824178696,-0.19948796927928925,0.05849133059382439,0.058888740837574005,0.1616879552602768,-0.03811259567737579,-0.03284645453095436,-0.057224106043577194,0.11723078787326813,0.06357195973396301,-0.12555907666683197,0.02951667457818985,0.07501737773418427,-0.04593059420585632,0.027074381709098816,-0.046665582805871964,0.01151358149945736,-0.0524941086769104,-0.10026077926158905,-0.10888248682022095,0.011167595162987709,-0.14482152462005615,0.019574221223592758,0.001484464854001999,-0.12631283700466156,0.08437784761190414,-0.030408717691898346,-0.0017557833343744278,-0.1098598837852478,-0.04685728996992111,-0.13140922784805298,-0.09642461687326431,0.0934116542339325,-0.037244293838739395,0.08626586198806763,-0.08837203681468964,-0.09323366731405258,0.08942880481481552,-0.13253477215766907,0.0036251358687877655,0.08649535477161407,-0.05811084061861038,-0.039049215614795685,0.06129304692149162,-0.07593703269958496,-0.15186652541160583,-0.05040038377046585,0.1156308576464653,-0.09269685298204422,-0.07026911526918411,0.11306628584861755,-0.1708064079284668,0.02312479540705681,-0.14064617455005646,0.06399330496788025,-0.031627435237169266,-0.04369658976793289,-0.05843820050358772,-0.126448854804039,0.060372184962034225,-0.11215957254171371,0.08628682792186737,-0.08961445838212967,-0.07914451509714127,-0.10749072581529617,-0.11263059079647064,0.1733296513557434,-0.05724925175309181,0.017703555524349213,0.03701942414045334,0.04557192325592041,0.107878178358078,0.06254217773675919,0.10685610771179199,0.029043572023510933,-0.04890472814440727,-0.13947124779224396,0.07841458171606064,0.07469600439071655,0.12395668774843216,-0.08165699988603592,-0.11647218465805054,-0.19913312792778015,-0.06054598465561867,0.08937407284975052,-0.039213985204696655,-0.13448141515254974,0.14182838797569275,0.09090051800012589,0.024572284892201424,0.07417842745780945,0.05680495500564575,-0.1237020194530487,-0.05324740707874298,0.004662981256842613,0.08583460003137589,-0.1398525834083557,0.06486647576093674,0.1368771642446518,-0.10580185800790787,0.13384225964546204,-0.10748499631881714,2.8496026061475277e-05,-0.14536617696285248,-0.06116184592247009,-0.12821123003959656,0.016195105388760567,-0.06379063427448273,0.05630136653780937,0.02672460861504078,-0.038187745958566666,-0.064947709441185,0.025546785444021225,0.008955713361501694,-0.022229602560400963,-0.024225948378443718,-0.06625188142061234,0.12572288513183594,-0.0006518238224089146,-0.08113217353820801,-0.06305386871099472,-0.06123011186718941,-0.021190008148550987,-0.0083630895242095,-0.12503419816493988,0.11343654990196228,-0.05034812539815903,0.0915953740477562,0.06988248229026794,0.10104629397392273,-0.020484166219830513,0.06318334490060806,0.13985492289066315,0.027627235278487206,-0.02705833502113819,-0.04046854004263878,0.0700385645031929,0.06306739896535873,0.08009430021047592,-0.008781632408499718,0.05901580676436424,0.03060651756823063,0.04249018430709839,-0.09006427973508835,0.011898698285222054,-0.10746072977781296,-0.190439373254776,-0.06959717720746994,-0.16126206517219543,0.0008567969198338687,0.13929533958435059,-0.08856146037578583,0.17247408628463745,0.14478014409542084,